tree
version=v4
num_class=1
num_tree_per_iteration=1
label_index=0
max_feature_idx=3
objective=binary sigmoid:1
feature_names=r_scaled tau vol ofi
feature_infos=[-0.29255391765106142:0.38518192795616241] [0.016666666666666718:1] [2.6900471052857108e-07:0.084373145439840147] [-0.99556542477110721:0.99468177234644917]
tree_sizes=3562 3562 3582 3570 3573 3574 3575 3586 3583 3581 3585 3581 3587 3575 3591 3581 3566 3567 3580 3584 3593 3594 3586 3576 3566 3578 3583 3595 3584 3581 3574 3582 3587 3588 3585 3600 3591 3578 3594 3563 3583 3581 3581 3603 3576 3553 3586 3568 3598 3567 3576 3598 3589 3567 3540 3602 3582 3577 3568 3557 3602 3548 3561 3530 3546 3558 3543 3573 3539 3557 3546 3516 3496 3492 3530 3545 3501 3531 3510 3494 3484 3480 3537 3562 3517 3512 3492 3459 3531 3496 3470 3495 3455 3514 3486 3539 3557 3549 3513 3512 3563 3578 3531 3443 3565 3530 3526 3526 3474 3497 3566 3562 3512 3537 3540 3563 3501 3546 3510 3468 3524 3489 3489 3481 3521 3565 3485 3494 3489 3493 3469 3551 3477 3540 3471 3487 3466 3475 3497 3496 3572 3514 3449 3514 3438 3487 3492 3444 3530 3468

Tree=0
num_leaves=31
num_cat=0
split_feature=0 0 0 0 0 0 1 2 2 2 0 2 0 1 1 0 2 0 2 2 0 0 2 2 0 2 0 1 2 2
split_gain=133861 21296.6 16981.6 2660.2 2519.19 2378.33 1648.99 978.311 927.18 767.363 644.752 401.882 386.76 332.001 303.756 259.321 243.322 242.441 229.489 203.233 189.807 155.224 149.419 146.968 146.915 242.172 138.317 123.218 109.463 93.9911
threshold=-7.4713211378855528e-05 0.0023050893084302563 -0.0025974248203969523 0.00078897618884921268 -0.0011712523806112459 0.0048887654707698777 0.47500000000000003 0.0036539858459630429 0.0032938920612486104 0.0029371265671711156 -0.0048836031255459047 0.0037349519113205457 -0.00051321130622202838 0.45833333333333337 0.75833333333333341 0.00028823325021351916 0.0015398871183200608 0.0011301684094030468 0.0056322223006581148 0.0023403273992475462 -0.0018083187144259988 0.0016487595045463559 0.0019308554424833911 0.0056788304768174052 -0.0047347260415170718 0.003921625528347677 0.0036382278531852928 0.44166666666666671 0.0018849359302458971 0.0066460354509345343
decision_type=2 2 2 2 2 2 2 2 2 2 2 2 2 2 2 2 2 2 2 2 2 2 2 2 2 2 2 2 2 2
left_child=2 3 6 15 8 7 10 27 16 17 29 -12 19 -7 24 -2 -4 -5 26 -6 -18 -11 -19 -10 -8 -26 -9 -3 -17 -1
right_child=1 5 4 9 12 13 14 18 23 21 11 -13 -14 -15 -16 28 20 22 -20 -21 -22 -23 -24 -25 25 -27 -28 -29 -30 -31
leaf_value=-0.12136328320676697 0.037973533846394882 0.16451449498479309 -0.093073539702226635 0.088794886204762252 -0.018783947348328452 0.18296786425836009 -0.087708166226582271 0.11473030107973287 -0.024094722752233975 0.069315219010640666 -0.10220929714492978 -0.060541938604826775 0.021469143010934288 0.15648219973765273 -0.039323223271937574 0.075754563142372514 -0.065973370808529594 0.13920415278271597 0.097756945672741458 0.0056263149635153165 -0.037673986768015269 0.089152073853070959 0.11033046125570799 -0.00033391450079506974 -0.087471882090340305 -0.046966120895237773 0.14338815290138468 0.1426283312312559 0.052832410832695284 -0.10692835888371678
leaf_weight=9871.0537874698639 9337.213122844696 4178.5028426349163 1007.1993812918663 2303.5624559223652 3148.8101749122143 14371.710476875305 2980.8603028953075 2768.1737834215164 5295.4194766283035 6593.5320290923119 3869.3451169133186 2400.5335129797459 8164.0632727742195 3837.8545159101486 2059.8851862549782 1648.5079699754715 2798.6646828055382 1726.7346216738224 3142.0621889829636 7115.8761250972748 3311.7615388333797 4091.028950959444 3416.7302088439465 2430.7744869589806 1635.7617743313313 2235.832671225071 1765.2231340110302 2716.6891500353813 6973.6685697734356 4080.2821585536003
leaf_count=39496 37360 16719 4030 9217 12599 57504 11927 11076 21188 26382 15482 9605 32666 15356 8242 6596 11198 6909 12572 28472 13251 16369 13671 9726 6545 8946 7063 10870 27903 16326
internal_value=0.0345329 0.111431 -0.050332 0.0690345 -0.0112822 0.15811 -0.0949296 0.13402 -0.0358096 0.0906505 -0.107565 -0.0862562 0.00847396 0.177386 -0.0662608 0.0472112 -0.0566408 0.110364 0.114373 -0.00186181 -0.0506355 0.0769106 0.120024 -0.0166192 -0.0743584 -0.0640799 0.125889 0.155891 0.057215 -0.117142
internal_weight=131277 68871.2 62406.1 36091 33272.6 32780.2 29133.6 14570.7 14843.8 18131.6 20221.2 6269.88 18428.7 18209.6 8912.34 17959.4 7117.63 7447.03 7675.46 10264.7 6110.43 10684.6 5143.46 7726.19 6852.45 3871.59 4533.4 6895.19 8622.18 13951.3
internal_count=525266 275567 249699 144407 133130 131160 116569 58300 59393 72548 80909 25087 73737 72860 35660 71859 28479 29797 30711 41071 24449 42751 20580 30914 27418 15491 18139 27589 34499 55822
is_linear=0
shrinkage=1


Tree=1
num_leaves=31
num_cat=0
split_feature=0 0 0 0 0 0 1 2 2 2 0 2 0 1 0 0 2 1 2 2 0 0 0 2 0 2 2 2 0 2
split_gain=113610 19993.7 12866.7 2561.98 2178.95 1966.13 1228.44 887.438 874.013 650.646 470.602 400.646 293.856 263.731 239.12 234.904 228.686 228.071 193.026 186.157 154.882 147.416 140.335 135.964 130.888 126.341 123.935 112.258 102.324 208.564
threshold=-0.00020569135699725761 0.0022466699809176893 -0.0028144258259845292 0.000727593090509857 0.0050331086553365529 -0.0012881843613737848 0.47500000000000003 0.003460222101291988 0.0032938920612486104 0.0029371265671711156 -0.0059156824281222991 0.0039422763224451008 -0.0007581711359963023 0.44166666666666671 0.00028823325021351916 0.0011301684094030468 0.0056322223006581148 0.75833333333333341 0.0015398871183200608 0.0023403273992475462 0.0036382278531852928 -0.0020671181220484288 0.0012762275198080347 0.0045375464377609672 0.0031269329441268819 0.0019082008881268527 0.0065800512166460153 0.00079200504437356128 -0.0061156306314644219 0.0062840057844686173
decision_type=2 2 2 2 2 2 2 2 2 2 2 2 2 2 2 2 2 2 2 2 2 2 2 2 2 2 2 2 2 2
left_child=2 3 6 14 7 8 10 24 18 15 -1 -12 19 -6 -2 -5 20 28 -4 -7 -9 -20 -11 -10 -3 -17 -13 -16 -8 -30
right_child=1 4 5 9 13 12 17 16 23 22 11 26 -14 -15 27 25 -18 -19 21 -21 -22 -23 -24 -25 -26 -27 -28 -29 29 -31
leaf_value=-0.14236601314659844 0.001444468559823654 0.10165299143967906 -0.12282675676542888 0.049089087252424141 0.13825916500605606 -0.060136749849309466 -0.11803755437127271 0.074609896931284891 -0.061854644269523834 0.026503483558497576 -0.13083880358259578 -0.10296469025019615 -0.019597226440306158 0.11469441221584506 0.096818140565399585 0.096668819627627217 0.058904435941220669 -0.069887760430459883 -0.099493223268931244 -0.032657388486432348 0.10204979895554334 -0.073816867969416416 0.044990761549052308 -0.040731002295370654 0.12425020251190788 0.06936528735456822 -0.064922382346269084 0.018367399835998496 -0.10565355407936795 -0.065117026123349686
leaf_weight=11859.435876280069 11911.836852222681 2991.0021534562111 943.18149964511395 2763.2635577321053 13676.963540822268 2207.455705165863 1874.8919649124146 3356.6597470492125 3550.5384043306112 4459.4075165688992 4819.073553621769 2038.8937086760998 9707.714177146554 3908.1546005904675 118.57979409396648 1603.4694827347994 3360.6723597794771 1772.314777135849 2355.7779306024313 5531.241077542305 2165.978312253952 3645.7004662454128 6398.118189394474 4326.4571992903948 3633.1575709879398 3352.1737387776375 749.56864400207996 7507.010313898325 3311.4156425446272 1076.3579235076904
leaf_count=47600 47662 12033 3781 11073 55167 8832 7514 13474 14206 17858 19330 8170 38834 15731 475 6445 13477 7092 9436 22126 8711 14591 25635 17308 14625 13450 3003 30053 13264 4310
internal_value=-1.17065e-05 0.0682509 -0.0813357 0.0287505 0.113745 -0.0470686 -0.121541 0.0918848 -0.0684933 0.0500216 -0.132404 -0.116874 -0.0288672 0.133022 0.00852575 0.0677785 0.0753589 -0.095224 -0.0891831 -0.0404958 0.0853718 -0.0838957 0.0373977 -0.0502524 0.114047 0.0781997 -0.0927385 0.0195873 -0.102394 -0.0957096
internal_weight=130976 71206.4 59770 38113.9 33092.6 32268.1 27502 15507.5 14821.7 18576.4 19467 7607.54 17446.4 17585.1 19537.4 7718.91 8883.31 8034.98 6944.66 7738.7 5522.64 6001.48 10857.5 7877 6624.16 4955.64 2788.46 7625.59 6262.67 4387.77
internal_count=525266 285869 239397 152651 133218 129114 110283 62320 59322 74461 78103 30503 69792 70898 78190 30968 35662 32180 27808 30958 22185 24027 43493 31514 26658 19895 11173 30528 25088 17574
is_linear=0
shrinkage=0.08


Tree=2
num_leaves=31
num_cat=0
split_feature=0 0 0 0 0 0 0 2 2 2 2 1 1 0 0 2 0 0 0 2 2 0 2 2 0 0 2 0 2 2
split_gain=96836.3 15958.9 12602.6 2153.77 1664.75 1563.87 1454.88 924.913 716.915 614.089 558.772 406.802 240.544 224.018 202.819 192.083 186.493 178.491 162.868 161.828 133.737 123.23 120.689 119.73 117.661 105.641 103.529 102.92 290.478 97.802
threshold=-7.4713211378855528e-05 0.0024824973279234624 -0.0022883982079251086 0.00078897618884921268 -0.0047347260415170718 0.0050331086553365529 -0.00095466715715776106 0.0037756338124275567 0.0036539858459630429 0.0028153645143138115 0.0032025234843542439 0.50833333333333341 0.45833333333333337 0.0016037303970274769 -0.0014517658962878088 0.0065800512166460153 0.00039838812762153639 0.0016932246421029399 -0.00045671171064441885 0.0063961895839070608 0.0015090921878710244 -0.0032010429815748109 0.0023583845620083837 0.0053853169606117761 0.0034574110129553036 -0.0032010429815748109 0.0048474972913744602 -0.0090033367908868688 0.0066460354509345343 0.011885308946479859
decision_type=2 2 2 2 2 2 2 2 2 2 2 2 2 2 2 2 2 2 2 2 2 2 2 2 2 2 2 2 2 2
left_child=2 3 4 16 11 8 10 21 -3 13 14 27 -7 -5 20 25 -2 -11 22 24 -4 -6 -8 -12 -10 -9 -19 -1 -29 -30
right_child=1 5 6 9 7 12 18 15 19 17 23 -13 -14 -15 -16 -17 -18 26 -20 -21 -22 -23 -24 -25 -26 -27 -28 28 29 -31
leaf_value=-0.1361745756391681 0.0045246065995932045 0.10794347626776199 -0.11851858877484851 0.056306677379406152 -0.119283321119421 0.12928604696903295 -0.040105904197713906 -0.086067769163556879 0.065728134963452645 0.03025576597093077 -0.045693557214871408 -0.097715663518789658 0.10602131804893603 0.085091252794786243 -0.054991453667391527 -0.046068786333599773 0.021421950666465486 0.059060574371798367 -0.0096497011471371671 0.052464523801058247 -0.075739543847648069 -0.097690263006256245 -0.019390326032269825 -0.02506865409985921 0.090228837455022998 -0.062405362577362102 0.035337204210094446 -0.12966262558613145 -0.092554089367228226 -0.016425948711971325
leaf_weight=7770.5343268364668 11318.989120662212 6218.6635990142822 542.65174770355225 4405.0353611111641 3282.6960562169552 13713.686154544353 2679.0607946962118 2637.6409342139959 2371.7401111423969 7272.5786250084639 5354.6388778090477 3040.8528283536434 3588.6208957433701 2849.8660299181938 3414.1587128639221 2055.8549970239401 6628.1996813714504 3056.9591743052006 7146.9078796356916 2149.1727776378393 3386.3014426082373 3489.5355778932571 5484.9838848114014 2714.5730087757111 2662.9382161051035 2227.0890817791224 1914.6920553296804 5772.1663588434458 901.59920194745064 122.70198537409306
leaf_count=31598 45303 25334 2196 17754 13292 56278 10724 10614 9568 29177 21448 12265 14620 11528 13688 8246 26556 12307 28589 8652 13607 14082 21942 10863 10792 8938 7698 23458 3652 497
internal_value=-5.91365e-06 0.0658187 -0.0723332 0.0307634 -0.10806 0.108571 -0.0359347 -0.0871386 0.0880569 0.0491701 -0.0532862 -0.12433 0.124461 0.0676138 -0.0692541 -0.0665708 0.0107651 0.0382419 -0.0184683 0.0708421 -0.081648 -0.108157 -0.0261882 -0.0387551 0.078687 -0.075235 0.0499242 -0.129886 -0.122696 -0.0834346
internal_weight=130175 68151.1 62023.9 37446.3 31300.7 30704.8 30723.3 13692.8 13402.5 19499.1 15412.3 17607.9 17302.3 7254.9 7343.11 6920.59 17947.2 12244.2 15311 7183.85 3928.95 6772.23 8164.04 8069.21 5034.68 4864.73 4971.65 14567 6796.47 1024.3
internal_count=525266 275567 249699 150323 126642 125244 123057 55172 54346 78464 61802 71470 70898 29282 29491 27798 71859 49182 61255 29012 15803 27374 32666 32311 20360 19552 20005 59205 27607 4149
is_linear=0
shrinkage=0.08


Tree=3
num_leaves=31
num_cat=0
split_feature=0 0 0 0 0 0 1 2 2 2 0 1 2 1 0 0 0 2 2 2 0 0 0 2 2 2 1 0 0 2
split_gain=82823 15313.4 9864.09 2084.14 1527.94 1452.65 1020.92 659.69 639.141 517.626 325.989 282.084 270.084 234.092 214.147 209.971 207.454 157.978 154.749 149.784 120.781 117.97 107.074 203.733 103.724 100.925 99.5859 98.5702 95.1324 139.706
threshold=-0.00020569135699725761 0.0024203901397154312 -0.0028144258259845292 0.00078897618884921268 0.0046114162916458135 -0.0012881843613737848 0.42500000000000004 0.0032938920612486104 0.003460222101291988 0.0029551811575095951 -0.0059156824281222991 0.45833333333333337 0.0037153437713977919 0.70833333333333337 0.0002077364102982014 -0.00079087781116367664 0.0016037303970274769 0.0015398871183200608 0.0049781440787400929 0.0023403273992475462 0.0016037303970274769 -0.0019076178087272069 -0.0059156824281222991 0.0039422763224451008 0.0061206477957834659 0.00079200504437356128 0.55833333333333346 -0.0017593747998228318 0.0074308764841848332 0.0065800512166460153
decision_type=2 2 2 2 2 2 2 2 2 2 2 2 2 2 2 2 2 2 2 2 2 2 2 2 2 2 2 2 2 2
left_child=2 3 6 14 8 7 10 17 -3 16 -1 28 -12 22 -2 19 26 -4 -10 -7 -11 -19 -8 -24 27 -16 -5 -9 29 -6
right_child=1 4 5 9 11 15 13 24 18 20 12 -13 -14 -15 25 -17 -18 21 -20 -21 -22 -23 23 -25 -26 -27 -28 -29 -30 -31
leaf_value=-0.12569170318576764 7.0343754433894494e-05 0.10052819553387042 -0.10747431675471869 0.063241259595268481 0.11674715538887671 -0.053204244082547848 -0.10606408561329106 -0.055993813930267429 0.07564005445658295 0.026509441653513797 -0.11635773279017883 0.097320373085396983 -0.083182819559548302 -0.063758139888445323 0.080083965536973417 -0.017015070966885343 0.077515375266997547 -0.08324804224725682 0.051905746448336204 -0.027596779088561282 0.043260657580548617 -0.060687536059226964 -0.10577211864464754 -0.071029387346150996 -0.027160277473192742 0.015418177832119856 0.040072268711543277 -0.034318945190346367 0.12574779117999529 0.073275868430169699
leaf_weight=10871.759847044945 10372.122505247593 5222.2775222659111 921.5706807076931 2171.1452228873968 4260.16163431108 2039.3442094326019 2337.9338978677988 3704.3942952007055 3461.5546694546938 6208.6320260614157 3928.2212631702423 4109.3765568733215 2616.84246301651 2546.0496279597282 156.89209388196468 10225.373837292194 2957.7677598893642 2941.9010474979877 3572.8052004873753 5162.7101515382528 4951.9473844468594 2992.0484014153481 1803.0785188227892 2694.4978709220886 2037.7088520973921 9985.9519789516926 2620.1671359539032 2106.32598310709 9485.5057950019836 532.25419564545155
leaf_count=45172 41504 21643 3781 8802 17867 8196 9605 14893 14156 24945 16218 17000 10664 10301 632 40917 12080 11957 14492 20679 19991 12070 7391 10932 8165 40025 10609 8456 39897 2226
internal_value=-1.67934e-06 0.058785 -0.0699002 0.0258124 0.101206 -0.0400091 -0.10574 -0.0585276 0.0793258 0.044971 -0.1172 0.11579 -0.103094 -0.0844642 0.00815304 -0.0243846 0.0608555 -0.0766583 0.0635852 -0.0348478 0.033942 -0.0718725 -0.0921767 -0.0849577 -0.0426907 0.0164184 0.0505711 -0.0481369 0.121106 0.111919
internal_weight=128998 70068.6 58929.8 39424.6 30643.9 32131.4 26798.4 14703.9 12256.6 18909.7 17416.8 18387.3 6545.06 9381.56 20515 17427.4 7749.08 6855.52 7034.36 7202.05 11160.6 5933.95 6835.51 4497.58 7848.43 10142.8 4791.31 5810.72 14277.9 4792.42
internal_count=525266 285869 239397 158588 127281 129114 110283 59322 50291 76427 72054 76990 26882 38229 82161 69792 31491 27808 28648 28875 44936 24027 27928 18323 31514 40657 19411 23349 59990 20093
is_linear=0
shrinkage=0.08


Tree=4
num_leaves=31
num_cat=0
split_feature=0 0 0 0 0 0 0 2 2 2 2 1 0 1 0 2 2 1 2 0 2 2 0 2 0 2 2 0 2 0
split_gain=71031.1 11950.5 10477.1 1719.91 1560.44 1076.27 1075.15 788.813 588.281 557.171 388.818 352.395 231.48 185.143 153.756 151.971 150.113 149.1 140.367 124.65 115.593 108.843 101.995 97.1159 229.006 97.0173 94.6235 94.3675 93.132 95.424
threshold=-1.0000000180025095e-35 0.0027514470104803442 -0.0021775633230957212 0.0010555082291190301 -0.0047347260415170718 -0.00095466715715776106 0.0056781862463455134 0.0039422763224451008 0.0043992159621778571 0.0030753894201168666 0.0031288561164585778 0.50833333333333341 0.00045635955752102261 0.6083333333333335 -0.00045671171064441885 0.0027638722240969946 0.0065800512166460153 0.52500000000000002 0.0030753894201168666 -0.0014517658962878088 0.0019308554424833911 0.0078967526149137934 -0.0031138936148710473 0.0086314389483336616 -0.012477438477213228 0.0023583845620083837 0.0019308554424833911 0.0039283819300241548 0.0049126920323687385 0.0017867294944174609
decision_type=2 2 2 2 2 2 2 2 2 2 2 2 2 2 2 2 2 2 2 2 2 2 2 2 2 2 2 2 2 2
left_child=2 3 4 12 11 10 8 15 18 13 19 23 -2 -5 25 -6 -9 -8 -3 26 -14 27 -17 -1 -25 -7 -4 -10 29 -11
right_child=1 6 5 9 7 14 17 16 21 28 -12 -13 20 -15 -16 22 -18 -19 -20 -21 -22 -23 -24 24 -26 -27 -28 -29 -30 -31
leaf_value=-0.11857391592686542 0.005432730793508961 0.10609058799896164 -0.090354441573741409 0.074537881204581505 -0.10347388018199481 -0.034817971280555533 0.11662692769535618 -0.06264716827684555 0.055015003755935182 0.031974093841668182 -0.032149126740240952 -0.085224510341479612 0.040905861633696604 0.047906025356563173 -0.0070036171892535947 -0.093716788386944194 -0.037056651806811294 0.093217361137918384 0.084476699062192073 -0.047577314611121746 0.01830108710433909 0.040057170187504598 -0.067781112469487356 -0.11837739045110722 -0.064690099095950526 -0.016224053288730861 -0.060745601963797267 0.079512719106095225 0.026258323969942432 0.052219860321251074
leaf_weight=11609.527168124914 10858.817265450954 4022.1673308163881 987.72831475734711 4544.2789026498795 3760.2258851230145 2671.2020260691643 12541.580596327782 4602.3421281576157 1997.327517002821 3025.5433350503445 7723.368719637394 2965.2414444535971 1776.4595891535282 2641.9059088230133 8648.4554868936539 1965.0937746167183 2153.4674934893847 2022.0244553089142 3684.6213138848543 3265.9772253334522 7825.7911503911018 1217.163327485323 1917.2304487228394 1531.9819814562798 761.12006476521492 5480.8369288146496 2297.6519571244717 2028.3334039896727 4080.8790189474821 2935.5762884765863
leaf_count=49470 43488 17104 4085 18779 15711 10724 54311 18753 8187 12198 31054 12265 7171 10834 34600 8228 8707 8552 15475 13195 31476 4995 7878 6532 3203 21942 9363 8481 16506 11999
internal_value=1.68022e-06 0.0583786 -0.0610543 0.0291159 -0.0937501 -0.0281575 0.0984643 -0.0744059 0.0816933 0.0477401 -0.0443094 -0.110262 0.0134343 0.064747 -0.014434 -0.0920111 -0.05449 0.113377 0.095757 -0.058645 0.0224831 0.0610201 -0.0809088 -0.115602 -0.100558 -0.0223168 -0.0696473 0.0673582 0.0355698 0.0419442
internal_weight=127544 65202.5 62341.5 37689.3 31266.2 31075.2 27513.2 14398.4 12949.6 17228.2 14274.7 16867.9 20461.1 7186.18 16800.5 7642.55 6755.81 14563.6 7706.79 6551.36 9602.25 5242.82 3882.32 13902.6 2293.1 8152.04 3285.38 4025.66 10042 5961.12
internal_count=525266 269556 255710 152451 130747 124963 117105 59277 54242 70316 57697 71470 82135 29613 67266 31817 27460 62863 32579 26643 38647 21663 16106 59205 9735 32666 13448 16668 40703 24197
is_linear=0
shrinkage=0.08


Tree=5
num_leaves=31
num_cat=0
split_feature=0 0 0 0 0 0 1 2 2 2 0 0 2 0 1 0 1 1 2 2 2 2 0 2 2 0 0 1 1 2
split_gain=61108.6 11027.6 8814.77 1585.7 1561.54 1000.08 784.157 612.197 517.737 477.427 234.784 223.374 228.24 213.944 164.598 160.55 158.224 156.546 146.064 138.796 130.22 125.921 94.1202 91.7723 87.2764 152.792 84.9986 82.3649 79.3964 74.2669
threshold=-5.0289083700796564e-05 0.0027514470104803442 -0.0031138936148710473 -0.0012492143205773273 0.0010555082291190301 0.0056781862463455134 0.42500000000000004 0.0030927507083939997 0.0035752429220895451 0.0030065583942286435 0.00039838812762153639 -0.0061156306314644219 0.0050111812474914136 -0.00051321130622202838 0.7250000000000002 -0.0018592803419274337 0.4916666666666667 0.39166666666666672 0.0063378904106917459 0.0042966028511185299 0.0022128901390740109 0.0018620126547938319 0.0036382278531852928 0.003858316737452371 0.0067845130649271659 -0.0063292000794459031 -0.0043371982270281884 0.39166666666666672 0.69166666666666676 0.00079200504437356128
decision_type=2 2 2 2 2 2 2 2 2 2 2 2 2 2 2 2 2 2 2 2 2 2 2 2 2 2 2 2 2 2
left_child=2 4 6 7 10 8 11 15 27 16 29 -1 -13 20 24 -4 -6 -7 22 -9 -5 -12 -10 -11 26 -26 -8 -3 -21 -2
right_child=1 5 3 13 9 17 14 19 18 23 21 12 -14 -15 -16 -17 -18 -19 -20 28 -22 -23 -24 -25 25 -27 -28 -29 -30 -31
leaf_value=-0.11378135766081374 0.044308330287251459 0.10362643737204573 -0.080990879201843211 -0.039753487538477239 0.073355378379835925 0.11278379511951023 -0.099361587562273229 -0.04977890959117031 0.057368456093949707 0.044076916854056319 0.039568385118628605 -0.10237497202610495 -0.063813906550111404 -0.0087889382590423167 -0.054776982071464399 -0.056543606036881605 0.048962513641926365 0.093390148042836407 0.046093358456830436 -0.039685452659051268 -0.020324960519171972 0.016382131395956373 0.079601494989767027 0.028079738590876448 -0.086049736829471105 -0.041371139678585356 -0.076256439410816473 0.083352634087094105 -0.02083989732579699 0.0025308814625058383
leaf_weight=9898.1897031366825 279.51176412403584 3269.2177641391754 3759.8604370802641 3009.9604261815548 3272.0495692491531 10438.57695569098 2216.4872401356697 4285.4414458572865 2055.6559906750917 3438.4306828081608 1807.6979122012854 4507.0857565999031 1256.1594045609236 8659.9909640550613 1848.3895631283522 3167.6073665320873 3546.4860734790564 3576.4748096764088 2264.1265501081944 3017.706823348999 8285.7725274711847 8779.7752255648375 2992.7229280620813 6902.4042546451092 1250.231481269002 805.47381448745728 1886.1166843473911 2110.3552094995975 2720.6568922996521 10595.039796292782
leaf_count=43696 1122 14326 15822 12153 13739 46926 9444 17499 8549 14057 7322 19486 5262 34650 7615 13031 14719 15643 9379 12216 33251 35352 12798 28054 5343 3321 7931 9147 10984 42423
internal_value=-9.12935e-05 0.053577 -0.057971 -0.0335324 0.0262445 0.0931027 -0.0960794 -0.0515244 0.0768351 0.0442347 0.0118609 -0.106491 -0.0939702 -0.0182492 -0.0757137 -0.0698123 0.0606681 0.107835 0.0629765 -0.0388856 -0.0255021 0.0203409 0.0705484 0.033399 -0.0819978 -0.0685436 -0.0887393 0.0956732 -0.0307505 0.0036047
internal_weight=125904 65328.5 60575.1 36907 38621.4 26707.1 23668.1 16951.3 12692.1 17159.4 21462 15661.4 5763.25 19955.7 8006.7 6927.47 6818.54 14015.1 7312.51 10023.8 11295.7 10587.5 5048.38 10340.8 6158.31 2055.71 4102.6 5379.57 5738.36 10874.6
internal_count=525260 273556 251704 149606 156788 116768 102098 69552 54199 70569 86219 68444 24748 80054 33654 28853 28458 62569 30726 40699 45404 42674 21347 42111 26039 8664 17375 23473 23200 43545
is_linear=0
shrinkage=0.08


Tree=6
num_leaves=31
num_cat=0
split_feature=0 0 0 0 0 0 1 2 2 2 0 0 2 2 1 2 0 2 2 0 0 2 0 2 0 2 0 2 0 1
split_gain=52601.8 10901 7069.51 1597.92 1153.46 965.439 718.487 537.554 451.742 424.576 247.95 201.387 237.962 190.826 185.361 180.69 163.638 161.057 155.367 192.213 130.285 118.802 118.075 110.915 107.323 81.7164 80.5188 151.568 73.6013 72.1986
threshold=-0.00020569135699725761 0.0027514470104803442 -0.0032010429815748109 0.0010211017227422111 -0.0014115197069005778 0.0053370250737403997 0.42500000000000004 0.0041008249770538808 0.0035752429220895451 0.0021173666261053666 0.00039838812762153639 -0.0065404389297102072 0.0050111812474914136 0.003858316737452371 0.59166666666666667 0.0017382919966554883 -0.0007581711359963023 0.0032025234843542439 0.0067145010434279439 -0.0082411916332333929 0.0017389561237391019 0.0063378904106917459 -0.0019597137643068492 0.003347426435756654 -0.0043371982270281884 0.011885308946479859 0.010365256517726415 0.0066460354509345343 0.0016487595045463559 0.42500000000000004
decision_type=2 2 2 2 2 2 2 2 2 2 2 2 2 2 2 2 2 2 2 2 2 2 2 2 2 2 2 2 2 2
left_child=2 3 6 10 7 8 11 15 29 28 -2 -1 -13 20 26 -4 17 -6 24 -20 -11 -10 -17 -12 -8 -21 27 -7 -5 -3
right_child=1 5 4 9 16 14 18 -9 21 13 23 12 -14 -15 -16 22 -18 -19 19 25 -22 -23 -24 -25 -26 -27 -28 -29 -30 -31
leaf_value=-0.10946901140223321 0.0019281212729827624 0.096788775718566755 -0.089724056350131434 0.055956593253956778 -0.038670790589908605 0.10454893896277601 -0.092693680921615521 -0.031284221713554002 0.064623069344690948 0.033720736791051059 0.025659054570699138 -0.099176030709514862 -0.060962535705712542 0.025568215597972649 0.075532711227281266 -0.065600831000869761 -0.013507263834323808 -0.017447517270293825 -0.084900783097614327 -0.049760509015804734 0.054755259301574342 0.041416595610127109 -0.04592615840387726 0.008690192855025855 -0.068170068286092858 -0.0050779806167979488 0.11173020472686965 0.072206216136087409 0.081342675284136676 0.076514598684122928
leaf_weight=8986.2722064107656 13943.438579395413 3142.8866143524647 1308.3615489453077 1487.2979731559753 4734.0427865236998 5490.3184638619423 2385.9519667476416 5862.8486203551292 4597.1395052820444 3903.7721379995346 5763.9284493029118 4580.9935695379972 1350.3545442372561 7046.123147547245 1498.8225347697735 4854.1629334390163 9710.301703453064 4429.7168876975775 1062.7249137461185 1631.42005841434 3643.4367487281561 2037.6238289028406 3265.4467955976725 4307.6952043473721 2190.7505149394274 312.05114671587944 6294.7747950851917 1115.7876743078232 1437.2682327479124 1750.1281565129757
leaf_count=41201 55827 14197 5663 6244 19240 25466 10392 23834 19712 16058 23321 20476 5783 28735 6661 20558 38914 17828 4626 6830 15361 8476 13446 17341 9325 1306 29397 5096 6183 7763
internal_value=-8.27151e-05 0.0476475 -0.0569058 0.0222388 -0.0339743 0.0883495 -0.0917251 -0.0503055 0.071096 0.0406115 0.0088368 -0.101917 -0.0904762 0.035036 0.102162 -0.0621341 -0.0207436 -0.0284116 -0.0716741 -0.0575448 0.0438752 0.0574961 -0.0576883 0.0184014 -0.0809549 -0.0425861 0.105256 0.0990862 0.0684325 0.0895371
internal_weight=124126 67460.4 56665.4 41533 34164.9 25927.5 22500.5 15290.8 11527.8 17517.9 24015.1 14917.6 5931.35 14593.3 14399.7 9427.97 18874.1 9163.76 7582.9 3006.2 7547.21 6634.76 8119.61 10071.6 4576.7 1943.47 12900.9 6606.11 2924.57 4893.01
internal_count=525260 285838 239422 169070 139483 116768 99939 63501 50148 72581 96489 67460 26259 60154 66620 39667 75982 37068 32479 12762 31419 28188 34004 40662 19717 8136 59959 30562 12427 21960
is_linear=0
shrinkage=0.08


Tree=7
num_leaves=31
num_cat=0
split_feature=0 0 0 0 0 1 1 2 2 0 2 0 0 1 0 0 2 0 2 0 2 0 2 1 2 2 2 1 2 0
split_gain=45307 9002.85 7237.81 1417.11 996.548 851.737 683.522 452.067 412.953 272.789 225.234 193.606 191.928 178.807 170.351 166.004 163.634 161.262 116.759 115.677 115.191 112.981 182.954 111.209 106.908 106.32 103.524 94.1688 85.5428 78.912
threshold=-5.0289083700796564e-05 0.0031269329441268819 -0.0028144258259845292 0.0010555082291190301 -0.0012492143205773273 0.40833333333333338 0.39166666666666672 0.0030065583942286435 0.0029371265671711156 -0.0059156824281222991 0.0037557628297860092 0.0046114162916458135 0.0062478366872458016 0.7250000000000002 0.0018807094404055442 0.00039838812762153639 0.0034030376453488189 -0.00036929832893701809 0.0049781440787400929 0.0017389561237391019 0.0018620126547938319 -0.0055309180884526759 0.0039422763224451008 0.69166666666666676 0.0014767069967130274 0.0041247662523515756 0.0039422763224451008 0.69166666666666676 0.0057255863210659555 -0.0018592803419274337
decision_type=2 2 2 2 2 2 2 2 2 2 2 2 2 2 2 2 2 2 2 2 2 2 2 2 2 2 2 2 2 2
left_child=2 3 5 15 8 9 12 14 24 -1 -11 18 16 21 20 -2 -3 25 -8 -9 -5 -7 -23 -10 -4 -6 -17 -13 -21 -26
right_child=1 6 4 7 17 13 11 19 23 10 -12 27 -14 -15 -16 26 -18 -19 -20 28 -22 22 -24 -25 29 -27 -28 -29 -30 -31
leaf_value=-0.10454393739038065 0.0031628497933881097 0.099310327726000389 -0.088094838244197796 0.065305020781489059 -0.024635540807623091 -0.084180562938993675 0.067891300268539456 0.020750383262050399 -0.040423190816773556 -0.095170530391270894 -0.062614779074772184 0.086057460100415928 0.10509000917744389 -0.045230747699755554 0.069052204499603601 0.022499569927657666 0.070843317485803262 -0.0047022860552738983 0.039882613941899056 0.042414653916875648 0.035860585395549711 -0.083308966280528876 -0.049943817985821204 -0.022792777515900271 -0.066489322795780736 -0.0089044935187033644 0.0052818540046254961 0.058734959046912963 0.02276999138874413 -0.045709425658648571
leaf_weight=9226.993018746376 10872.357229143381 2706.8215040713549 768.31596972048283 1209.9322723895311 9993.9502458721399 2714.5623513758183 2300.2016446739435 4794.4497332274914 5229.2291577756405 3430.9202727079391 2253.2953875809908 3786.3111823797226 8895.5439300537109 2195.0940421074629 3308.3183424919844 7330.8750633597374 2473.0040986537933 6119.1557240635157 1625.8053804188967 5032.3278393596411 2861.1570350974798 1762.7545371353626 2607.8939222842455 4073.4936511367559 2294.4281825721264 3793.3497391790152 3215.1782413870096 1026.1079180389643 1975.5729302763939 2385.7424699068069
leaf_count=44060 43545 12798 3420 5206 40334 12251 10278 19518 21502 15857 9816 17503 43490 9228 14615 29719 11112 24486 6853 21172 12046 7874 11110 16638 9944 15234 12955 4617 8129 9950
internal_value=-7.49862e-05 0.046839 -0.050628 0.0242435 -0.0271881 -0.0842088 0.0870507 0.0400369 -0.0429469 -0.0960511 -0.082265 0.0694763 0.0979615 -0.0651811 0.0555687 0.0100993 0.0857193 -0.0155105 0.0562926 0.0303257 0.0446115 -0.071362 -0.0634005 -0.0327032 -0.0604371 -0.0203074 0.0172504 0.0802317 0.0368767 -0.0558967
internal_weight=122263 63414 58849.2 40600.2 34657.7 24191.5 22813.8 19181.8 14751.2 14911.2 5684.22 8738.43 14075.4 9280.3 7379.41 21418.4 5179.83 19906.5 3926.01 11802.4 4071.09 7085.21 4370.65 9302.72 5448.49 13787.3 10546.1 4812.42 7007.9 4680.17
internal_count=525260 273556 251704 166905 141508 110196 106651 80686 61454 69733 25673 39251 67400 40463 31867 86219 23910 80054 17131 48819 17252 31235 18984 38140 23314 55568 42674 22120 29301 19894
is_linear=0
shrinkage=0.08


Tree=8
num_leaves=31
num_cat=0
split_feature=0 0 0 0 0 0 2 1 2 2 1 2 2 0 2 0 0 2 1 0 2 0 0 0 2 2 0 0 2 2
split_gain=39070.5 8148.25 6747.85 1231.91 1040.25 879.387 613.529 503.626 457.487 309.139 277.455 199.773 191.692 170.609 186.082 152.18 125.628 125.477 125.079 124.896 104.473 102.512 101.293 100.355 102.286 95.2544 93.651 85.3428 79.55 76.0395
threshold=0.00015487409721615653 -0.0022306251578558226 0.0035440523613633097 -0.0050376781796652387 0.0015599959374426144 -0.0007581711359963023 0.003347426435756654 0.45833333333333337 0.0030753894201168666 0.0040770029442290783 0.37500000000000006 0.0018620126547938319 0.008005307414425504 0.0068943349697930421 0.0049456755542559338 -0.0015348075182445495 -0.0038775441706102275 0.0067845130649271659 0.47500000000000003 0.0006625184204194477 0.0019082008881268527 -0.0032010429815748109 -0.010477254469100637 0.0064624453262077759 0.0078967526149137934 0.0063378904106917459 -0.00036929832893701809 0.0010555082291190301 0.010427599047667791 0.0022128901390740109
decision_type=2 2 2 2 2 2 2 2 2 2 2 2 2 2 2 2 2 2 2 2 2 2 2 2 2 2 2 2 2 2
left_child=1 3 4 10 11 9 21 13 18 15 -1 27 16 14 -4 20 -8 -12 -6 -13 -3 -5 -19 24 -9 -10 -7 -2 -24 -17
right_child=2 5 7 6 8 26 12 23 25 -11 17 19 -14 -15 -16 29 -18 22 -20 -21 -22 -23 28 -25 -26 -27 -28 -29 -30 -31
leaf_value=-0.099768990752767017 0.027488559868197676 -0.076044907770796616 0.0916946669852121 -0.091845170180791108 0.073771612155335092 -0.013627790216938811 -0.065665768359897334 0.065002679481851247 0.037981672970688642 -0.015789031310550629 -0.089732081908371578 0.0053679251538049644 -0.015574841944221849 0.10166142560205005 0.057867721581666622 -0.042596836421955525 -0.04320478757328141 -0.085070044071805476 0.049484526891507459 0.01900193985563714 -0.044276952777964562 -0.069499408724768244 -0.062805084901982874 0.080919201159069587 0.031707300304524344 0.018464226898708771 -0.0018698510184763479 0.057077718050466596 -0.02294543451023839 -0.025445989283134879
leaf_weight=9579.0339926630259 2765.7832961529493 820.173146083951 4468.5986205786467 2482.1982737332582 3008.3512941896915 6648.0219532847404 2307.5761070102453 3005.9992696046829 7354.0395959615707 5829.8338200449944 2011.8225277662277 7272.3062244653702 1189.7145971208811 8333.9191851168871 1356.7859224677086 2528.0762205868959 5151.6377754956484 799.50851874053478 2472.4644302278757 10521.587095201015 3446.9267311692238 2791.5544195026159 966.04398001730442 1930.8729917407036 734.86858773231506 2045.5000420957804 12462.897964775562 805.55374202132225 479.49858182668686 4787.4183719009161
leaf_count=47567 11251 3673 21781 11776 13756 26710 10227 13671 31221 23626 9448 29229 4945 42670 6272 10508 21919 3742 10927 43069 14543 12565 4329 9152 3201 8459 49883 3500 2114 19526
internal_value=-6.80566e-05 -0.0426399 0.048733 -0.075311 0.028206 -0.0178091 -0.0585105 0.0862507 0.0444456 -0.0308139 -0.0922169 0.0168954 -0.0453968 0.0943195 0.0838161 -0.0383764 -0.0501533 -0.0752228 0.0628154 0.0134298 -0.050383 -0.0800169 -0.0622209 0.0661073 0.058462 0.0337343 -0.00596003 0.0341627 -0.0495833 -0.0313729
internal_weight=120359 64281.9 56076.6 27758.6 36245.6 36523.3 13922.7 19831 14880.4 17412.4 13835.9 21365.2 8648.93 14159.3 5825.38 11582.6 7459.21 4256.87 5480.82 17793.9 4267.1 5273.75 2245.05 5671.74 3740.87 9399.54 19110.9 3571.34 1445.54 7315.49
internal_count=525260 277101 248159 128632 151412 148469 61432 96747 64363 71876 67200 87049 37091 70723 28053 48250 32146 19633 24683 72298 18216 24341 10185 26024 16872 39680 76593 14751 6443 30034
is_linear=0
shrinkage=0.08


Tree=9
num_leaves=31
num_cat=0
split_feature=0 0 0 0 0 0 1 2 2 2 2 2 0 1 0 0 2 2 2 0 2 0 2 0 2 2 1 2 1 1
split_gain=33709.8 8125.08 5452.09 1008.63 1005.15 901.787 506.977 486.432 429.931 317.59 170.56 167.761 184.555 160.306 151.848 143.327 273.131 140.056 135.268 143.528 107.966 94.1273 84.9162 82.0028 80.3081 70.0411 69.2689 69.0267 67.8207 65.7976
threshold=-0.00020569135699725761 0.0027514470104803442 -0.0036619361856046668 0.0010211017227422111 -0.0017123590426860072 0.0056781862463455134 0.40833333333333338 0.0028153645143138115 0.0035752429220895451 0.0021173666261053666 0.0065800512166460153 0.004150784659014561 -0.00092017707672397613 0.39166666666666672 0.00039838812762153639 -0.0079161644461932159 0.0062276225514250666 0.003858316737452371 0.0067845130649271659 -0.0082411916332333929 0.0072541218360718243 0.0041462617490752819 0.0018377779207605176 0.0017389561237391019 0.010724262142452387 0.0023036175406390574 0.74166666666666681 0.0037153437713977919 0.35833333333333339 0.47500000000000003
decision_type=2 2 2 2 2 2 2 2 2 2 2 2 2 2 2 2 2 2 2 2 2 2 2 2 2 2 2 2 2 2
left_child=2 3 6 14 7 8 15 -4 28 29 26 12 25 -7 -2 -1 27 23 -8 -20 21 -10 -16 -11 -18 -6 -9 -17 -3 -5
right_child=1 5 4 9 11 13 18 10 20 17 -12 -13 -14 -15 22 16 24 -19 19 -21 -22 -23 -24 -25 -26 -27 -28 -29 -30 -31
leaf_value=-0.100180064279528 0.0014973216069495208 0.087856047596730477 -0.069249172087231636 0.068460072734147351 -0.043234087199092316 0.097554335114023713 -0.074069763034686084 -0.045640629936204949 0.044344509249169627 0.027181462363276437 -0.014239684966552923 -0.006946763989435111 -0.014956116524217142 0.076502557207460964 0.03102390003398757 -0.097436469874470577 -0.049794574103907634 0.019405381688266155 -0.073266876758535701 -0.035109383761622114 0.028777463275903071 0.065944049741261321 0.011144269642796727 0.044118454620001621 0.021404818882589348 -0.026341389408521987 -0.028439180889172102 -0.077642252503875103 0.068646093368603153 0.04373691652788933
leaf_weight=6424.033385142684 13939.516511663795 2589.4112073928118 3976.1349812299013 1501.436329215765 2438.1199571788311 8738.5007875859737 3527.4247554838657 5795.3608323484659 3184.6066268086433 3839.8739072680473 1860.0668274611235 6216.3856140524149 9069.5348058193922 3149.3302112519741 1645.5725581496954 2938.8334953039885 668.09628728032112 6955.328709974885 1040.602665707469 1602.3776572048664 1493.3765917569399 2171.8372493684292 8368.5139842778444 3494.4576550424099 119.52707417309284 4416.0744057446718 2020.6603067517281 1829.3589428216219 2155.2161081582308 1273.1163012683392
leaf_count=33647 55827 13086 18341 6831 10359 46926 16499 25093 14082 16058 7659 25072 36535 15643 6767 14981 3136 28735 4925 6993 6426 10218 33895 15361 543 18209 8473 8957 10387 5596
internal_value=-6.21128e-05 0.038968 -0.0467311 0.0174844 -0.0286197 0.0764946 -0.0824468 -0.0456922 0.0606202 0.0323475 -0.0360121 -0.0180922 -0.0224433 0.0919773 0.00689604 -0.0920424 -0.0826331 0.0275384 -0.0638168 -0.0501329 0.0477991 0.0531023 0.014411 0.0352511 -0.0389896 -0.0323503 -0.0411936 -0.0898422 0.0791301 0.0571157
internal_weight=118443 64500.1 53942.6 41017.8 35792.3 23482.3 18150.3 13652.2 11594.4 17064.2 9676.09 22140.1 15923.7 11887.8 23953.6 11979.8 5555.82 14289.7 6170.41 2642.98 6849.82 5356.44 10014.1 7334.33 787.623 6854.19 7816.02 4768.19 4744.63 2774.55
internal_count=525260 285838 239422 169070 149741 116768 89681 59566 54199 72581 41225 90175 65103 62569 96489 61264 27617 60154 28417 11918 30726 24300 40662 31419 3679 28568 33566 23938 23473 12427
is_linear=0
shrinkage=0.08


Tree=10
num_leaves=31
num_cat=0
split_feature=0 0 0 0 0 0 2 1 2 2 2 0 0 2 2 2 0 0 2 0 2 0 2 2 2 2 2 0 0 0
split_gain=29291.7 6259.02 6220.07 893.895 814.021 708.364 582.719 504.152 351.066 295.137 214.436 254.634 190.252 163.321 157.627 156.762 148.648 148.607 128.864 126.263 121.955 105.003 111.297 98.9065 81.3721 76.689 73.8489 70.9451 66.8166 64.0557
threshold=2.4727051639179416e-05 -0.0026695626013610902 0.0034574110129553036 0.0016037303970274769 -0.0063292000794459031 -0.0012093675117434072 0.0047822642481651625 0.44166666666666671 0.0038368560102455323 0.0026259389031430777 0.0099186418027538796 -0.015445327741172677 0.0062478366872458016 0.0027994605113802261 0.00530477079118269 0.0027807105213693327 -0.004099518236373524 0.0006625184204194477 0.0020776025403962872 -0.00039720745389603334 0.011076167376086915 0.008012161680513703 0.0086314389483336616 0.0059161263887008838 0.0023583845620083837 0.0015090921878710244 0.00061616275840310406 0.0024824973279234624 -0.0043371982270281884 -0.0018592803419274337
decision_type=2 2 2 2 2 2 2 2 2 2 2 2 2 2 2 2 2 2 2 2 2 2 2 2 2 2 2 2 2 2
left_child=1 4 3 15 10 9 13 12 18 25 -1 -12 14 -6 -4 17 -15 26 -5 24 28 22 -9 29 -7 -3 -2 -20 -8 -11
right_child=2 5 7 8 6 19 20 21 -10 23 11 -13 -14 16 -16 -17 -18 -19 27 -21 -22 -23 -24 -25 -26 -27 -28 -29 -30 -31
leaf_value=-0.094692682303280457 0.073137659576579417 -0.074017798514281211 0.081985875482314508 0.069979131993497201 -0.087400326667563338 -0.024891614502501169 -0.052274006118551916 0.059612710717392943 0.025040721350995474 -0.037291025897710439 -0.09317913939351874 -0.032230240392992167 0.095184066426649158 -0.079331624522382932 0.044338899785666235 0.0078518330714690918 -0.05166836714626153 0.030882436656358172 0.037589794117522446 -0.0035458312136742915 0.0034607256538521048 0.080703907042114859 0.026030230380640226 -0.0104039344901256 -0.011095737496114828 -0.04589835420501881 0.010183396958118778 0.055884441675772577 -0.032846741645238903 -0.022755534403820762
leaf_weight=8112.9118686765432 122.04288454353809 769.77556039392948 3805.896665841341 1721.590326577425 2888.149963080883 3988.8019253611565 1995.1595508158207 4027.4758144766092 6252.3167237788439 3743.8778450638056 912.24244768917561 845.10701367259026 8143.3438617885113 2181.5389183312654 875.53087297081947 13986.378006607294 2890.1586934328079 4930.6531845927238 3362.09037335217 10417.833439394832 426.68644414842129 1212.9546323567629 749.06267637014389 2159.5334679335356 8713.7621685415506 3205.7576802372932 5218.9130042940378 2274.2830709517002 2622.0805497914553 4027.8621755093336
leaf_count=43800 498 3671 19830 8253 14744 16342 9284 19312 26483 16037 4887 4119 46018 10969 4121 56747 13366 20934 14762 41705 1814 6193 3429 8795 35160 14203 21037 10928 11339 16732
internal_value=2.67245e-05 -0.0389809 0.0412494 0.0225697 -0.0718823 -0.0186556 -0.0587341 0.0788468 0.038979 -0.0329229 -0.0892047 -0.0638689 0.0877962 -0.072215 0.0749451 0.0133631 -0.0635674 0.0208675 0.0508229 -0.0100739 -0.0374599 0.059684 0.0543463 -0.0255493 -0.0154279 -0.0513431 0.0116219 0.0449717 -0.0412415 -0.0297577
internal_weight=116584 59901.2 56682.5 37868.3 22874 37027.2 13003.8 18814.3 13610.3 13906.8 9870.26 1757.35 12824.8 7959.85 4681.43 24258 5071.7 10271.6 7357.96 23120.4 5043.93 5989.49 4776.54 9931.27 12702.6 3975.53 5340.96 5636.37 4617.24 7771.74
internal_count=525512 266967 258545 159642 114322 152645 61516 98903 60426 59438 52806 9006 69969 39079 23951 99216 24335 42469 33943 93207 22437 28934 22741 41564 51502 17874 21535 25690 20623 32769
is_linear=0
shrinkage=0.08


Tree=11
num_leaves=31
num_cat=0
split_feature=0 0 0 0 0 1 1 2 2 0 0 2 2 0 2 0 1 2 2 1 2 2 0 2 2 2 2 0 2 2
split_gain=25265.5 5725.99 5722.76 840.32 816.22 648.976 478.848 333.53 330.329 221.935 201.07 183.234 171.023 144.358 144.061 140.961 133.051 106.054 100.978 89.5241 79.8302 79.4816 78.6444 76.1656 75.4291 68.2994 64.6162 63.3137 61.7624 61.4771
threshold=2.4727051639179416e-05 0.0035440523613633097 -0.0031138936148710473 -0.0014115197069005778 0.0016037303970274769 0.40833333333333338 0.47500000000000003 0.0030753894201168666 0.0027807105213693327 -0.0065404389297102072 0.0068943349697930421 0.0037557628297860092 0.0036127988081944115 0.00057426863236412391 0.0027807105213693327 -0.00069531444734131931 0.6083333333333335 0.0058198163034535334 0.0023403273992475462 0.45833333333333337 0.0124481458135781 0.0055904212968552669 0.0064624453262077759 0.0014767069967130274 0.0049781440787400929 0.0065800512166460153 0.00061616275840310406 -0.0020120588671215284 0.0049126920323687385 0.0084977880920206628
decision_type=2 2 2 2 2 2 2 2 2 2 2 2 2 2 2 2 2 2 2 2 2 2 2 2 2 2 2 2 2 2
left_child=2 4 5 8 13 9 10 19 23 29 12 -11 -3 26 -15 18 -7 -10 -5 -6 -14 -9 24 -4 -8 -13 -2 -25 -18 -1
right_child=1 6 3 15 7 16 22 21 17 11 -12 25 20 14 -16 -17 28 -19 -20 -21 -22 -23 -24 27 -26 -27 -28 -29 -30 -31
leaf_value=-0.096353730332215837 0.065693626454597628 0.086919902205728899 -0.078902975019246507 -0.030689770444302922 0.063547864945889196 -0.063322990502283294 0.061838830162120585 0.032542261709495965 -0.031540120699370608 -0.083986676801767843 0.093230054637968574 -0.061502580688846925 0.060452124781326236 0.027606446095428994 0.011060799878285356 -0.0055919570778378081 -0.058809767426970611 -0.012391441476235578 -0.012779212858560587 0.041985789398163602 -0.040754331558416783 0.016260588235591501 0.069653592485528312 -0.059121426855246427 0.03758551245403205 -0.029122884966989761 0.0043238841830560652 -0.037878241494863227 -0.035045086628374418 -0.077545348194811597
leaf_weight=5636.8314758241177 111.02735807001591 2748.5187334269285 637.55323570966721 2789.4974570721388 2602.8784200698137 3982.7326737344265 1458.0769014209509 6104.8704529702663 7254.6793493777514 2838.2129398137331 7270.1162749528885 1609.4875257015228 2636.1549769192934 5533.343435510993 8605.9214241653681 15530.077297374606 979.54865622520447 2485.2150917351246 7252.1018330901861 2340.5035607069731 50.842541590332985 2798.5096556693316 1624.246452793479 1866.3791257441044 1877.3732228279114 562.67176589369774 9954.711285635829 1730.4462460130453 2451.6864527761936 1385.6209173351526
leaf_count=32701 456 15362 3223 11727 12890 19720 7262 26817 31203 15513 43294 7990 13526 23537 35182 62312 4636 10226 29525 10928 242 11777 8497 8987 8734 2575 40041 7653 11122 7854
internal_value=2.60883e-05 0.0386591 -0.0364618 -0.0189888 0.021185 -0.0719939 0.0762989 0.0366762 -0.0347641 -0.0834654 0.0845281 -0.0706028 0.0728891 0.0123231 0.0175359 -0.0103681 -0.0533756 -0.0266542 -0.0177547 0.053339 0.0585371 0.0274246 0.0552176 -0.0534185 0.0481877 -0.053115 0.00500081 -0.0489013 -0.0418294 -0.0926426
internal_weight=114710 55717.1 58992.7 39545.9 38051.8 19446.8 17665.3 13846.8 13974.3 12032.8 12705.6 5010.37 5435.52 24205 14139.3 25571.7 7413.97 9739.89 10041.6 4943.38 2687 8903.38 4959.7 4234.38 3335.45 2172.16 10065.7 3596.83 3431.24 7022.45
internal_count=525512 258545 266967 164856 161628 102111 96917 62412 61292 66633 72424 26078 29130 99216 58719 103564 35478 41429 41252 23818 13768 38594 24493 19863 15996 10565 40497 16640 15758 40555
is_linear=0
shrinkage=0.08


Tree=12
num_leaves=31
num_cat=0
split_feature=0 0 0 0 0 0 2 1 2 2 2 0 2 0 0 2 2 0 2 0 0 2 0 2 2 2 2 2 0 1
split_gain=21815.6 5905.08 4551.22 788.534 710.836 561.528 534.772 459.753 301.115 254.384 211.066 244.906 177.728 165.795 154.267 147.292 143.801 120.735 108.194 103.683 90.5285 89.095 88.7865 97.0664 81.895 74.811 71.8299 69.5051 67.5358 65.9712
threshold=0.00028823325021351916 -0.0026695626013610902 0.0036382278531852928 -0.0063292000794459031 -0.00082233614437533732 0.0018807094404055442 0.003921625528347677 0.44166666666666671 0.0030753894201168666 0.0041008249770538808 0.0099186418027538796 -0.015445327741172677 0.003921625528347677 0.0068943349697930421 -0.0017123590426860072 0.0049456755542559338 0.0062276225514250666 -0.0037698985922762808 0.00090627863526762588 0.0011666438524414451 -0.0043371982270281884 0.0015398871183200608 0.008012161680513703 0.0087779427185989932 0.0055904212968552669 0.0029194767162220689 0.011885308946479859 0.0015090921878710244 -0.00036929832893701809 0.42500000000000004
decision_type=2 2 2 2 2 2 2 2 2 2 2 2 2 2 2 2 2 2 2 2 2 2 2 2 2 2 2 2 2 2
left_child=1 3 5 10 9 12 17 13 29 14 -1 -12 18 15 21 -4 20 -5 -2 -20 -8 -3 23 -9 -10 -19 -18 -16 -6 -7
right_child=2 4 7 6 28 8 16 22 24 -11 11 -13 -14 -15 27 -17 26 25 19 -21 -22 -23 -24 -25 -26 -27 -28 -29 -30 -31
leaf_value=-0.089195610001170406 0.063895071594783179 -0.079796244711939468 0.079394018841281111 -0.082318918844826588 -0.010198498894512256 0.065433800655962132 -0.061883983814542111 0.054240861754819653 0.033421161403052659 -0.012533178090628457 -0.087929455803719331 -0.02624630959175888 0.0049295014776654465 0.0911032451195114 -0.046616780012737467 0.04601035762174642 -0.027860843989343059 -0.070806807592470253 0.014180914652056606 0.028589797052540319 -0.037214260383797639 -0.039905827520279498 0.074278292195753243 0.020629369416172171 0.015464122514305867 -0.044559159135066112 0.012386148835539406 -0.022179696908925742 -0.00094423118967609245 0.044488674351180764
leaf_weight=7353.0903504341841 353.88135713338852 390.73589369654655 3538.430588170886 2800.1925837397575 7614.1809517145157 1970.0135933756828 1568.3948837965727 3468.7018968313932 5062.1356984972954 6767.5328001976013 835.62161438167095 812.5077218413353 7335.1417228877544 6653.2911269813776 835.65480810403824 1111.5581412613392 2469.3268993347883 1522.8759425580502 9338.2401510179043 4859.2920527905226 2422.3276379108429 4322.1166751235723 1123.933463588357 653.48191757500172 2394.1922672688961 1278.3413483351469 320.65750719606876 6858.9270859062672 14968.896956071258 1881.722845941782
leaf_count=43800 1544 2056 20382 15713 30757 10239 8036 17556 22765 27839 4887 4119 29970 41973 3755 5697 11036 8076 38371 21317 11043 19640 6193 3085 10164 6241 1371 28818 59945 9124
internal_value=2.59223e-05 -0.0311894 0.0396483 -0.0653778 -0.0136823 0.0225623 -0.0522794 0.0739193 0.0370379 -0.0250097 -0.0833959 -0.0575204 0.0150833 0.0830033 -0.0318149 0.0714138 -0.0371686 -0.0705716 0.0202016 0.0191125 -0.0469097 -0.0432131 0.0543469 0.0489125 0.0276552 -0.0588286 -0.0232352 -0.0248336 -0.00406443 0.0552013
internal_weight=112885 63141.4 49744 21383.3 41758 33194.6 12382.1 16549.4 11308.1 19175 9001.22 1648.13 21886.6 11303.3 12407.4 4649.99 6780.71 5601.41 14551.4 14197.5 3990.72 4712.85 5246.12 4122.18 7456.33 2801.22 2789.98 7694.58 22583.1 3851.74
internal_count=525512 287132 238380 114322 172810 143494 61516 94886 52292 82108 52806 9006 91202 68052 54269 26079 31486 30030 61232 59688 19079 21696 26834 20641 32929 14317 12407 32573 90702 19363
is_linear=0
shrinkage=0.08


Tree=13
num_leaves=31
num_cat=0
split_feature=0 0 0 0 1 0 1 2 2 0 2 0 2 0 2 2 0 0 2 2 1 2 2 0 2 2 2 2 0 2
split_gain=18826.5 5069.26 4524.29 751.141 617.386 574.062 459.231 289.278 283.681 209.005 184.718 137.423 135.818 133.402 129.255 120.604 138.245 102.424 141.107 92.8088 84.1848 82.0307 80.6906 79.9116 66.5832 66.5146 66.1667 62.8531 62.2702 60.8952
threshold=0.00015487409721615653 -0.0032010429815748109 0.0036382278531852928 -0.0014115197069005778 0.40833333333333338 0.0016487595045463559 0.3083333333333334 0.0026932570409588076 0.0030753894201168666 -0.006781280089419724 0.0037557628297860092 0.0064624453262077759 0.0019082008881268527 -0.00039720745389603334 0.0043471895740462814 0.0047822642481651625 -0.0082411916332333929 0.0074308764841848332 0.00515447463444279 0.0058198163034535334 0.7250000000000002 0.0023583845620083837 0.011885308946479859 0.0010555082291190301 0.0057716714585527122 0.013134079440155922 0.0013677319633086788 0.0065800512166460153 0.013685711720611239 0.0039422763224451008
decision_type=2 2 2 2 2 2 2 2 2 2 2 2 2 2 2 2 2 2 2 2 2 2 2 2 2 2 2 2 2 2
left_child=1 4 5 7 9 12 17 26 20 -1 -11 14 23 21 -8 -6 -17 18 -4 -9 -7 -5 -18 -2 -10 -13 -3 -12 -27 -14
right_child=2 3 6 13 15 8 11 19 24 10 27 25 29 -15 -16 16 22 -19 -20 -21 -22 -23 -24 -25 -26 28 -28 -29 -30 -31
leaf_value=-0.088137993434468334 0.01887180256156798 -0.077728211658557214 0.081278536872260929 -0.021907431856522549 -0.062500773355992384 0.052758021626151119 0.064303113829177944 -0.027843100884101829 0.028721891831481439 -0.080103510293252619 -0.056532668658004548 0.074588654506773724 0.012513619871716279 -0.0018722177417051587 0.037518373024722766 -0.064332324407086666 -0.035848072725320694 0.091492161316229587 0.03885708531600101 -0.010271130546134188 0.020417462720105552 -0.0090635754838120676 0.0073017971993178292 0.045833915481106491 0.01341445917891208 -0.002795985083675844 -0.045289608721253573 -0.025403330355226156 0.072145532187728248 0.0030180475639892579
leaf_weight=6117.4745266139507 2870.6631512194872 456.24910786747932 2641.0599403679371 4563.0543021857738 2315.6796850115061 4067.01595954597 1966.1930120885372 7669.0962422192097 6200.9342588037252 2577.5861574113369 1559.0125215798616 2641.1690895408392 11235.022968843579 12916.905569761992 2788.185303285718 1125.0427366495132 3078.2773265838623 4932.1235381662846 619.55399963259697 2567.7311114817858 589.84186810255051 10518.65442468226 304.82570059597492 931.91900330781937 2573.3159861415625 145.1419040709734 3411.9091958999634 565.75539617240429 138.8392186164856 7025.0466762930155
leaf_count=39249 11865 2480 16167 19074 12163 20833 10951 33768 27873 15488 8279 15909 46473 51719 13851 6075 14723 33032 3315 10638 2782 42785 1332 4333 10919 822 16529 2679 839 28567
internal_value=2.50173e-05 -0.0305081 0.0355401 -0.0154233 -0.0665053 0.019663 0.0710446 -0.030478 0.0327027 -0.0783897 -0.0657077 0.0569895 0.0117248 -0.00783913 0.0485953 -0.0476614 -0.0400389 0.0842192 0.073218 -0.0234355 0.0486617 -0.0129496 -0.0319602 0.0254796 0.0242325 0.070633 -0.0491157 -0.048244 0.0338431 0.00886047
internal_weight=111113 59747.3 51366 42103.6 17643.7 35493.8 15872.3 14105 13431.1 10819.8 4702.35 7679.53 22062.7 27998.6 4754.38 6823.83 4508.15 8192.74 3260.61 10236.8 4656.86 15081.7 3383.1 3802.58 8774.25 2925.15 3868.16 2124.77 283.981 18260.1
internal_count=525512 276981 248531 176993 99988 153645 94886 63415 62407 65695 26446 42372 91238 113578 24802 34293 22130 52514 19482 44406 23615 61859 16055 16198 38792 17570 19009 10958 1661 75040
is_linear=0
shrinkage=0.08


Tree=14
num_leaves=31
num_cat=0
split_feature=0 0 0 0 0 0 2 1 2 2 0 2 2 2 0 2 0 2 2 2 2 0 2 2 0 0 0 2 0 0
split_gain=16304.5 5406.65 3382.63 953.823 489.841 459.676 436.225 330.534 272.673 262.362 323.402 182.887 175.254 135.291 118.098 189.804 109.879 105.481 101.829 78.5455 74.7209 70.9226 69.3551 67.3384 61.4158 59.0511 57.7311 66.5171 57.2909 56.2811
threshold=0.00057426863236412391 -0.0022883982079251086 0.0042500329496731508 -0.005356959392027451 -0.00079087781116367664 0.0021347205551346606 0.0029888359126014588 0.47500000000000003 0.0030927507083939997 0.0066460354509345343 -0.010477254469100637 0.0041008249770538808 0.0019308554424833911 0.0062276225514250666 0.0098916417714258863 0.0054251098490044397 -0.0039812537762787146 0.010427599047667791 0.0015398871183200608 0.003921625528347677 0.0055904212968552669 -7.4713211378855528e-05 0.011076167376086915 0.013134079440155922 -0.0032869807338309688 0.013685711720611239 -0.023665225524583829 0.010724262142452387 -0.0017593747998228318 -0.0090033367908868688
decision_type=2 2 2 2 2 2 2 2 2 2 2 2 2 2 2 2 2 2 2 2 2 2 2 2 2 2 2 2 2 2
left_child=1 3 5 9 11 12 24 14 -7 29 26 18 -2 16 15 -4 -8 -12 -3 -14 -10 -6 -9 -17 -5 -24 -11 -28 -20 -1
right_child=2 4 7 6 21 8 13 22 20 10 17 -13 19 -15 -16 23 -18 -19 28 -21 -22 -23 25 -25 -26 -27 27 -29 -30 -31
leaf_value=-0.093833812499994895 0.034851927672113321 -0.047499578125338893 0.080819596361607682 -0.078084351012063291 -0.0060928835162563566 0.055134166150872854 -0.054779890457969764 0.055426533102094715 0.033841035417017953 -0.09621739829407755 -0.045872700848661178 -0.0075635881301775809 0.017682707428191877 -0.017656243071991987 0.090198570872692119 0.04984283410318318 -0.032292082318461847 -0.0026895461711388493 -0.032908739791888256 0.0063958261808451577 0.017071688611373301 0.0021091911281523493 0.0061182168569304208 -0.04126585817819034 -0.056556918950867771 0.074890104323853027 -0.082604139682432798 -0.045693243624374935 -0.018940639527904125 -0.078409707925454888
leaf_weight=2745.741749048233 2730.5861683636904 1170.2793303281069 4129.7704657614231 1560.5419867932796 12729.512914836407 3490.327581897378 1989.6837476193905 2878.0821893960238 4962.6353211551905 806.26231649518013 1181.46949480474 5727.6193161308765 9396.6862542778254 2646.0822529792786 4175.8547328263521 1285.2195021510124 4618.4415857195854 521.94297282397747 2530.7091611027718 6802.592548251152 2587.0614289194345 14356.640389695764 350.69216221570969 54.104220539331436 1857.9559205323458 103.4873433560133 857.91021087765694 491.46971547603607 7300.6752236634493 3375.2248081415892
leaf_count=18743 12473 5641 27064 9537 51265 19219 10774 15747 23789 5379 6509 23555 40320 11612 29549 7749 21788 2553 11671 28087 11292 57743 1840 306 9880 613 5550 2898 30981 21385
internal_value=2.4769e-05 -0.0247988 0.0384436 -0.0565311 -0.00839315 0.0236696 -0.0419632 0.0725631 0.0366433 -0.0750294 -0.0586934 -0.0191563 0.0161033 -0.0329422 0.0800677 0.0723324 -0.0390631 -0.0326409 -0.0251916 0.012943 0.0280947 -0.00174549 0.0508417 0.0461623 -0.0663842 0.0217883 -0.0792804 -0.0691605 -0.0225362 -0.0853286
internal_weight=109415 66468.2 42947.1 22652.7 43815.4 29969.9 12672.7 12977.2 11040 9980.02 3859.05 16729.3 18929.9 9254.21 9644.95 5469.09 6608.13 1703.41 11001.7 16199.3 7549.7 27086.2 3332.26 1339.32 3418.5 454.18 2155.64 1349.38 9831.38 6120.97
internal_count=525512 307464 218048 126608 180856 135180 63591 82868 54300 63017 22889 71848 80880 44174 64668 35119 32562 9062 48293 68407 35081 109008 18200 8055 19417 2453 13827 8448 42652 40128
is_linear=0
shrinkage=0.08


Tree=15
num_leaves=31
num_cat=0
split_feature=0 0 0 0 0 1 0 2 2 2 1 0 2 2 2 0 2 1 2 2 0 0 2 0 2 2 2 2 0 2
split_gain=13868.9 4994.69 3127.36 679.426 552.741 426.874 406.474 362.01 327.125 218.437 164.446 135.691 233.189 111.361 108.303 100.751 92.4535 91.8335 89.0476 81.1263 74.7126 70.0038 90.2749 68.7148 67.7834 67.0577 62.6853 62.0409 59.4005 53.5457
threshold=-0.00036929832893701809 0.0029698032980913524 -0.0038775441706102275 0.0058572100541591102 0.0011666438524414451 0.39166666666666672 -0.0018592803419274337 0.003480196369546495 0.0029888359126014588 0.0019082008881268527 0.37500000000000006 -0.0090033367908868688 0.0062276225514250666 0.0023583845620083837 0.0063961895839070608 -0.0082411916332333929 0.0040770029442290783 0.77500000000000002 0.0078967526149137934 0.014063724600293053 0.0023050893084302563 0.00026073122210388877 0.00079200504437356128 0.013685711720611239 0.0077986432441028092 0.0037349519113205457 0.011885308946479859 0.0017382919966554883 -0.0012492143205773273 0.0029012314553534695
decision_type=2 2 2 2 2 2 2 2 2 2 2 2 2 2 2 2 2 2 2 2 2 2 2 2 2 2 2 2 2 2
left_child=2 4 5 7 21 11 8 -3 27 -6 -5 -1 25 28 -7 -16 20 24 -9 -12 -11 -2 -23 -21 -10 -13 -14 -4 -8 -24
right_child=1 3 6 10 9 14 13 18 17 16 19 12 26 -15 15 -17 -18 -19 -20 23 -22 22 29 -25 -26 -27 -28 -29 -30 -31
leaf_value=-0.087375379794305777 -0.00021365482034130091 0.066767252436827879 -0.071991102768662454 0.083784101952206438 0.050617165851674799 -0.059067625110615689 -0.035843729950869041 0.038066499313003134 -0.030178365746673517 0.020424953196073254 0.063855966667971997 -0.083865922987570396 -0.03433395547537782 -0.009139716289473767 -0.056205805617530066 -0.023426617481647087 0.011809913473209284 -0.0076480474350222498 0.012337478999002074 -0.027277145681253185 0.03833147081049864 0.06390656319847525 0.012389034691490518 0.065586039433509269 -0.0022579016068874809 -0.062107780987907611 0.039321901928353616 -0.0462023153833983 -0.017426524396210015 0.0025114137703064017
leaf_weight=3975.9351062327623 14425.779130995274 3245.5693445503712 753.29336433112621 6056.2698496878147 1583.1459353417158 2515.4672065526247 1523.8905201256275 4864.9080448746681 5699.2542788982391 5881.661920517683 2356.3687779307365 2264.4076572656631 656.40802106261253 14417.82248724997 959.2670261412859 1602.8578517138958 6040.0843819230795 1964.7042801976204 1046.0099376291037 120.98400335013866 1997.7771482616663 180.42810901999474 6390.7663040459156 88.156050771474838 616.70778381824493 1511.7548048943281 83.33735579252243 2878.0834448933601 4237.011962339282 7798.3485483676195
leaf_count=28671 57777 20139 4368 44930 8166 14341 7229 25268 26439 26316 14692 15481 3669 59495 5512 7664 25695 8511 4800 672 10173 792 26620 570 2608 9492 406 15398 17682 31706
internal_value=3.89091e-05 0.0246559 -0.0334286 0.0604762 0.0102801 -0.0656259 -0.0198141 0.0453004 -0.0315326 0.0224592 0.0765931 -0.0765979 -0.0671091 -0.0128964 -0.0472761 -0.0356992 0.0192566 -0.0227533 0.0335134 0.0596178 0.024965 0.00372313 0.00767532 0.0118662 -0.0274521 -0.0751552 -0.0260361 -0.0515519 -0.0222983 0.00696029
internal_weight=107736 62076.3 45660.2 17778.3 44298 13569.4 32090.8 9156.49 11912 15502.7 8621.78 8491.84 4515.91 20178.7 5077.59 2562.12 13919.5 8280.67 5910.92 2565.51 7879.44 28795.3 14369.5 209.14 6315.96 3776.16 739.745 3631.38 5760.9 14189.1
internal_count=525282 298316 226966 111071 187245 85236 141730 50207 57324 70350 60864 57719 29048 84406 27517 13176 62184 37558 30068 15934 36489 116895 59118 1242 29047 24973 4075 19766 24911 58326
is_linear=0
shrinkage=0.08


Tree=16
num_leaves=31
num_cat=0
split_feature=0 0 0 0 1 1 0 2 2 0 2 2 0 0 0 2 1 2 1 0 2 2 0 2 2 1 2 2 2 2
split_gain=11955.1 4592.63 2683.54 981.494 422.659 346.082 336.445 309.776 270.515 172.717 157.293 133.047 129.865 119.766 109.846 187.735 99.729 95.6005 94.7909 88.0383 142.806 67.6872 63.298 68.0017 62.7685 58.4794 56.7089 55.2186 52.7274 52.1499
threshold=0.000727593090509857 -0.0038775441706102275 0.0042500329496731508 -0.0010974914394141606 0.3083333333333334 0.34166666666666673 0.0023618501794956492 0.0033666478902109388 0.0031288561164585778 -0.00240308409629774 0.0018620126547938319 0.0061734078246446352 -0.0082411916332333929 -0.00017787419756015241 -0.0090033367908868688 0.0049456755542559338 0.67500000000000016 0.0014767069967130274 0.34166666666666673 0.0077108293527601247 0.0055468806731140624 0.00079200504437356128 -0.007047491909287734 0.0040098579012302609 0.011076167376086915 0.6083333333333335 0.0096989887972898856 0.0043471895740462814 0.0089426466857730688 0.008005307414425504
decision_type=2 2 2 2 2 2 2 2 2 2 2 2 2 2 2 2 2 2 2 2 2 2 2 2 2 2 2 2 2 2
left_child=1 4 6 7 14 19 10 9 -8 -3 -2 22 -13 -5 -1 -16 -7 -11 -9 20 -4 -15 -6 -24 -14 27 -17 -12 -10 -20
right_child=2 3 5 13 11 16 8 18 28 17 25 12 24 21 15 26 -18 -19 29 -21 -22 -23 23 -25 -26 -27 -28 -29 -30 -31
leaf_value=-0.087140541917620176 0.03583818311947231 -0.052146119724478406 0.075940315851260765 -0.0070986322856332971 -0.082683056332847601 0.057047643776380934 0.054860436622560037 -0.03132889270195114 0.027055337704981995 -0.056894519198735553 0.022526229828472952 -0.05652102422831165 -0.030690328472204202 0.034587679592961086 -0.077878755787491469 -0.042574277882236757 0.02999450848336634 -0.024494348003369693 -0.014222339755289524 0.085728256694575566 0.028189825297666726 0.0017379394858562359 -0.069401640870566134 -0.0427498332539843 0.0054373840237953528 0.0081726181708210617 0.018612928814598275 0.0067367169989999602 0.00085754237209687153 0.003740863043482891
leaf_weight=3367.2683667838573 2072.6194045990705 2688.4636936336756 2197.2818971723318 15154.7166326195 620.12119783461094 3835.106221690774 2770.8262242674828 1954.4740953445435 5625.0281773656607 650.89494971930981 4898.9638401567936 1255.6051769852638 1526.172280728817 410.373923137784 2497.8484077900648 762.8478387594223 1128.7846547663212 5573.9624215513468 8262.1571633368731 4250.5444107502699 490.28031286597252 18443.96457156539 1069.5403810590506 1434.4244291782379 385.52936407923698 9028.792508482933 111.05414225161076 1994.6759354323149 538.77921073138714 1182.3685815185308
leaf_count=25836 10023 15382 15734 61676 4329 24280 16532 8813 27300 3534 21870 7865 7672 1694 17655 4677 6206 25643 36158 33912 2943 74318 6833 8069 1742 38435 558 8324 2345 4924
internal_value=3.70549e-05 -0.0203454 0.0353895 -0.0101139 -0.0629987 0.0670237 0.0214083 -0.0240283 0.0340985 -0.0352008 0.0151075 -0.0480869 -0.0365328 -0.00180333 -0.07692 -0.0667131 0.0508958 -0.0278822 -0.0152922 0.0785625 0.0672294 0.00245293 -0.0598008 -0.0541339 -0.0234045 0.012409 -0.0347987 0.0179575 0.0247654 -0.0119735
internal_weight=106183 67351.8 38831.7 54321.4 13030.4 11902 26929.7 20312.3 8934.63 8913.32 17995.1 6291.39 3167.31 34009.1 6739.02 3371.75 4963.89 6224.86 11399 6938.11 2687.56 18854.3 3124.09 2503.96 1911.7 15922.4 873.902 6893.64 6163.81 9444.53
internal_count=525282 317378 207904 232142 85236 83075 124829 94454 46177 44559 78652 36510 17279 137688 48726 22890 30486 29177 49895 52589 18677 76012 19231 14902 9414 68629 5235 30194 29645 41082
is_linear=0
shrinkage=0.08


Tree=17
num_leaves=31
num_cat=0
split_feature=0 0 0 0 0 2 1 1 2 2 0 2 0 2 0 2 0 0 2 1 0 2 0 2 0 2 2 0 0 2
split_gain=10338.4 4514.78 2055.48 766.74 590.568 461.996 306.72 250.898 219.582 215.304 207.635 155.544 131.579 113.314 113.18 98.5553 107.885 94.4093 92.3544 76.9389 72.3967 71.8775 69.4971 65.5061 65.2925 73.8805 62.363 61.734 57.5898 153.698
threshold=0.0010939593848396365 -0.0025974248203969523 0.0048887654707698777 -0.0063292000794459031 -0.00079087781116367664 0.0037557628297860092 0.4916666666666667 0.3083333333333334 0.0031655615477599983 0.0076024842500299191 -0.014224943351709684 0.0022326992139560741 0.0023618501794956492 0.011885308946479859 -0.0037698985922762808 0.011076167376086915 0.013685711720611239 2.4727051639179416e-05 0.020308352203705849 0.45833333333333337 0.0024824973279234624 0.0040098579012302609 0.0021347205551346606 0.00061616275840310406 0.008012161680513703 0.0040321118724404156 0.011076167376086915 -0.0043371982270281884 0.01152601561547441 0.00530477079118269
decision_type=2 2 2 2 2 2 2 2 2 2 2 2 2 2 2 2 2 2 2 2 2 2 2 2 2 2 2 2 2 2
left_child=1 3 6 9 11 14 8 28 12 -1 -11 -3 -2 27 -5 24 -17 -6 -12 -13 -8 -22 -10 -19 25 -9 -24 -7 29 -4
right_child=2 4 7 5 17 13 20 15 22 10 18 19 -14 -15 -16 16 -18 23 -20 -21 21 -23 26 -25 -26 -27 -28 -29 -30 -31
leaf_value=-0.081821983382467656 0.034633121353177816 -0.031203160815219323 0.081792690626273687 -0.071976187164855071 -0.0032595927704492794 -0.037325772396790427 0.012219243876208676 0.073592847470386608 0.010502939703740893 -0.077940537818716224 -0.034818968713228177 -0.022403444879131255 0.061928744493063771 0.020936827531659638 -0.046573346991625214 -0.0051325090690363794 0.071460386251069735 0.061240378212498947 0.0837117641899989 -0.0094528164608498211 0.0376981288446206 0.017204630015287874 0.032092062823294194 0.0046464820731580521 0.072622958409256089 0.041669512062418389 -0.042209672017701733 -0.021362487679733956 0.088373233173265703 0.038652127790863272
leaf_weight=4638.2819904237986 2294.7517637908459 3755.2722520083189 2317.3698377534747 2045.8004540354013 17055.367051199079 2504.2829946130514 8726.1902063339949 633.47348856180906 1680.223177716136 1105.2952863276005 1270.9238642156124 4033.0477823168039 2227.3172874599695 325.16806244850159 2487.1474718302488 345.23490472137928 178.57752842456102 131.86968287825584 43.510617017745972 10792.436063453555 1695.6445755213499 3093.770928889513 3267.7914266437292 17708.133655518293 1282.6919679865241 1734.0136718973517 73.930699989199638 4070.7420732527971 2510.0396525263786 684.704161696136
leaf_count=36272 11444 18135 18679 14480 68667 13914 38427 4399 7136 8412 7686 17690 14503 1391 14465 2001 1300 571 229 46152 9371 14633 16750 72360 9382 10769 326 19279 21416 5043
internal_value=3.49646e-05 -0.0169211 0.0373004 -0.0509964 -0.00513849 -0.038197 0.0243102 0.0682262 0.0352898 -0.0717299 -0.0523849 -0.0166597 0.0480774 -0.0251627 -0.0580381 0.0534301 0.0209795 0.000996199 -0.0308953 -0.0129758 0.016557 0.0244601 0.023775 0.00506481 0.0580869 0.0502113 0.0304482 -0.0274426 0.0794304 0.0719533
internal_weight=104713 71967.3 32745.7 18491.2 53476.1 11433.1 23059.6 9686.11 9544.01 7058.01 2419.73 18580.8 4522.07 6900.19 4532.95 4173.99 523.812 34895.4 1314.43 14825.5 13515.6 4789.42 5021.95 17840 3650.18 2367.49 3341.72 6575.03 5512.11 3002.07
internal_count=525282 339703 185579 116128 223575 63529 112590 72989 50159 52599 16327 81977 25947 34584 28945 27851 3301 141598 7915 63842 62431 24004 24212 72931 24550 15168 17076 33193 45138 23722
is_linear=0
shrinkage=0.08


Tree=18
num_leaves=31
num_cat=0
split_feature=0 0 0 0 0 2 2 1 0 2 0 1 2 2 0 0 0 2 0 0 2 2 0 2 2 0 0 2 2 2
split_gain=8950.88 4150.37 1782.22 658.132 616.976 493.205 266.085 251.842 226.158 174.722 168.767 149.123 130.101 122.236 109.259 100.065 92.5088 90.882 97.2077 84.9125 84.4373 77.7457 63.678 70.5578 62.2338 60.936 59.5799 150.94 54.7104 53.7667
threshold=0.0012378468200688814 -0.0028144258259845292 0.0048887654707698777 -0.0073256315651685925 -0.00082233614437533732 0.0039422763224451008 0.0030753894201168666 0.3083333333333334 0.0027514470104803442 0.010427599047667791 -0.020729566545442973 0.67500000000000016 0.0015398871183200608 0.011885308946479859 -0.0039812537762787146 0.0002335813919059017 0.0034574110129553036 0.011076167376086915 0.013685711720611239 -0.0047347260415170718 0.0017880889923930657 0.00079200504437356128 0.008012161680513703 0.0040321118724404156 0.0028329979998141532 -0.0018592803419274337 0.01152601561547441 0.0054651689213669327 0.0045375464377609672 0.0062840057844686173
decision_type=2 2 2 2 2 2 2 2 2 2 2 2 2 2 2 2 2 2 2 2 2 2 2 2 2 2 2 2 2 2
left_child=1 3 6 9 11 14 8 26 20 -1 -11 12 -3 19 -5 -6 -8 22 -19 29 -2 -17 23 -9 -16 -14 27 -4 -13 -7
right_child=2 4 7 5 15 13 16 17 -10 10 -12 28 25 -15 24 21 -18 18 -20 -21 -22 -23 -24 -25 -26 -27 -28 -29 -30 -31
leaf_value=-0.079390593320954772 0.047479910366843583 -0.050600039363719346 0.079583099780554736 -0.071645353575307699 -0.0022836069206508751 -0.050031286617186227 0.013715357372332312 0.071197592019893868 0.058381190560055467 -0.084092489393367137 -0.018192868400905334 -0.013199871622175308 -0.027164407898778595 0.019650904325825291 -0.060543327158798919 0.057150534734121669 0.028973581189785685 -0.0047082432216599898 0.069137423435256834 -0.019935194769641756 0.021653851966270721 0.0054912051195039838 0.070328857157563152 0.039338182941543745 -0.034116161179844465 -0.014555468843772266 0.087030110443100175 0.035107095835163714 0.00033937791332397377 -0.025941187223714978
leaf_weight=4537.0653780847788 1024.6890423297882 957.83843477070332 2226.9788293614984 2251.0063953623176 21512.733796149492 1322.1050864383578 10573.850203424692 603.63916049897671 2111.8059102892876 401.32093524187803 654.06148727238178 5155.4013984650373 4173.2442645281553 373.69766354560852 1097.5933206230402 188.71141339838505 3348.3374305814505 346.19498378038406 170.1605289876461 3735.3316634446383 3870.8538596779108 15548.468256622553 1221.1220785528421 1691.6320782601833 1187.1246674656868 5950.863158673048 2351.3607134222984 625.5193325355649 3034.3899747431278 1075.1282679438591
leaf_count=37245 5603 5223 19012 17000 86618 8701 47195 4399 14326 3266 4030 22730 20071 1628 7294 863 18173 2001 1300 18170 19132 64318 9382 10769 6725 25639 21416 4710 12566 5777
internal_value=3.39051e-05 -0.0150864 0.0367023 -0.050211 -0.00474917 -0.0388865 0.0237845 0.0659731 0.0364989 -0.0725707 -0.0432519 -0.0163695 -0.0224192 -0.0247696 -0.0591364 0.00126277 0.017385 0.0509672 0.019627 -0.0274765 0.0270595 0.00611067 0.0555693 0.047717 -0.0468119 -0.019753 0.0776019 0.06983 -0.00818346 -0.0392272
internal_weight=103322 73156.1 30166.1 16634.4 56521.7 11042 20929.5 9236.61 7007.35 5592.45 1055.38 19271.7 11081.9 6506.26 4535.72 37249.9 13922.2 4032.75 516.356 6132.57 4895.54 15737.2 3516.39 2295.27 2284.72 10124.1 5203.86 2852.5 8189.79 2397.23
internal_count=525282 347864 177418 109836 238028 65295 104429 72989 39061 44541 7296 86229 50933 34276 31019 151799 65368 27851 3301 32648 24735 65181 24550 15168 14019 45710 45138 23722 35296 14478
is_linear=0
shrinkage=0.08


Tree=19
num_leaves=31
num_cat=0
split_feature=0 0 0 0 1 1 2 2 0 0 0 2 2 0 0 0 2 0 2 1 2 2 0 2 0 2 2 0 2 2
split_gain=7739.96 3732.86 1673.45 807.4 415.285 252.073 237.196 225.518 209.981 161.737 119.429 180.961 115.05 107.5 102.193 86.2115 83.642 87.5298 76.1928 75.1852 63.9051 62.7855 61.9476 67.2769 61.9173 141.549 60.5669 59.9235 57.1084 50.475
threshold=0.0012378468200688814 -0.0038775441706102275 0.0048887654707698777 -0.00095466715715776106 0.3083333333333334 0.3083333333333334 0.0030753894201168666 0.0031288561164585778 0.0027514470104803442 -0.0020671181220484288 -0.0090033367908868688 0.0049456755542559338 0.0061734078246446352 -0.010477254469100637 -0.00010079322330510785 0.0023618501794956492 0.011076167376086915 0.013685711720611239 0.0016842815562043585 0.34166666666666673 0.0049781440787400929 0.00079200504437356128 0.008012161680513703 0.0040321118724404156 0.010365256517726415 0.0049456755542559338 0.013134079440155922 -0.007047491909287734 0.0040098579012302609 0.0019082008881268527
decision_type=2 2 2 2 2 2 2 2 2 2 2 2 2 2 2 2 2 2 2 2 2 2 2 2 2 2 2 2 2 2
left_child=1 4 6 7 10 24 8 9 18 29 -1 -12 27 -14 -5 -8 22 -18 -2 -9 -17 -16 23 -7 25 -4 -15 -6 -29 -3
right_child=2 3 5 14 12 16 15 19 -10 -11 11 -13 13 26 21 20 17 -19 -20 -21 -22 -23 -24 -25 -26 -27 -28 28 -30 -31
leaf_value=-0.082592148634843168 0.047690779112833467 -0.061345962644118207 0.078459093609822048 -0.0045385630037874025 -0.076458604023014923 0.068869683021054937 0.0093925689613843684 -0.025195833655555406 0.055860089675344525 -0.020396562010643018 -0.071735604281662868 -0.027397400872075584 -0.056092423659248256 -0.025614369840294603 0.034117394376578333 0.029121393986142594 -0.0043201206680314776 0.066869808770753894 0.020733300654454757 -0.0092694409181835365 0.014166817487946825 0.0033651063601015732 0.068090404172164928 0.03710313207133141 0.08469439205773506 0.034884496044808533 0.015302512629799453 -0.061643936662003962 -0.035926871994432688 -0.037530078611089694
leaf_weight=2826.3469444736838 805.06509408354759 759.60525235533714 1772.4784251004457 14645.214290365577 526.18954749405384 575.29562547802925 6493.4627072066069 2290.0362455099821 2033.8141086548567 5382.8839660137892 2153.9808419495821 810.91773711144924 734.37704544514418 1973.6159807220101 432.52959525585175 3866.7920580506325 347.07527435570955 162.18732850253582 4030.095995247364 11054.436727300286 3469.8979841321707 24080.810007810593 1162.7843397259712 1651.7440444752574 2486.9948970898986 652.8405396938324 262.30335921049118 939.10248495638371 1342.873633235693 2276.1751529425383
leaf_count=25836 4524 4933 15990 59427 4329 4399 27967 10642 14326 25107 17655 5235 5310 10743 1864 21044 2001 1300 20211 48707 16357 98538 9382 10769 24113 5035 1226 6833 8069 13410
internal_value=3.22331e-05 -0.0140283 0.0345713 -0.00611705 -0.0556857 0.0637698 0.0221417 -0.0184709 0.0342934 -0.0287238 -0.0708256 -0.0596088 -0.0405123 -0.0295365 0.000748829 0.0161064 0.0485821 0.0183521 0.0252218 -0.0120026 0.0220486 0.00390772 0.0531236 0.0453092 0.0758249 0.0667298 -0.0208143 -0.0521219 -0.0465102 -0.0434892
internal_weight=102002 72491.4 29510.5 60921.7 11569.7 8811.4 20699.1 21763.1 6868.98 8418.66 5791.25 2964.9 5778.46 2970.3 39158.6 13830.2 3899.09 509.263 4835.16 13344.5 7336.69 24513.3 3389.82 2227.04 4912.31 2425.32 2235.92 2808.17 2281.98 3035.78
internal_count=525282 347864 177418 262628 85236 72989 104429 102799 39061 43450 48726 22890 36510 17279 159829 65368 27851 3301 24735 59349 37401 100402 24550 15168 45138 21025 11969 19231 14902 18343
is_linear=0
shrinkage=0.08


Tree=20
num_leaves=31
num_cat=0
split_feature=0 0 0 0 1 1 0 2 2 0 2 0 2 0 2 2 0 0 2 2 0 2 2 1 2 0 2 2 1 2
split_gain=6746.17 2968.3 2128.76 508.851 425.021 284.105 231.335 207.843 207.809 132.367 188.194 106.361 99.1034 94.1316 91.1793 84.9803 77.9732 74.6354 71.343 70.8748 70.1925 104.331 68.5317 67.119 63.7521 60.1912 57.0974 57.0073 54.3395 53.8546
threshold=0.00057426863236412391 -0.0037698985922762808 0.0044870626739940663 -0.0017123590426860072 0.34166666666666673 0.27500000000000008 0.0020810561248927775 0.0027807105213693327 0.0031288561164585778 -0.0094474431024924397 0.0049126920323687385 -0.00051321130622202838 0.0063961895839070608 -0.0082411916332333929 0.011076167376086915 0.0035934885434950729 0.013685711720611239 0.008012161680513703 0.0040098579012302609 0.00090627863526762588 0.0077108293527601247 0.0049456755542559338 0.0065800512166460153 0.37500000000000006 0.0015997012607416768 -0.007047491909287734 0.0042707601567965672 0.0086314389483336616 0.75833333333333341 0.0089426466857730688
decision_type=2 2 2 2 2 2 2 2 2 2 2 2 2 2 2 2 2 2 2 2 2 2 2 2 2 2 2 2 2 2
left_child=1 4 6 7 9 20 15 24 23 -1 -11 19 25 -14 17 -2 -16 18 -7 -5 21 -4 28 -8 -3 -6 -21 -12 -9 -10
right_child=2 3 5 11 12 14 8 22 29 10 27 -13 13 -15 16 -17 -18 -19 -20 26 -22 -23 -24 -25 -26 -27 -28 -29 -30 -31
leaf_value=-0.080805205490069587 0.014963751635228381 -0.065101809623442822 0.072100029762215009 -0.049318068833103038 -0.073684033289701537 0.062785122233827165 0.053553849187543946 -0.023412989230567262 0.019731875603013271 -0.069342298087611151 -0.038107724371070177 0.00020449967799429411 -0.045388106780948539 -0.014099276175663549 -0.0027319576381504558 0.0038833443489411619 0.062187361747903409 0.066549505181373925 0.035454398536235797 -0.010715268287145405 0.081410220854213483 0.024068180269110215 -0.0024142401591329826 0.030796488701325304 -0.034817933248172638 -0.04195401888696379 -5.76112928442667e-05 0.0081515451097380707 -0.0073014451963811424 -0.0040127313108809402
leaf_weight=2665.510879136622 10242.112682700157 541.27904589474201 1197.5422034934163 265.65732830762863 458.92360980808735 857.87452780455351 1576.2416277304292 5608.9771837592125 7120.4256270080805 2385.8329780250788 811.76421748846769 22393.119438841939 971.56161211431026 1678.5119268968701 405.97348949313164 7806.008425116539 167.16183381527662 1257.1395165473223 2126.386153049767 11180.175384879112 2933.8112103193998 381.66621278226376 1869.4409391134977 1750.6339922100306 2498.2696966379881 2301.3899893090129 4516.9377179443836 215.82529529184103 1760.1726669073105 668.74104706943035
leaf_count=25864 46168 3692 10811 1221 3870 6786 11020 27476 35601 20486 5657 90121 6781 8508 2308 32599 1433 10889 13832 48056 29961 2620 7983 10557 14592 14998 18509 1206 7904 2949
internal_value=8.61029e-05 -0.0162197 0.0264028 -0.00788979 -0.0529302 0.0596695 0.0157631 -0.0220645 0.0248419 -0.0674463 -0.0570144 -0.00335232 -0.0366205 -0.0255703 0.0461519 0.0101714 0.0162025 0.0501989 0.0433111 -0.00834194 0.0740903 0.0604916 -0.0160942 0.0415787 -0.0402108 -0.0472294 -0.00764846 -0.0283919 -0.0195646 0.0176933
internal_weight=100615 62123.3 38491.7 50634 11489.3 9327.56 29164.2 12278.1 11116 6078.93 3413.42 38355.9 5410.39 2650.07 4814.54 18048.1 573.135 4241.4 2984.26 15962.8 4513.02 1579.21 9238.59 3326.88 3039.55 2760.31 15697.1 1027.59 7369.15 7789.17
internal_count=524458 306924 217534 219554 87370 78640 138894 61647 60127 53213 27349 157907 34157 15289 35248 78767 3741 31507 20618 67786 43392 13431 43363 21577 18284 18868 66565 6863 35380 38550
is_linear=0
shrinkage=0.08


Tree=21
num_leaves=31
num_cat=0
split_feature=0 0 0 0 1 1 1 2 2 2 0 0 0 0 2 0 2 0 2 2 0 2 0 2 2 0 2 0 2 1
split_gain=5803.95 2788.69 1827.9 521.087 384.627 237.112 220.636 204.683 147.471 127.099 115.263 114.775 106.641 100.723 145.809 73.6667 72.3153 69.5407 67.379 63.8111 61.1609 57.7395 57.2975 140.139 55.2327 52.3583 51.5859 50.276 55.1004 50.017
threshold=0.00075855770291949928 -0.0039812537762787146 0.0050331086553365529 -0.0017593747998228318 0.27500000000000008 0.47500000000000003 0.3083333333333334 0.0027807105213693327 0.0030927507083939997 0.0063961895839070608 0.0023050893084302563 -0.00051321130622202838 -0.0082411916332333929 -0.0094474431024924397 0.0049126920323687385 -0.0055309180884526759 0.011076167376086915 0.0021347205551346606 0.0065800512166460153 0.00079200504437356128 0.012881063527645448 0.0015997012607416768 0.009451180349365049 0.0067145010434279439 0.014063724600293053 -0.002741177381940563 0.0042707601567965672 0.0020810561248927775 0.0043992159621778571 0.75833333333333341
decision_type=2 2 2 2 2 2 2 2 2 2 2 2 2 2 2 2 2 2 2 2 2 2 2 2 2 2 2 2 2 2
left_child=1 4 5 7 13 8 22 21 10 15 -2 19 -11 -1 -15 -6 -8 -10 29 -5 -18 -3 23 -4 -19 -23 -21 -7 -29 -9
right_child=2 3 6 11 9 27 16 18 17 12 -12 -13 -14 14 -16 -17 20 24 -20 26 -22 25 -24 -25 -26 -27 -28 28 -30 -31
leaf_value=-0.081267937956936279 0.026270277454713106 -0.064238288437870633 0.070282289875896964 -0.056147603243883987 -0.063918810462797793 0.00750460429447643 0.050415850962274841 -0.022560883667287132 0.0065046632285306171 -0.044975157632106695 0.052085110997008473 0.00079866000118843485 -0.013194770815209565 -0.07015551310393528 -0.026646608190570822 -0.038426049816561759 -0.0027277793817686463 0.026024218229716452 -0.0022965175530671191 -0.010150373745117233 0.057005931148456652 -0.050561963623529403 0.08105852445168607 0.0014421472984264617 -0.084784018219294863 -0.025961684310526551 -0.0001951328403947026 0.024125364027331404 0.0096104248528165702 -0.0069523260262493629
leaf_weight=2252.6456665322185 2649.0827431231737 508.00684649497271 1642.213928245008 172.80763372778893 1312.1789117231965 10563.988718166947 2955.5550744235516 5745.7161895483732 2187.6657764464617 1132.6851880028844 1901.5534093901515 25351.921661689878 1675.1081550940871 1730.4887265786529 689.3181403875351 1622.504741795361 327.22490093111992 3166.8250045254827 1952.7111312747002 11537.041970089078 165.02739398926497 852.54633718729019 2404.7325726002455 213.91173585504293 29.053488194942474 1579.7073387503624 4683.6175243407488 3125.4059346467257 3603.8177534192801 1703.4811029881239
leaf_count=23383 13297 3657 16105 809 11092 45977 23180 28902 9292 8553 14314 102325 8695 15936 4785 10958 1875 17298 8392 49900 1398 6102 26386 1612 127 8714 19210 17372 17097 7715
internal_value=8.06206e-05 -0.0141434 0.0263425 -0.00684413 -0.0520507 0.0166057 0.0607333 -0.0212854 0.0264557 -0.038183 0.0370574 -0.00257452 -0.0260152 -0.0690942 -0.0577614 -0.0498246 0.0456875 0.0174942 -0.0155241 -0.00779103 0.0172979 -0.039708 0.0729081 0.0623487 0.0250169 -0.0345845 -0.00727586 0.0109473 0.0163519 -0.0189915
internal_weight=99438.5 64502.5 34936.1 54087.6 10414.9 27227.4 7708.67 12342.2 9934.18 5742.48 4550.64 41745.4 2807.79 4672.45 2419.81 2934.68 3447.81 5383.54 9401.91 16393.5 492.252 2940.26 4260.86 1856.13 3195.88 2432.25 16220.7 17293.2 6729.22 7449.2
internal_count=524458 319128 205330 235726 83402 134774 70556 63482 54328 39298 27611 172244 17248 44104 20721 22050 26453 26717 45009 69919 3273 18473 44103 17717 17425 14816 69110 80446 34469 36617
is_linear=0
shrinkage=0.08


Tree=22
num_leaves=31
num_cat=0
split_feature=0 0 0 0 0 2 2 2 0 2 0 2 2 2 2 0 0 0 0 0 1 1 2 2 2 2 1 2 2 0
split_gain=5015.46 3207.5 945.784 524.982 436.754 299.445 286.66 257.014 229.979 134.349 108.917 103.041 102.975 96.0124 93.2782 82.1767 78.8756 69.2273 65.8498 65.4718 64.6246 62.8608 58.9892 55.7472 51.4033 42.3874 41.1218 40.2617 39.2122 38.9802
threshold=-0.0017593747998228318 0.0035440523613633097 -0.0055309180884526759 0.00057426863236412391 0.008012161680513703 0.003858316737452371 0.0027807105213693327 0.0066460354509345343 -0.014224943351709684 0.0019308554424833911 -0.002741177381940563 0.0078967526149137934 0.010724262142452387 0.0066460354509345343 0.011885308946479859 0.0018807094404055442 -0.00051321130622202838 0.0053370250737403997 0.0020810561248927775 0.017126803954676334 0.75833333333333341 0.45833333333333337 0.004425562001049676 0.00090627863526762588 0.0015398871183200608 0.0042707601567965672 0.22500000000000001 0.014063724600293053 0.020308352203705849 0.005504869641255559
decision_type=2 2 2 2 2 2 2 2 2 2 2 2 2 2 2 2 2 2 2 2 2 2 2 2 2 2 2 2 2 2
left_child=2 3 7 16 5 17 10 21 -9 15 -4 29 26 20 -10 -5 23 -3 -11 -14 -8 -1 -20 -2 -12 -25 -6 -15 -21 -7
right_child=1 4 6 9 12 11 13 8 14 18 24 -13 19 27 -16 -17 -18 -19 22 28 -22 -23 -24 25 -26 -27 -28 -29 -30 -31
leaf_value=-0.076130678618021502 -0.043848127069529043 0.049277253951836818 -0.059012007865285827 0.02011926479993514 0.082297061827988516 0.025508955595786871 -0.023908155907456125 -0.071054796486630392 -0.033052936077379538 0.0066726657356737107 -0.062322972218785071 0.0039131723151122561 0.010200241498608613 -0.0062606071535075292 0.010253937872431144 0.050793419024714175 0.00012424959941083271 0.075980925362822721 0.022118543249900896 0.080589121250697643 -0.0072562828325804171 -0.047203688244124298 0.0076746599136266391 -0.0092174866709813091 -0.024741294606223742 -0.00017952819037634268 0.064481075382347527 0.031829415306703829 -0.016051899461995412 0.042872238399222953
leaf_weight=3295.823354549706 261.16224877536297 1832.8719961866736 1516.0613640248775 2330.420308470726 2092.2352170869708 2292.0970783382654 7537.1413810476661 1001.7913853526115 1431.3209391385317 15453.63450294733 272.41860149800777 1112.8761481791735 274.67680321633816 2558.9522076547146 409.33879110217094 735.33800255507231 22392.615972459316 939.95095589011908 4177.9734730869532 202.93424420803785 1859.6156887561083 562.90291175246239 3192.2868374437094 11416.440982162952 1606.7272974550724 4683.4798775464296 1373.4382988810539 190.84846380352974 30.971638679504395 1295.0043774172664
leaf_count=34248 1243 14433 12298 11240 24349 13609 41752 10038 10066 66569 2009 6147 2082 11470 2299 4939 90121 9542 23560 2169 8587 4306 14586 49466 9010 19210 13501 801 328 10480
internal_value=7.52e-05 0.00984366 -0.0333415 0.00293183 0.0488759 0.03748 -0.0225094 -0.0584641 -0.0402097 0.0117523 -0.0430596 0.0251796 0.0703036 -0.0167652 -0.0234221 0.0274766 -0.00296077 0.0583295 0.00964022 0.0366881 -0.0206128 -0.0719109 0.0158625 -0.00718309 -0.0301895 -0.00658834 0.0752366 -0.00361699 0.0677928 0.0317774
internal_weight=98333.4 76090.4 22242.9 64643.4 11447.1 7472.8 15541.8 6701.18 2842.45 25889.7 3395.21 4699.98 3974.26 12146.6 1840.66 3065.76 38753.7 2772.82 22823.9 508.583 9396.76 3858.73 7370.26 16361.1 1879.15 16099.9 3465.67 2749.8 233.906 3587.1
internal_count=524458 377574 146884 280934 96640 54211 85927 60957 22403 120894 23317 30236 42429 62610 12365 16179 160040 23975 104715 4579 50339 38554 38146 69919 11019 68676 37850 12271 2497 24089
is_linear=0
shrinkage=0.08


Tree=23
num_leaves=31
num_cat=0
split_feature=0 0 0 0 1 2 1 0 1 2 0 0 2 2 2 1 2 0 2 0 2 0 2 0 2 2 0 2 2 2
split_gain=4343.1 2706.95 895.279 581.431 390.949 219.834 179.073 139.439 133.369 126.347 114.383 109.999 141.545 103.683 90.6369 88.0604 70.0878 69.8113 65.3066 57.4944 56.48 56.0228 72.4563 49.1056 43.3106 42.1741 38.6412 101.818 38.5816 38.1413
threshold=0.0020810561248927775 -0.0037698985922762808 0.0056781862463455134 -0.00095466715715776106 0.25833333333333341 0.0031288561164585778 0.27500000000000008 0.00057426863236412391 0.69166666666666676 0.0040098579012302609 -0.007047491909287734 -0.0094474431024924397 0.0041008249770538808 0.010427599047667791 0.0015090921878710244 0.37500000000000006 0.010724262142452387 -0.020729566545442973 0.0017636245857753504 0.013685711720611239 0.0055904212968552669 -0.00240308409629774 0.0030239452489683682 0.0036382278531852928 0.010724262142452387 0.020308352203705849 0.012173470896489558 0.0049456755542559338 0.0039862456939618934 0.013134079440155922
decision_type=2 2 2 2 2 2 2 2 2 2 2 2 2 2 2 2 2 2 2 2 2 2 2 2 2 2 2 2 2 2
left_child=1 4 5 8 11 15 26 -5 14 -6 13 -1 -13 -11 -3 -2 -8 -15 -9 -18 23 22 -16 -7 -12 -19 27 -4 -20 -29
right_child=2 3 6 7 9 20 16 18 -10 10 24 12 -14 17 21 -17 19 25 28 -21 -22 -23 -24 -25 -26 -27 -28 29 -30 -31
leaf_value=-0.07936498404719694 0.051898631463187475 -0.044239308072555932 0.077504253759884068 -0.00092776684120017745 -0.05645267877283705 0.015537367077947211 0.051132234555054439 0.022201850945521864 -0.0052522184742922699 -0.056696324361869402 -0.021662461836142621 -0.069745315679262662 -0.028399763910210873 -0.070447760552704727 -0.039467045435574881 0.026827120211878247 -0.001183100398011645 -0.011972150905006525 0.0095448022652811892 0.057484716115668036 0.0081228806650675018 -0.012694829514187281 -0.017240260192405193 0.030952375078942086 0.0087227595587185142 0.063640840095259263 0.082379012416358643 0.038292698670345036 0.0015118790466506265 -0.085036687242937656
leaf_weight=1931.9780368879437 1802.503929913044 821.1769687011838 1170.9910148531199 29356.053401216865 1243.731380879879 3751.0220708400011 2359.2978407293558 1864.5612757205963 7726.3983348011971 1256.7581545040011 2697.6073981374502 1326.5961028710008 882.42675089091063 127.2720740288496 1343.483512096107 1783.9983069896698 329.91351833194494 469.36543904989958 9722.4157632887363 158.15690851956606 3518.7671890705824 7796.5178508609533 3114.9882272779942 2042.8938874006271 337.82457864284515 52.489376299083233 1501.6103541627526 475.16110722720623 6310.1968197971582 16.609772115945816
leaf_count=22663 14705 5349 13885 118838 10812 18913 21213 9263 34340 11219 16164 13615 6792 1214 9353 11597 2027 3048 43147 1540 17042 35800 15874 14008 1523 320 18955 4734 26357 148
internal_value=7.04431e-05 -0.00823185 0.0344817 -0.00244081 -0.0463988 0.0225986 0.059979 0.00246544 -0.0135854 -0.0336619 -0.0279254 -0.0654228 -0.0532292 -0.0432862 -0.0185093 0.0394276 0.0454235 -0.0173231 0.00803118 0.0178279 0.0161174 -0.0167852 -0.0239379 0.0209726 -0.0182808 -0.00436682 0.0730763 0.0646753 0.00638316 0.0341272
internal_weight=97292.8 78381.8 18910.9 68055.8 10326 12899.2 6011.74 47253.2 20802.6 6185.05 4941.32 4141 2209.02 1905.89 13076.2 3586.5 2847.37 649.127 17897.2 488.07 9312.68 12255 4458.47 5793.92 3035.43 521.855 3164.37 1662.76 16032.6 491.771
internal_count=524458 385691 138767 298321 87370 76265 62502 197605 100716 44300 33488 43070 20407 15801 66376 26302 24780 4582 78767 3567 49963 61027 25227 32921 17687 3368 37722 18767 69504 4882
is_linear=0
shrinkage=0.08


Tree=24
num_leaves=31
num_cat=0
split_feature=0 0 0 0 1 2 2 0 0 2 0 2 0 1 1 0 2 1 2 0 2 2 2 2 0 2 1 2 2 2
split_gain=3777.72 2581.79 805.862 495.737 300.919 261.718 228.258 173.326 167.7 128.267 83.5343 98.441 82.1429 81.074 80.022 74.1653 73.4303 68.7573 68.6585 63.0994 90.761 62.5205 54.3349 53.1571 44.8313 72.594 42.6 42.5325 41.885 33.4087
threshold=-0.0018592803419274337 0.0042500329496731508 -0.0063292000794459031 0.00081874622120126723 0.27500000000000008 0.0036539858459630429 0.009490283716572883 -0.0037698985922762808 -0.023665225524583829 0.0019308554424833911 0.0077108293527601247 0.0034983360729622516 -0.00039720745389603334 0.65833333333333355 0.55833333333333346 0.0023050893084302563 0.004425562001049676 0.44166666666666671 0.011076167376086915 0.010365256517726415 0.010724262142452387 0.0016573600948704354 0.0031288561164585778 0.020308352203705849 -0.0094474431024924397 0.0049126920323687385 0.6083333333333335 0.0040098579012302609 0.0024996706444165117 0.0076024842500299191
decision_type=2 2 2 2 2 2 2 2 2 2 2 2 2 2 2 2 2 2 2 2 2 2 2 2 2 2 2 2 2 2
left_child=2 3 6 12 10 7 14 28 -8 17 11 -3 22 19 24 -11 -17 -5 26 20 27 -9 -2 -10 -1 -26 -7 -6 -4 -13
right_child=1 4 5 9 13 18 8 21 23 15 -12 29 -14 -15 -16 16 -18 -19 -20 -21 -22 -23 -24 -25 25 -27 -28 -29 -30 -31
leaf_value=-0.079231558023232854 -0.010317796811669199 0.073126442301740591 -0.076521820413597744 0.042793875159156843 0.054904963627527177 -0.019720042579816573 -0.082712878102335297 -0.054699615938724432 -0.016956446136343627 0.0067942299863520128 0.076336292379242318 0.038889002759909412 0.0010526600930647239 0.01726554426686458 -0.032814867200008778 0.023744575817957806 0.0081884771071031089 0.015723090103723313 0.01488141163408894 0.064029707691839438 -0.020610950837048257 -0.023586413800605169 -0.001807526161411329 0.056127521678206477 -0.075797229451020506 -0.040601495523330103 -0.0085683799937730822 0.033695354775810225 -0.048167867382857887 -0.0085440866765111017
leaf_weight=1967.7334474101663 9362.8789997845888 725.19783963263035 530.29184649139643 1251.3601769506931 889.54857379943132 4813.0814932882786 274.29519374668598 459.97186037153006 869.96795931458473 13759.802137196064 2279.2847976386547 656.44869688153267 24190.01907761395 1090.4137257039547 385.12458691745996 4201.3091042712331 3611.3245215862989 1154.455816462636 534.67735216021538 684.04306034743786 164.88105368614197 4077.6517248079181 9855.5346383303404 68.725423984229565 892.40662565082312 646.96622222661972 4026.343040317297 1892.4302924796939 898.20636278390884 111.12027658522129
leaf_count=24030 41391 8096 5440 8105 8197 26798 3209 3626 6298 60836 29961 5856 97819 6958 2812 26519 17406 6053 2290 7174 960 24241 40927 435 10182 5826 19231 14742 8329 711
internal_value=6.56857e-05 0.00828941 -0.0304554 0.00305052 0.049855 -0.0212929 -0.0579869 -0.034391 -0.0276853 0.0122828 0.0667018 0.0519909 -0.00204925 0.0363954 -0.0674303 0.0103288 0.0165539 0.0298037 -0.0129566 0.0421403 0.0370592 -0.0267403 -0.00595358 -0.0116057 -0.0712315 -0.0610052 -0.0146405 0.0404772 -0.0586935 0.0320222
internal_weight=96325.5 75880.1 20445.4 67386.7 8493.37 15340.2 5105.22 5966.12 1212.99 23978.3 3772.05 1492.77 43408.4 4721.32 3892.23 21572.4 7812.63 2405.82 9374.1 3630.9 2946.86 4537.62 19218.4 938.693 3507.11 1539.37 8839.42 2781.98 1428.5 767.569
internal_count=524458 381711 142747 299056 82655 89955 52792 41636 9942 118919 44624 14663 180137 38031 42850 104761 43925 14158 48319 31073 23899 27867 82318 6733 40038 16008 46029 22939 13769 6567
is_linear=0
shrinkage=0.08


Tree=25
num_leaves=31
num_cat=0
split_feature=0 0 0 0 1 2 0 2 0 2 2 0 1 0 2 0 2 2 2 0 2 2 2 1 1 0 0 2 2 2
split_gain=3309.8 2297.8 482.61 456.172 417.079 308.501 209.381 171.673 134.019 120.952 109.103 104.101 101.975 88.8971 74.6431 101.377 69.2272 67.2754 63.5875 61.923 52.6193 51.3435 49.934 47.2687 38.4409 38.1847 37.5725 36.669 33.905 33.4047
threshold=0.0032912560690956131 -0.0032010429815748109 -0.00036929832893701809 0.010365256517726415 0.40833333333333338 0.0035559439383738376 -0.0079161644461932159 0.0037557628297860092 0.0011666438524414451 0.0077986432441028092 0.0015398871183200608 0.0056781862463455134 0.47500000000000003 0.0050331086553365529 0.0086314389483336616 -0.020729566545442973 0.020308352203705849 0.0047504035475785219 0.0016297740214169553 -0.0082411916332333929 0.008005307414425504 0.0044529352346640762 0.0087779427185989932 0.70833333333333337 0.25833333333333341 -0.0047347260415170718 -0.0020120588671215284 0.0074261400765538712 0.00090627863526762588 0.011076167376086915
decision_type=2 2 2 2 2 2 2 2 2 2 2 2 2 2 2 2 2 2 2 2 2 2 2 2 2 2 2 2 2 2
left_child=1 4 12 5 6 13 14 25 28 11 -10 -7 18 24 -1 -16 -5 -6 -3 27 -14 23 -9 -12 -2 -8 -20 -19 -4 -11
right_child=3 2 8 16 17 9 7 22 10 29 21 -13 20 -15 15 -17 -18 19 26 -21 -22 -23 -24 -25 -26 -27 -28 -29 -30 -31
leaf_value=-0.076718676228664309 0.060034760241309028 -0.0340202139769838 0.018345416209349631 0.074013594971645516 -0.035210884595930018 0.020385909051185435 -0.070453079820805953 -0.028396056899242152 0.042908255361830662 0.011406881689422235 0.016729539940440304 0.044770663700347262 -0.0061812703653275581 0.073489429461069622 -0.078236071890017425 -0.01381710820988233 -0.024494381094489395 -0.069203794084687728 -0.020878026444208966 -0.010629139498236103 0.01119822615207553 0.0033932741833390396 0.010386555873191842 0.0045765690973948118 0.034122015998802969 -0.04669493352974393 -0.0089847550433171785 -0.02692303863807164 0.0013395857445683845 -0.013979662209941596
leaf_weight=2029.9613927602768 573.57149770855904 1050.0873622149229 771.1332782804966 2289.2851763516665 1679.497744217515 3172.1248784288764 836.47497403621674 1717.2354479879141 656.09313293546438 1009.0740454345942 6810.1744616106153 1732.3727629333735 18123.72137388587 1049.4017048850656 304.11869226396084 321.7708525583148 46.586852617561817 166.93936563283205 2571.6002381071448 2951.3896431922913 1188.0224803835154 5478.1119039952755 242.47302164882421 2929.3226037621498 1014.3517066016793 897.49784200638533 5015.7080730944872 614.55541323125362 27803.685118064284 494.18802075833082
leaf_count=26548 5399 6097 3271 30222 12013 19583 9759 12656 4204 6418 36288 17268 80205 12845 3920 3131 468 1575 14156 16205 4897 24118 1262 13860 8090 8320 21828 4522 113462 2655
internal_value=4.07383e-05 -0.0054349 -0.000106811 0.0405318 -0.0382307 0.0323926 -0.0521393 -0.0398207 0.00507261 0.0229141 0.0109664 0.0289991 -0.00834383 0.055422 -0.0692716 -0.0451182 0.0720489 -0.0219138 -0.0155694 -0.0159312 -0.00511212 0.00958929 -0.0235975 0.0130743 0.0434819 -0.058156 -0.0130158 -0.0359549 0.00179851 0.00306121
internal_weight=95540.5 84159.6 72397.7 11381 11761.9 9045.08 6349.53 3693.68 44448.5 6407.76 15873.7 4904.5 27949.1 2637.32 2655.85 625.89 2335.87 5412.38 8637.4 3732.88 19311.7 15217.6 1959.71 9739.5 1587.92 1733.97 7587.31 781.495 28574.8 1503.26
internal_count=525245 422297 322386 102948 99911 72258 65596 31997 195203 45924 78470 36851 127183 26334 33599 7051 30690 34315 42081 22302 85102 74266 13918 50148 13489 18079 35984 6097 116733 9073
is_linear=0
shrinkage=0.08


Tree=26
num_leaves=31
num_cat=0
split_feature=0 0 0 0 1 2 0 2 2 0 0 2 0 0 2 2 0 2 2 2 0 2 2 2 2 2 0 2 0 1
split_gain=2895.64 2049.69 533.916 410.193 313.48 290.317 159.421 131.479 123.547 110.432 106.636 103.038 97.2077 85.9314 115.565 81.8067 72.8955 65.0711 53.9845 46.4733 45.0606 44.1486 42.4598 42.1803 40.8246 40.2546 38.4127 37.807 48.7467 32.6633
threshold=0.0034574110129553036 -0.004099518236373524 -0.0007581711359963023 0.010365256517726415 0.22500000000000001 0.004425562001049676 0.0011666438524414451 0.0060683590982906514 0.0032025234843542439 -0.00240308409629774 0.0056781862463455134 0.0019308554424833911 -0.010477254469100637 -0.0094474431024924397 0.0041008249770538808 0.011076167376086915 -0.0059156824281222991 0.020308352203705849 0.0028667138618332201 0.00061616275840310406 0.0064624453262077759 0.0078967526149137934 0.0064560067567524986 0.010724262142452387 0.00099921014920991672 0.0025174103545151385 -0.0018592803419274337 0.0099186418027538796 -0.023665225524583829 0.64166666666666672
decision_type=2 2 2 2 2 2 2 2 2 2 2 2 2 2 2 2 2 2 2 2 2 2 2 2 2 2 2 2 2 2
left_child=1 4 8 5 13 10 -4 16 9 -3 18 24 27 -1 -15 20 -6 29 -2 -11 -7 26 -13 -14 -8 -18 -10 -9 -29 -5
right_child=3 2 6 17 7 15 11 12 21 19 -12 22 23 14 -16 -17 25 -19 -20 -21 -22 -23 -24 -25 -26 -27 -28 28 -30 -31
leaf_value=-0.076709628130193247 0.054492130090206717 -0.034012442368974716 0.00085986659330461283 0.074573968251622311 -0.061410539039798491 0.016268965096966296 0.071041995927743753 -0.064486197684602495 -0.011632597144291613 -0.089474588860116569 0.067995286305854899 0.010210129545055489 -0.01712486794472563 -0.067992530987844774 -0.023016385042350183 -0.013209971842875095 -0.073760168048925684 -0.022113444127888356 0.030034774995220843 -0.012574246578891142 0.034872643009210495 0.0063156091854345946 -0.0016609555232298323 0.0085774049224911619 0.026144400083319797 -0.029409260275315402 -0.0028472954962947363 -0.08072249720036416 -0.015080591576344501 0.023152170444809359
leaf_weight=1480.2916156724095 906.09308997541666 2034.2378951758146 35129.026500239968 2070.2726325616241 969.65716476738453 2834.9037229865789 143.4214064925909 325.51913253217936 6612.3688288107514 50.625019654631615 1190.2253572493792 12681.573934927583 1633.7687753662467 893.93267191946507 618.67304042726755 479.93747612088919 144.2726721689105 47.436998106539249 1593.2439733594656 7721.4659700021148 1180.131363786757 1702.2283385396004 2274.1019161194563 544.95012631267309 1346.475904583931 1421.0656179785728 6145.6302201300859 91.149125650525093 352.06747528910637 82.196827076375484
leaf_count=21036 8989 15323 143467 29542 10894 17541 957 3654 32864 295 15295 62882 10376 10980 5235 2578 1567 468 12327 37493 11663 7187 9852 2726 8644 10950 25862 1078 2840 680
internal_value=3.84611e-05 -0.00487085 -0.000701152 0.0398996 -0.0421831 0.0316564 0.00390311 -0.0308154 -0.0104868 -0.0174184 0.0482869 0.0104037 -0.019326 -0.0630068 -0.0495968 0.0180057 -0.0441741 0.0705678 0.0389014 -0.0130752 0.0217371 -0.005786 0.00840506 -0.0106961 0.0304664 -0.033497 -0.00740065 -0.0437844 -0.0285801 0.0726103
internal_weight=94700.9 84316.5 75841.2 10384.4 8475.35 8184.53 51574.6 5482.45 24266.6 9806.33 3689.56 16445.6 2947.45 2992.9 1512.61 4494.97 2535 2199.91 2499.34 7772.09 4015.04 14460.2 14955.7 2178.72 1489.9 1565.34 12758 768.736 443.217 2152.47
internal_count=525245 426162 344826 99083 81336 68393 225802 44085 119024 53111 36611 82335 20674 37251 16215 31782 23411 30690 21316 37788 29204 65913 72734 13102 9601 12517 58726 7572 3918 30222
is_linear=0
shrinkage=0.08


Tree=27
num_leaves=31
num_cat=0
split_feature=0 0 0 0 1 2 2 1 0 2 2 0 0 0 0 2 2 0 2 0 2 2 0 0 1 2 2 2 0 2
split_gain=2530.92 1810.35 481.929 396.076 283.294 271.071 153.827 125.391 105.389 102.819 100.253 99.9964 80.6773 75.1929 74.5004 65.1962 63.5515 62.1308 99.3561 55.1624 50.0192 45.4029 50.5791 43.7875 40.5828 39.5064 37.5418 35.8906 31.6264 30.734
threshold=0.0034574110129553036 -0.0043371982270281884 -0.00036929832893701809 0.010365256517726415 0.19166666666666668 0.0035559439383738376 0.0065156906174764634 0.47500000000000003 0.0014346004657187514 0.0072541218360718243 0.0020776025403962872 -0.011718468882450437 0.0058572100541591102 0.0053370250737403997 -0.007047491909287734 0.0015997012607416768 0.014063724600293053 -0.011056438973872472 0.0043471895740462814 -0.0020120588671215284 0.0124481458135781 0.0040770029442290783 -0.00240308409629774 -0.0015348075182445495 0.25833333333333341 0.0030239452489683682 0.0023403273992475462 0.00090627863526762588 -0.00023195869787311847 0.0064560067567524986
decision_type=2 2 2 2 2 2 2 2 2 2 2 2 2 2 2 2 2 2 2 2 2 2 2 2 2 2 2 2 2 2
left_child=1 4 7 5 17 13 14 15 27 12 -10 -8 -7 24 -6 23 -5 -1 -19 25 -13 22 -9 -3 -2 -17 -16 28 -4 -12
right_child=3 2 8 16 6 9 11 21 10 -11 29 20 -14 -15 26 19 -18 18 -20 -21 -22 -23 -24 -25 -26 -27 -28 -29 -30 -31
leaf_value=-0.078721657168449366 0.059958870012358098 -0.054057488818242308 -0.030813058187077084 0.073035544937677277 -0.0662829955134491 0.019541007186485226 -0.045137752586172822 -0.02165693270792457 0.030443966343291388 0.004218779145780031 0.0098752298751889206 -0.014454372101568668 0.043270477190301672 0.073169208448154027 -0.081645834324196045 -0.031142553846755031 0.019200306020959217 -0.069323408922311577 -0.023064872042341415 -0.0079374154264113834 0.019209802697328495 -0.00051329711987001942 -0.006107570213282819 -0.020862513364951169 0.031945946898027808 -0.01466902220721184 -0.033675541491709871 0.0015663627616351054 0.02390517528820299 -0.0011046619606840421
