tree
version=v4
num_class=1
num_tree_per_iteration=1
label_index=0
max_feature_idx=5
objective=binary sigmoid:1
feature_names=r_scaled tau vol ofi sin_hour cos_hour
feature_infos=[-0.6241383421252007:0.71843023275639273] [0.016666666666666718:1] [0.00051302245402611555:0.26402169738056858] [-0.99851590015001956:0.99733459171026917] [-1:1] [-1:1]
tree_sizes=3575 3581 3575 3578 3537 3562 3585 3573 3586 3583 3581 3588 3587 3547 3588 3583 3577 3591 3585 3597 3585 3586 3579 3576 3588 3573 3583 3562 3582 3601 3573 3586 3584 3566 3574 3594 3579 3586 3577 3599 3577 3577 3578 3575 3585 3561 3571 3575 3556 3583 3582 3588 3601 3587 3562 3589 3582 3581 3579 3583 3577 3598 3575 3555 3568 3584 3579 3592 3585 3568 3571 3562 3567 3591 3597 3567 3570 3575 3585 3569 3552 3573 3579 3562 3560 3583 3581 3573 3575 3580 3584 3584 3589 3557 3598 3584 3552 3587 3578 3540 3583 3563 3576 3580 3591 3553 3559 3545 3571 3569 3553 3568 3540 3556 3575 3583 3577 3575 3548 3607 3577 3605 3567 3576 3606 3584 3577 3547 3611 3513 3549 3589 3558 3560 3588 3567 3557 3571 3549 3556

Tree=0
num_leaves=31
num_cat=0
split_feature=0 0 0 0 0 0 0 2 2 2 1 2 0 0 2 0 0 2 2 2 0 0 4 2 0 0 2 0 0 2
split_gain=101939 16089.1 12418.1 2011.89 1678.19 1590.7 1319.17 690.774 605.52 543.66 420.62 378.019 258.629 212.018 184.103 144.05 141.691 174.306 139.854 137.123 118.703 109.261 108.362 104.209 118.076 104.092 157.917 99.2923 97.606 94.3175
threshold=0.00025437066005141112 -0.0025647526965544057 0.0032584938684116246 -0.0055729798309560458 -0.00099627137572036125 0.0069913996379950298 0.001586814118851945 0.0055220496158080905 0.0060650876658228632 0.0037918600766575741 0.50833333333333341 0.003366609635062559 -0.00040873449307416934 0.00088933159686034439 0.0035802246402189286 0.0044029568983066673 0.011231731556396824 0.0073737237398779692 0.0081597788690324045 0.0072160866854068017 -0.0015624658963468412 0.0024235630818773405 0.12940952255126045 0.006972653596157472 -0.0015624658963468412 -0.01134266916834722 0.0092315974484153077 -0.003814932593454343 -0.0035240221866185569 0.004071351382223292
decision_type=2 2 2 2 2 2 2 2 2 2 2 2 2 2 2 2 2 2 2 2 2 2 2 2 2 2 2 2 2 2
left_child=1 3 6 10 9 8 13 14 15 20 25 -8 -6 -2 -5 -4 17 -7 28 21 -3 -13 -10 24 -11 -1 -27 -16 -9 -15
right_child=2 4 5 7 12 16 11 18 22 23 -12 19 -14 29 27 -17 -18 -19 -20 -21 -22 -23 -24 -25 -26 26 -28 -29 -30 -31
leaf_value=-0.051455087364242667 0.013311631219279463 -0.027384976209315619 0.047369643613203463 -0.041905541242507796 -0.003091299883789843 0.062903975372716456 0.041964347638525384 -0.028821820324220739 0.033744623578276185 -0.014807007868732732 -0.036083608022208946 0.027062309398077002 0.0053117035579459551 0.025230769842622895 -0.036622285595423021 0.056227579110101789 0.065602703840851845 0.050965250646726849 -0.013332794277242533 0.021018849340256909 -0.016986999259727846 0.035466707084028236 0.044454529729522678 -0.0025835258694753083 -0.0052807769330007219 -0.04766161744097927 -0.031916435050621091 -0.026778587640245148 -0.017175808909646394 0.017580728010151477
leaf_weight=6274.4184703230858 6121.1704616248608 2176.4717189669609 2901.712295204401 2499.2175252139568 5486.4287094473839 3411.9556651115417 2556.7167780697346 1669.4783068299294 2484.9677103757858 2907.9622139930725 2913.9621360301971 3129.959329366684 8258.6426873505116 2833.2131852805614 1728.2275434434414 3837.450136244297 7252.655759125948 1624.7288883030415 1695.9779624938965 1672.4782678484917 1809.7264844477177 2507.4674180150032 1292.4832054972649 1835.9761433601379 1960.4745256304741 4858.4368695616722 649.99155402183533 1977.4743047356606 1058.2362492978573 2971.9613823890686
leaf_count=25098 24485 8706 11607 9997 21946 13648 10227 6678 9940 11632 11656 12520 33035 11333 6913 15350 29011 6499 6784 6690 7239 10030 5170 7344 7842 19434 2600 7910 4233 11888
internal_value=0.00717759 -0.0223423 0.0401143 -0.0390985 -0.00497598 0.0555889 0.0239204 -0.0291555 0.0470241 -0.0138906 -0.0462892 0.0320353 0.00195759 0.017207 -0.0356131 0.0524136 0.0629183 0.0590528 -0.0200976 0.0285625 -0.0226643 0.0308005 0.0374091 -0.00867404 -0.0109709 -0.0488131 -0.0458037 -0.0313694 -0.0243037 0.0213143
internal_weight=94360 49761.1 44598.9 25325.4 24435.7 22806 21793 10628.6 10516.6 10690.6 14696.8 9866.62 13745.1 11926.3 6204.92 6739.16 12289.3 5036.68 4423.69 7309.91 3986.2 5637.43 3777.45 6704.41 4868.44 11782.8 5508.43 3705.7 2727.71 5805.17
internal_count=377445 199047 178398 101303 97744 91225 87173 42515 42067 42763 58788 39467 54981 47706 24820 26957 49158 20147 17695 29240 15945 22550 15110 26818 19474 47132 22034 14823 10911 23221
is_linear=0
shrinkage=1


Tree=1
num_leaves=31
num_cat=0
split_feature=0 0 0 0 0 0 0 2 2 2 1 2 0 0 2 0 2 0 4 2 0 2 2 2 2 0 2 0 2 0
split_gain=95949.4 15159.1 11705.3 1947.72 1525.17 1501.75 1247.26 594.864 572.065 554.409 396.834 350.858 306.645 284.321 189.111 133.896 164.62 132.407 127.585 125.702 125.366 119.735 118.646 105.759 105.451 98.2552 148.943 96.8576 94.009 101.559
threshold=0.00025437066005141112 -0.0028609824750345093 0.0032584938684116246 -0.0011291608414329727 -0.0055729798309560458 0.0069913996379950298 0.001848508081199494 0.0062862149370884165 0.005686667376829554 0.0038135885103506265 0.50833333333333341 0.0036655296869075732 -0.00040873449307416934 0.00088933159686034439 0.0035802246402189286 0.011231731556396824 0.0073737237398779692 0.0052973154885905451 0.12940952255126045 0.0040271531057942513 -0.0019909478022136261 0.0069249455212998037 0.004071351382223292 0.0072160866854068017 0.0034104265709288275 -0.01134266916834722 0.0092315974484153077 -0.0043645288110455973 0.010425120171426249 -0.012424669145530349
decision_type=2 2 2 2 2 2 2 2 2 2 2 2 2 2 2 2 2 2 2 2 2 2 2 2 2 2 2 2 2 2
left_child=1 4 6 9 10 8 13 14 17 20 25 -8 19 -2 -6 16 -7 24 -10 -5 -3 -11 -15 -13 -4 -1 -27 -16 -12 -30
right_child=2 3 5 12 7 15 11 -9 18 21 28 23 -14 22 27 -17 -18 -19 -20 -21 -22 -23 -24 -25 -26 26 -28 -29 29 -31
leaf_value=-0.056940452856717803 0.0059207082477965864 -0.037689468958578318 0.048087672225277558 -0.014694465403183076 -0.048933338656372685 0.054078453350361357 0.034947914918044644 -0.025290489139834213 0.02635147982087372 -0.019709477632319349 -0.046385697922924199 0.023812605029509559 -0.0018394010879719603 0.018485419548576968 -0.044143842895334212 0.056703772046290617 0.042471860962693245 0.050774778418255992 0.037139368328544302 -0.0064185577552256807 -0.026887417610352345 -0.011032704115227812 0.011010811123836785 0.014244302216906054 0.038035160835812841 -0.053253323231755474 -0.037959945368427409 -0.034461845788303684 -0.0467282725033248 -0.028426166285231029
leaf_weight=6270.3487182855606 6120.9789127856493 1605.1019461154938 1416.8446317017078 3266.9590019881725 2101.5772779285908 3408.6268877983093 2500.2397647202015 2972.1852789968252 2753.3554862588644 4993.7342467457056 1754.4288504123688 4119.6992147415876 8258.6919133365154 3670.7578738182783 1432.3115243315697 7244.9522161185741 1623.6953835785389 2017.1553079038858 1537.690763130784 3340.9901748299599 2432.203254327178 2006.4794384092093 3987.3549458533525 1390.5963952690363 2785.6996216624975 4855.7419527769089 649.8344898223877 2651.1993118822575 439.8568058013916 718.76600766181946
leaf_count=25098 24485 6422 5671 13068 8410 13648 10005 11890 11017 19976 7020 16483 33035 14686 5731 29011 6499 8075 6154 13364 9730 8026 15951 5563 11150 19434 2600 10607 1760 2876
internal_value=-2.94354e-05 -0.02867 0.0319346 -0.0127815 -0.0459298 0.0469669 0.0162135 -0.0363207 0.0386435 -0.0223286 -0.0519202 0.0256271 -0.00569339 0.0107409 -0.0416211 0.0540927 0.0503335 0.0444568 0.0302173 -0.0105102 -0.031182 -0.0172224 0.0145936 0.0213979 0.0414243 -0.0543727 -0.0514482 -0.0378579 -0.0420061 -0.0353743
internal_weight=94328.1 49750.4 44577.6 25904.2 23846.3 22788 21789.6 9157.27 10510.7 11037.5 14689 8010.54 14866.6 13779.1 6185.09 12277.3 5032.32 6219.7 4291.05 6607.95 4037.31 7000.21 7658.11 5510.3 4202.54 11775.9 5505.58 4083.51 2913.05 1158.62
internal_count=377445 199047 178398 103621 95426 91225 87173 36638 42067 44154 58788 32051 59467 55122 24748 49158 20147 24896 17171 26432 16152 28002 30637 22046 16821 47132 22034 16338 11656 4636
is_linear=0
shrinkage=0.03


Tree=2
num_leaves=31
num_cat=0
split_feature=0 0 0 0 0 0 0 2 2 2 1 2 0 0 2 0 2 2 0 2 0 0 0 0 2 0 4 0 2 1
split_gain=90372.1 14317 11063.5 1792.68 1485.72 1425.43 1175.4 618.401 542.9 486.316 376.673 339.945 228.02 186.4 166.056 132.318 129.941 129.205 128.079 140.87 115.302 109.73 101.67 101.568 96.3483 111.935 96.2644 93.4188 141.266 89.381
threshold=0.00025437066005141112 -0.0025647526965544057 0.0032584938684116246 -0.0055729798309560458 -0.00099627137572036125 0.0069913996379950298 0.001586814118851945 0.0055220496158080905 0.0060650876658228632 0.0037278890087561237 0.50833333333333341 0.0032156174146259985 -0.00040873449307416934 0.00088933159686034439 0.0030547454453535854 0.0044029568983066673 0.0072160866854068017 0.010575619077605495 0.0099801611875336687 0.0073737237398779692 -0.0035240221866185569 -0.003814932593454343 0.0024235630818773405 -0.0015624658963468412 0.006972653596157472 -0.0015624658963468412 0.12940952255126045 -0.01134266916834722 0.0092315974484153077 0.70833333333333337
decision_type=2 2 2 2 2 2 2 2 2 2 2 2 2 2 2 2 2 2 2 2 2 2 2 2 2 2 2 2 2 2
left_child=1 3 6 10 9 8 13 14 15 23 27 -8 -6 -2 -5 -4 22 20 19 -7 -9 -16 -13 -3 25 -11 -10 -1 -29 -12
right_child=2 4 5 7 12 18 11 17 26 24 29 16 -14 -15 21 -17 -18 -19 -20 -21 -22 -23 -24 -25 -26 -27 -28 28 -30 -31
leaf_value=-0.055359702433909662 0.0057433646928474521 -0.032844536832792579 0.037807664827325775 -0.049089597617432583 -0.0096743797931234683 0.051988029311585762 0.033680013159523008 -0.03220102018313474 0.024972709577759739 -0.020909644721499487 -0.044344555461152915 0.01896584762645151 -0.0017842115944029994 0.013247792483281834 -0.042546775328813347 0.046306636454229895 0.012989375834679295 -0.014485819342324721 0.054712754253135799 0.039769996127384973 -0.021215313673763229 -0.033353324419753659 0.026862602883008652 -0.023036180942237076 -0.0091790941229668542 -0.011781002677036998 0.035074134259148119 -0.051759344411925617 -0.03685720779924001 -0.033004507059799633
leaf_weight=6256.1053341329098 6120.6841100007296 2097.6092662066221 2896.0960685014725 1497.2746221423149 5486.2215314805508 2700.0021409392357 2236.7072299271822 2274.0262439846992 2482.7576485276222 2984.0597909539938 1999.0871118605137 3320.902133628726 8258.724894747138 5803.2895526736975 2178.9774945527315 3827.5465514361858 1671.9955385327339 764.48333835601807 8308.2107020914555 1239.0436756163836 1382.6679437607527 2519.5207800418139 2629.0249566137791 1737.0186449736357 1835.9190177619457 2032.2183938026428 1290.3511510789394 4846.1513387560844 649.20720160007477 910.43120732903481
leaf_count=25098 24485 8398 11607 6001 21946 10837 8959 9103 9940 11940 8009 13292 33035 23221 8730 15350 6690 3059 33354 4967 5533 10089 10526 6951 7344 8130 5170 19434 2600 3647
internal_value=-2.85099e-05 -0.0278332 0.0310128 -0.0436615 -0.0114568 0.0456474 0.0157323 -0.0342732 0.0375349 -0.0198467 -0.0504601 0.0233964 -0.00493353 0.0093957 -0.0403894 0.0426458 0.0203786 -0.0257022 0.0526003 0.0481448 -0.0280471 -0.0376169 0.0224551 -0.0284015 -0.0150593 -0.0172114 0.0284273 -0.0528528 -0.0499988 -0.0407961
internal_weight=94236.3 49709.7 44526.6 25277.9 24431.8 22744 21782.6 10617 10496.8 10686.8 14661 9858.63 13744.9 11924 6195.77 6723.64 7621.92 4421.18 12247.3 3939.05 3656.69 4698.5 5949.93 3834.63 6852.2 5016.28 3773.11 11751.5 5495.36 2909.52
internal_count=377445 199047 178398 101303 97744 91225 87173 42515 42067 42763 58788 39467 54981 47706 24820 26957 30508 17695 49158 15804 14636 18819 23818 15349 27414 20070 15110 47132 22034 11656
is_linear=0
shrinkage=0.03


Tree=3
num_leaves=31
num_cat=0
split_feature=0 0 0 0 0 0 0 2 2 2 2 1 0 0 2 0 0 2 0 2 2 0 4 2 0 2 1 2 0 2
split_gain=85171 13547.2 10493.5 1728.96 1691.91 1382.82 839.59 581.64 494.635 457.351 425.953 274.56 270.47 252.921 184.717 131.965 129.871 116.878 113.487 107.653 101.874 96.454 94.8592 94.5654 83.4043 80.08 77.8385 77.4046 76.2178 152.051
threshold=0.00025437066005141112 -0.0028609824750345093 0.0039795415668494134 -0.0011291608414329727 0.001848508081199494 -0.006258098299492222 0.007889878043560351 0.0063242842043335331 0.0037918600766575741 0.0045831710625763985 0.005686667376829554 0.55833333333333346 -0.00040873449307416934 0.0010095035151647632 0.0035802246402189286 -0.0043645288110455973 0.0028175002074465462 0.0040271531057942513 -0.0019909478022136261 0.0069249455212998037 0.0029104604613424952 -0.0043645288110455973 0.12940952255126045 0.0035172627500666648 -0.0015624658963468412 0.0077042086889740988 0.39166666666666672 0.0042467196445166435 -0.012424669145530349 0.0092315974484153077
decision_type=2 2 2 2 2 2 2 2 2 2 2 2 2 2 2 2 2 2 2 2 2 2 2 2 2 2 2 2 2 2
left_child=1 5 4 8 13 11 10 14 18 16 27 28 17 -2 -7 -16 20 -5 -3 24 -6 -9 -12 -15 -10 -11 -8 -4 -1 -30
right_child=2 3 6 12 9 7 26 21 19 25 22 -13 -14 23 15 -17 -18 -19 -20 -21 -22 -23 -24 -25 -26 -27 -28 -29 29 -31
leaf_value=-0.054078172196896784 0.0062065877297281169 -0.035740903528476572 0.048545929142157086 -0.013909789744431919 0.036015094698086551 -0.04711006438755598 0.053468124059584864 -0.030287517046073169 -0.021054695710709857 0.02224796869620483 0.028673166486034136 -0.039245431689335225 -0.0017306794072596385 0.019303303870205929 -0.042549425491213433 -0.032449919612179148 0.037491929053200729 -0.0059289235403440499 -0.025379592699766251 -0.010378874522136695 0.02422246145788633 -0.020334920088725724 0.038450607770683279 0.01173397385263809 -0.012547178639135324 0.014386729526828736 0.047500595759137544 0.041075260006808563 -0.051181703746106755 -0.03693247276042904
leaf_weight=5774.3233645707369 7200.368796184659 1577.1957321763039 2907.7365337759256 3266.1210410892963 977.25880654156208 2372.9945462048054 8219.454708352685 1765.247794225812 3586.5764136910439 3874.6591217070818 2505.1595270335674 1865.2673678100109 8258.7440928816795 2267.9350195378065 2065.0969175249338 2669.6757951825857 2334.831548884511 3340.6743451058865 2397.7751644402742 2006.1154042184353 2026.3938536196947 1740.4263010472059 1387.7466109842062 4305.4459604173899 1459.0042161643505 1668.4021712392569 2586.1517187654972 2187.0724208801985 4709.8104752451181 786.53846351802349
leaf_count=23251 28808 6326 11696 13068 3921 9537 33126 7077 14359 15529 10047 7487 33035 9082 8294 10704 9371 13364 9605 8026 8121 6970 5573 17232 5838 6681 10415 8796 18949 3157
internal_value=-2.76321e-05 -0.0270362 0.0301363 -0.0120267 0.0170759 -0.0433999 0.0464049 -0.0353465 -0.0210278 0.0259176 0.0396301 -0.0499068 -0.00535002 0.0100908 -0.0402787 -0.0368549 0.0321847 -0.00987433 -0.0294908 -0.0162573 0.0280593 -0.0253465 0.0321586 0.0143455 -0.0185946 0.0198818 0.0520399 0.045339 -0.0516713 -0.0491426
internal_weight=94090.2 49641.6 44448.6 25892.2 24655.3 23749.4 19793.3 10613.4 11026.7 10881.5 8987.72 13135.9 14865.5 13773.7 7107.77 4734.77 5338.48 6606.8 3974.97 7051.7 3003.65 3505.67 3892.91 6573.38 5045.58 5543.06 10805.6 5094.81 11270.7 5496.35
internal_count=377445 199047 178398 103621 98745 95426 79653 42582 44154 43623 36112 52844 59467 55122 28535 18998 21413 26432 15931 28223 12042 14047 15620 26314 20197 22210 43541 20492 45357 22106
is_linear=0
shrinkage=0.03


Tree=4
num_leaves=31
num_cat=0
split_feature=0 0 0 0 0 1 0 2 0 2 2 0 2 0 0 2 0 0 2 2 4 0 2 0 2 2 4 4 2 2
split_gain=80313.2 12846 9971.02 1861.26 1597.48 1117.06 806.562 504.52 492.486 446.986 432.929 254.566 239.51 238.259 149.928 143.09 127.526 123.268 123.203 110.211 106.11 103.661 96.5682 94.9779 89.1702 82.523 78.7858 76.8619 73.5554 72.6224
threshold=0.00025437066005141112 -0.0030966698757296141 0.0039795415668494134 -0.0011291608414329727 0.001848508081199494 0.57500000000000007 0.0086929197767422091 0.0038135885103506265 -0.0068288518335305878 0.005686667376829554 0.0045831710625763985 -0.00040873449307416934 0.0068331478530725973 0.0010095035151647632 -0.0055729798309560458 0.0075889587953331351 -0.0019909478022136261 0.0028175002074465462 0.006972653596157472 0.0034104265709288275 0.12940952255126045 -0.0020470122680731812 0.0029104604613424952 0.0052973154885905451 0.0035172627500666648 0.0037278890087561237 -0.5 0.12940952255126045 0.0058186097131253727 0.010425120171426249
decision_type=2 2 2 2 2 2 2 2 2 2 2 2 2 2 2 2 2 2 2 2 2 2 2 2 2 2 2 2 2 2
left_child=1 5 4 7 13 8 9 16 -1 23 17 19 25 -2 29 -16 -3 22 21 -5 26 -9 -6 -4 -15 -10 -11 28 -12 -7
right_child=2 3 6 11 10 14 -8 18 12 20 27 -13 -14 24 15 -17 -18 -19 -20 -21 -22 -23 -24 -25 -26 -27 -28 -29 -30 -31
leaf_value=-0.05066266589263798 0.0060209935210175846 -0.034883548134770875 0.040319564251899115 -0.014806516824803044 0.03501671291299098 -0.041685811208239797 0.051397339221393425 -0.023182641407111473 -0.047532755936854597 0.032282139299979008 0.022882181102626277 -0.001678757855548284 -0.029083859272050448 0.018737988218273254 -0.03095260940128642 -0.017054886681965416 -0.024580847206537783 0.036459796254290786 -0.010424755598885498 -0.0067068551484766583 0.038404095518217801 -0.014955741098266235 0.023524091769633777 0.048215861593927205 0.011385608591794017 -0.040071435772352004 0.021787761474361268 0.023659039201126848 0.013360597344584481 -0.030448064651892703
leaf_weight=10563.389922097325 7199.6592108011246 1950.5419952273369 2374.5186927467585 2342.9680032134056 975.00152032077312 1193.2350020855665 9655.7405737191439 2596.4075246751308 2260.850591480732 1888.1170568168163 1078.4841754585505 8258.75 1362.4897911548615 2266.2911990135908 2029.4283877313137 992.99077741801739 2426.3097065240145 2328.985999032855 2201.6916374564171 4262.7317500561476 1571.5328226089478 2938.4516263306141 2023.99133720994 3243.7095090001822 4304.0844577103853 3254.560751631856 976.98642888665199 2198.4938112348318 2261.0633868575096 913.98221911489964
leaf_count=42712 28808 7844 9578 9377 3921 4804 39114 10407 9121 7590 4328 33035 5472 9082 8156 3980 9730 9371 8811 17055 6331 11766 8121 13113 17232 13101 3927 8820 9062 3676
internal_value=-2.68e-05 -0.0262754 0.0293009 -0.0123034 0.0165769 -0.0429755 0.0452046 -0.0210323 -0.0465949 0.0392576 0.0251766 -0.00518991 -0.0403475 0.00979079 -0.0306691 -0.0263866 -0.0291722 0.0312817 -0.0164273 -0.00957971 0.0321397 -0.018815 0.0272605 0.0448785 0.0139216 -0.0431299 0.0287036 0.0193031 0.0164355 -0.0368116
internal_weight=93895.4 49548.8 44346.7 26977.9 24636.1 22570.9 19710.6 12113.4 17441.3 10054.9 10866 14864.4 6877.9 13770 5129.64 3022.42 4376.85 5327.98 7736.55 6605.7 4436.64 5534.86 2998.99 5618.23 6570.38 5515.41 2865.1 5538.04 3339.55 2107.22
internal_count=377445 199047 178398 108025 98745 91022 79653 48558 70406 40539 43623 59467 27694 55122 20616 12136 17574 21413 30984 26432 17848 22173 12042 22691 26314 22222 11517 22210 13390 8480
is_linear=0
shrinkage=0.03


Tree=5
num_leaves=31
num_cat=0
split_feature=0 0 0 0 0 0 0 2 2 2 2 1 0 0 2 2 2 0 2 2 4 2 0 0 2 0 2 4 0 2
split_gain=75559.1 11839.6 9787.51 1579.7 1313.85 1165.81 978.477 536.389 495.55 379.45 345.047 336.571 301.946 257.992 155.029 140.566 119.213 109.872 109.43 108.91 108.756 103.555 110.105 95.4233 86.159 84.3077 83.6683 80.9611 75.2491 123.591
threshold=0.0002177908534597656 -0.0025647526965544057 0.0036003687246908994 -0.0055729798309560458 0.001848508081199494 -0.0013155761446759478 0.0081423342032469325 0.0055220496158080905 0.005686667376829554 0.0030097702382104459 0.0041806974111361838 0.47500000000000003 -0.00044435743573317067 0.00088933159686034439 0.0029846509996031344 0.0040271531057942513 0.008230059022861105 0.0052973154885905451 0.0034735605707126934 0.006972653596157472 0.12940952255126045 0.010425120171426249 -0.012424669145530349 -0.003814932593454343 0.0024334599770298357 -0.0036209922166843341 0.0079540355855715981 -0.5 -0.01134266916834722 0.0092315974484153077
decision_type=2 2 2 2 2 2 2 2 2 2 2 2 2 2 2 2 2 2 2 2 2 2 2 2 2 2 2 2 2 2
left_child=1 3 4 11 13 9 8 14 17 -3 24 28 15 -2 -5 -7 25 -4 -15 -11 27 -13 -23 -16 -6 -9 -12 -10 -1 -30
right_child=2 5 6 7 10 12 -8 16 20 19 26 21 -14 18 23 -17 -18 -19 -20 -21 -22 22 -24 -25 -26 -27 -28 -29 29 -31
leaf_value=-0.051443555228599995 0.0047622804185873053 -0.033598691666625102 0.038612952200290943 -0.045998985718950079 0.039794928258186459 -0.014433870437470658 0.049689976689246365 -0.031697092047924424 0.02958158259830055 -0.018940472276168269 0.020839532375974988 -0.042428877425526763 -0.0020208946579475307 0.017923747967347858 -0.039085125868827716 -0.0063333457418132035 -0.01699020531811337 0.04666477786060725 0.010331166633952548 -0.0096200182450822559 0.035511983712349399 -0.042503174755039057 -0.024397556092857788 -0.030597610233314951 0.028334071269681613 -0.021028928688057814 0.012100886817760146 0.019225663411715631 -0.048147970054779672 -0.033374561558343042
leaf_weight=5984.1539206653833 6491.8785767555237 1502.0579116046429 3276.5270457863808 1364.9346097409725 725.96825894713402 3752.4808472394943 10313.122416332364 1580.4119062125683 1930.1441144347191 5110.2344588786364 4250.7652230858803 2063.8936368227005 8267.8165023326874 2580.5262262821198 2225.7146874517202 3965.2148131877184 1652.5954935848713 2853.6663522571325 5055.2623957842588 1448.0617727339268 1663.6450018286705 498.80522388219833 767.27720645070076 2567.2789745628834 3160.1355358362198 1153.1647373437881 1283.9309032708406 1048.5080373585224 4523.4181867539883 574.35478888452053
leaf_count=24369 25976 6040 13259 5530 2929 15029 42035 6360 7771 20500 17074 8351 33072 10348 8996 15867 6628 11597 20246 5795 6721 2018 3093 10341 12725 4628 5146 4218 18378 2318
internal_value=2.11883e-06 -0.0257178 0.028239 -0.0401927 0.0149456 -0.0106951 0.0430851 -0.0313685 0.0367618 -0.0199976 0.0236233 -0.0466488 -0.00600445 0.00915902 -0.0370791 -0.010272 -0.0233512 0.0423612 0.0128971 -0.0168825 0.0293679 -0.0382853 -0.0315307 -0.0345389 0.0304751 -0.0271967 0.0188124 0.0259362 -0.0491619 -0.0464835
internal_weight=93635.9 49001.9 44634.1 24956 23548.5 24045.9 21085.6 10544.1 10772.5 8060.35 9420.8 14411.9 15985.5 14127.7 6157.93 7717.7 4386.17 6130.19 7635.79 6558.3 4642.3 3329.98 1266.08 4792.99 3886.1 2733.58 5534.7 2978.65 11081.9 5097.77
internal_count=377358 197313 180045 101010 94444 96303 85601 42483 43566 32335 37874 58527 63968 56570 24867 30896 17616 24856 30594 26295 18710 13462 5111 19337 15654 10988 22220 11989 45065 20696
is_linear=0
shrinkage=0.03


Tree=6
num_leaves=31
num_cat=0
split_feature=0 0 0 0 0 0 0 2 2 2 2 1 0 2 2 0 0 2 0 2 2 0 0 2 0 2 2 0 0 0
split_gain=71317.6 11258 9336.19 1519.49 1303.79 1102.23 893.504 511.504 472.718 426.158 346.14 325.439 243.097 148.785 146.188 134.135 128.529 112.939 108.718 103.248 98.9745 104.984 93.6996 91.5432 91.3085 83.5128 83.349 80.0545 76.2759 73.1752
threshold=0.0002177908534597656 -0.0025647526965544057 0.0036945090791327575 -0.0055729798309560458 0.001848508081199494 -0.00082905773497729681 0.0081423342032469325 0.0055220496158080905 0.0073737237398779692 0.0032578766953729964 0.0041356885694858311 0.47500000000000003 0.00088933159686034439 0.0029846509996031344 0.0042467196445166435 -0.0015078319450383475 -0.00018454402187769435 0.008230059022861105 -0.0013155761446759478 0.0034735605707126934 0.010425120171426249 -0.012424669145530349 0.0054399515591932795 0.0070177263065693343 -0.003814932593454343 0.0024334599770298357 0.0079540355855715981 -0.0036209922166843341 0.0062247818510927739 -0.01134266916834722
decision_type=2 2 2 2 2 2 2 2 2 2 2 2 2 2 2 2 2 2 2 2 2 2 2 2 2 2 2 2 2 2
left_child=1 3 4 11 12 9 8 13 14 18 25 29 -2 -5 -4 23 -7 27 -3 -14 -13 -22 -16 -11 -15 -6 -12 -9 -10 -1
right_child=2 5 6 7 10 16 -8 17 28 15 26 20 19 24 22 -17 -18 -19 -20 -21 21 -23 -24 -25 -26 -27 -28 -29 -30 -31
leaf_value=-0.050281580235139275 0.004619828740253025 -0.030657034741884536 0.04449082207496647 -0.044877766504871706 0.039075251896941776 -0.0068768485090311259 0.048561366556103339 -0.030830329791862766 0.021019462288530327 -0.018919719037961545 0.020476625602677052 -0.041363743077631333 0.017402997218237529 -0.038080005574304902 0.032063376971178781 -0.009290222479991771 -0.00064001233682065971 -0.016496121374715667 -0.019124821751655682 0.010025158941828467 -0.041434553044247993 -0.023720590519347037 0.040758244342161833 -0.0093896056440328206 -0.02976254009377655 0.027924470009189614 0.011948658709197256 -0.020424938381471743 0.031798557461051681 -0.04537368238923388
leaf_weight=5939.4375814944506 6491.3005572855473 1943.5232929438353 3337.2749178856611 1357.180524289608 747.15027768909931 6238.4715186059475 10237.35697118938 1576.161767795682 1642.7464108616114 3853.6974708735943 4503.5998830646276 2053.6812009811401 2578.0484072715044 2216.0727169066668 2348.0539488941431 3944.7298468351364 5682.7300156205893 1651.0536162704229 1183.9081491529942 5053.3115977793932 496.35618562996387 765.52586959302425 2124.9222376942635 1186.4097290933132 2560.2373127490282 3165.712308332324 1337.8711388558149 1151.6696742773056 922.69142010807991 5066.2647344321012
leaf_count=24369 25976 7834 13615 5530 3027 24966 42035 6360 6627 15476 18119 8351 10348 8996 9517 15799 22731 6628 4748 20246 2018 3093 8654 4749 10341 12782 5366 4628 3733 20696
internal_value=2.11569e-06 -0.0250168 0.0274825 -0.0391823 0.0147135 -0.0103797 0.0422734 -0.0305209 0.0360692 -0.0167535 0.0231487 -0.0455401 0.00888747 -0.0361123 0.0397392 -0.0134335 -0.0039038 -0.022689 -0.0262914 0.0125176 -0.0373007 -0.0306883 0.0361939 -0.0166764 -0.0336216 0.0300537 0.0185235 -0.0264373 0.0248963 -0.0480223
internal_weight=93357.2 48867.1 44490 24833.6 23877 24033.5 20613 10512.4 10375.7 12112.3 9754.33 14321.3 14122.7 6133.49 7810.25 8984.84 11921.2 4378.89 3127.43 7631.36 3315.56 1261.88 4472.98 5040.11 4776.31 3912.86 5841.47 2727.83 2565.44 11005.7
internal_count=377358 197313 180045 101010 95864 96303 84181 42483 42146 48606 39294 58527 56570 24867 31786 36024 47697 17616 12582 30594 13462 5111 18171 20225 19337 15809 23485 10988 10360 45065
is_linear=0
shrinkage=0.03


Tree=7
num_leaves=31
num_cat=0
split_feature=0 0 0 0 0 0 0 2 2 2 2 1 0 0 2 2 0 0 2 2 2 0 2 2 1 0 1 0 5 0
split_gain=67359.2 11763.8 7951.57 1465.77 1245.72 1003.22 867.49 488.682 440.724 416.179 332.423 315.773 166.203 163.922 145.304 139.62 135.212 109.294 107.111 101.493 94.849 100.331 86.5704 83.7234 81.8164 81.2069 76.8606 76.1254 73.1857 71.5614
threshold=0.00039607297755261391 -0.0025647526965544057 0.0036945090791327575 -0.0055729798309560458 -0.00074890775744638745 0.0019022579286270143 0.007889878043560351 0.0055220496158080905 0.0073737237398779692 0.0030097702382104459 0.0041147209885913499 0.47500000000000003 0.001135788394981155 -0.0015078319450383475 0.0035802246402189286 0.0042467196445166435 -0.00014831875910395145 -0.0013155761446759478 0.008230059022861105 0.0052794086134376672 0.010425120171426249 -0.012424669145530349 0.0030325498751487862 0.0079540355855715981 0.37500000000000006 0.0054399515591932795 0.50833333333333341 -0.0036209922166843341 0.1294095225512602 -0.01134266916834722
decision_type=2 2 2 2 2 2 2 2 2 2 2 2 2 2 2 2 2 2 2 2 2 2 2 2 2 2 2 2 2 2
left_child=1 3 5 11 9 12 8 14 15 17 -7 29 -2 19 -5 -4 -6 -3 27 -11 -13 -22 -14 -12 -8 -17 -16 -9 -24 -1
right_child=2 4 6 7 16 10 24 18 -10 13 23 20 22 -15 26 25 -18 -19 -20 -21 21 -23 28 -25 -26 -27 -28 -29 -30 -31
leaf_value=-0.049199645839054312 0.0066592448940175691 -0.031855136401255257 0.043255374254412095 -0.040835800994314976 -0.0060777178723496732 0.029762401746517692 0.048866148472682253 -0.029999576493804848 0.023878986957966194 -0.020392649272124041 0.020184174239350667 -0.040355157817957246 0.020413323670306596 -0.0091169069864666889 -0.035525701346204273 0.031224075748233989 7.4719467532934189e-05 -0.01952972239771333 -0.016018202986818358 -0.012099840732350025 -0.040422814115895829 -0.023067539595964276 0.0081940023428765767 0.011499694046852157 0.0428271465693029 0.039498896833743524 -0.026808509364713483 -0.019841790516529803 0.015867154546030975 -0.044327351812609148
leaf_weight=5888.7086830288172 6865.035957634449 1493.6164883673191 3226.9599596858025 2454.3072358965874 5867.8465428501368 3698.3433791697025 7775.860863879323 1571.288101002574 2445.2320707589388 3011.6290567070246 4376.4849509298801 2042.0328698903322 1288.1497346311808 4812.2947955727577 1921.8344384431839 2338.9713841676712 7110.6911703050137 1142.9873100370169 1649.3309893608093 2376.2535730451345 493.55804763734341 763.611243724823 2520.3697079122066 1294.626084074378 2727.2268267720938 1963.3383879810572 1729.5598096698523 1149.9771451205015 2011.6186871677637 5030.8084454089403
leaf_count=24369 27491 6040 13251 10044 23484 14992 32214 6360 9897 12121 17638 8351 5182 19282 7810 9517 28446 4587 6628 9530 2018 3093 10109 5196 11263 8039 7013 4628 8069 20696
internal_value=2.11494e-06 -0.0234212 0.0278191 -0.0382238 -0.00926094 0.01532 0.0412808 -0.029709 0.0349446 -0.0158873 0.0227649 -0.0444975 0.00982107 -0.013141 -0.0351909 0.0385383 -0.00270692 -0.026512 -0.0220507 -0.0167352 -0.036364 -0.0298811 0.0135505 0.0182016 0.0472981 0.0350003 -0.0313966 -0.025707 0.0115999 -0.0469549
internal_weight=93042.6 50510.3 42532.2 24695 25815.3 22054.6 20477.6 10476.3 9974.5 12836.8 9369.45 14218.7 12685.2 10200.2 6105.7 7529.27 12978.5 2636.6 4370.6 5387.88 3299.2 1257.17 5820.14 5671.11 10503.1 4302.31 3651.39 2721.27 4531.99 10919.5
internal_count=377358 204500 172858 101010 103490 88677 84181 42483 40704 51560 37826 58527 50851 40933 24867 30807 51930 10627 17616 21651 13462 5111 23360 22834 43477 17556 14823 10988 18178 45065
is_linear=0
shrinkage=0.03


Tree=8
num_leaves=31
num_cat=0
split_feature=0 0 0 0 0 0 0 2 2 2 2 1 0 0 0 2 2 2 0 2 2 2 0 0 0 5 2 2 0 0
split_gain=63634.8 11612.4 7256.81 1417.86 1256.24 1012.51 706.65 467.601 429.608 394.085 342.079 307.422 176.346 154.809 142.177 140.601 123.521 113.769 104.139 101.684 96.0128 91.1582 97.3953 88.4766 88.0035 83.5934 81.2575 80.0926 72.4834 70.2777
threshold=0.00046966130558419625 -0.0025647526965544057 0.0039795415668494134 -0.0055729798309560458 -0.00074890775744638745 0.0021248522773014331 0.0086929197767422091 0.0055220496158080905 0.0073737237398779692 0.0030097702382104459 0.0045356995250978608 0.47500000000000003 0.001135788394981155 -0.0015078319450383475 -0.00014831875910395145 0.0029846509996031344 0.0042467196445166435 0.0030325498751487862 -0.0013155761446759478 0.008230059022861105 0.0052794086134376672 0.010575619077605495 -0.012424669145530349 0.0057386625136497229 -0.003814932593454343 0.1294095225512602 0.00732194380706207 0.0024992919428106068 -0.0036209922166843341 -0.01134266916834722
decision_type=2 2 2 2 2 2 2 2 2 2 2 2 2 2 2 2 2 2 2 2 2 2 2 2 2 2 2 2 2 2
left_child=1 3 5 11 9 12 8 15 16 18 27 29 -2 20 -6 -5 -4 -14 -3 28 -11 -13 -23 -18 -17 -19 -12 -7 -9 -1
right_child=2 4 6 7 14 10 -8 19 -10 13 26 21 17 -15 -16 24 23 25 -20 -21 -22 22 -24 -25 -26 -27 -28 -29 -30 -31
leaf_value=-0.048189816472733557 0.0069525976590827186 -0.031011081231077271 0.043712963935205858 -0.042892840629734967 -0.0058961219386061345 0.039012271157167003 0.046952421651573088 -0.029202100071576427 0.024854951842029443 -0.019814395630256582 0.021071031954089162 -0.039313943033835771 0.020995980089399902 -0.0088467133114478406 0.00027941873501094634 -0.036285099600934602 0.031566639758796589 0.0086289698408593407 -0.018966526317636716 -0.015555700401315055 -0.011744225562405093 -0.039418874493658593 -0.022082635044698401 0.040219096363932449 -0.028083941785084398 0.015942112057239929 0.012844746312075985 0.02805775113208539 -0.019278355237138986 -0.043340534342516619
leaf_weight=5832.588443800807 6137.3065971136093 1488.3211192786694 3082.4092500656843 1339.1413127183914 5867.1239155381918 725.76109381020069 9353.4325379878283 1565.8542269468307 2554.4966700226068 3006.6093683838844 3107.0564435422421 2062.7282530516386 1574.583906725049 4810.5191546231508 7836.9247028976679 2193.9306518435478 2160.1783512085676 3159.3475187271833 1141.6398484557867 1647.4464964568615 2374.7828310579062 483.644151866436 734.72073820233345 2095.3421795517206 2541.988158300519 2535.7871800661087 1657.0198418051004 3485.5716380178928 1148.1074265837669 4991.5841488987207
leaf_count=24369 24584 6040 12772 5530 23484 2968 39104 6360 10392 12121 12558 8488 6358 19282 31353 8996 8844 12690 4587 6628 9530 1990 2984 8654 10341 10190 6664 14173 4628 20696
internal_value=2.11369e-06 -0.0224398 0.0275328 -0.0373126 -0.00867952 0.0159179 0.0410406 -0.0289296 0.0354509 -0.015429 0.0237163 -0.0435151 0.0106972 -0.0127573 -0.00236452 -0.03431 0.0391396 0.0138585 -0.0257827 -0.0214351 -0.0162531 -0.0354709 -0.0289645 0.035827 -0.0318832 0.0118852 0.0182098 0.0299456 -0.025004 -0.0459536
internal_weight=92695.9 51067.7 41628.3 24541.7 26525.9 22382.4 19245.9 10436.5 9892.43 12821.9 8975.41 14105.3 13407 10191.9 13704 6075.06 7337.93 7269.72 2629.96 4361.41 5381.39 3281.09 1218.36 4255.52 4735.92 5695.13 4764.08 4211.33 2713.96 10824.2
internal_count=377358 207407 169951 101010 106397 90185 79766 42483 40662 51560 36363 58527 53822 40933 54837 24867 30270 29238 10627 17616 21651 13462 4974 17498 19337 22880 19222 17141 10988 45065
is_linear=0
shrinkage=0.03


Tree=9
num_leaves=31
num_cat=0
split_feature=0 0 0 0 0 0 0 2 2 2 2 1 0 0 0 0 2 0 2 2 2 2 0 2 0 2 0 2 0 5
split_gain=60136 11077.7 6965.39 1377.45 1184.79 960.059 690.558 477.074 414.033 374.773 327.833 246.606 163.017 133.982 131.165 131.096 119.949 111.815 100.09 96.6456 92.2946 89.4852 85.54 82.5429 82.2731 166.619 81.4571 80.9329 74.5746 67.4807
threshold=0.00046966130558419625 -0.0025647526965544057 0.0039795415668494134 -0.0060774699913450679 -0.00074890775744638745 0.0019548234617754326 0.0086929197767422091 0.0047239303353872582 0.0073737237398779692 0.0032578766953729964 0.0041147209885913499 0.6083333333333335 -0.0040267563100113736 -0.00018454402187769435 -0.0015078319450383475 0.001135788394981155 0.0042467196445166435 -0.0015624658963468412 0.00732194380706207 0.0029846509996031344 0.008230059022861105 0.0030325498751487862 0.0057386625136497229 0.0080199521471451419 -0.012424669145530349 0.009137875263892736 -0.003814932593454343 0.0070177263065693343 0.0028175002074465462 0.1294095225512602
decision_type=2 2 2 2 2 2 2 2 2 2 2 2 2 2 2 2 2 2 2 2 2 2 2 2 2 2 2 2 2 2
left_child=1 3 5 11 9 15 8 19 16 17 28 24 23 -6 27 -2 -4 -3 -12 -5 -14 -17 -18 -9 -1 -26 -21 -11 -7 -23
right_child=2 4 6 7 13 10 -8 12 -10 14 18 -13 20 -15 -16 21 22 -19 -20 26 -22 29 -24 -25 25 -27 -28 -29 -30 -31
leaf_value=-0.047261488647367171 0.0067457803444976221 -0.029973871373570306 0.042772527091124522 -0.042313778346259358 -0.0059174393720163865 0.025342111283388525 0.046021710098881279 -0.031732817233362312 0.024190520356501568 -0.017371988113536088 0.020536064996278077 -0.03159048933562808 -0.021678451977683942 0.00013463317198484289 -0.0081785087536829729 0.019727101541759606 0.030775040577608034 -0.018882083579217106 0.01216122441110366 -0.037534515305792687 -0.010156457594399036 0.0078446616224516052 0.039309305540599346 -0.021536104984496943 -0.044377375132888641 -0.030567563323209288 -0.028651595047743079 -0.0084028694216049613 0.033701830890527938 0.014993149188682081
leaf_weight=5579.2753832936287 6135.7278851270676 1428.0767847299576 3056.0736274123192 1424.4786610752344 5498.3440259248018 2077.8985925763845 9257.7538195550442 2060.9316282719374 2546.048437744379 3837.9286792874336 4348.4555343836546 1467.327661126852 2318.6191063970327 8204.8880529105663 4439.8453320860863 1361.7060300409794 2149.433219268918 1914.6565353125334 1822.6860597729683 1870.9181554764509 856.94988894462585 2678.331521242857 2079.757837548852 1093.6565047502518 4921.4968912750483 935.81969146430492 1845.6320247352123 1185.0343993753195 1785.7722002714872 2136.5646164566278
leaf_count=23538 24584 5819 12772 5932 22012 8470 39104 8459 10392 15476 17620 6036 9407 32825 17799 5501 8844 7717 7336 7738 3449 10756 8654 4430 20613 3864 7544 4749 7329 8589
internal_value=2.11242e-06 -0.0218473 0.0268333 -0.0364448 -0.00842478 0.0154653 0.0401416 -0.028881 0.0346046 -0.0149856 0.022353 -0.0431688 -0.0233675 -0.00229373 -0.0119353 0.00985169 0.0382441 -0.0236207 0.0180625 -0.0356698 -0.0185692 0.012937 0.0349719 -0.0281977 -0.0446544 -0.042171 -0.0331233 -0.015256 0.0292059 0.0110167
internal_weight=92320.1 50883.9 41436.2 24375.1 26508.8 22347.1 19089.1 11471.2 9831.31 12805.5 10034.8 12903.9 6330.16 13703.2 9462.81 12312.3 7285.26 3342.73 6171.14 5141.03 3175.57 6176.6 4229.19 3154.59 11436.6 5857.32 3716.55 5022.96 3863.67 4814.9
internal_count=377358 207407 169951 101010 106397 90185 79766 46959 40662 51560 40755 54051 25745 54837 38024 49430 30270 13536 24956 21214 12856 24846 17498 12889 48015 24477 15282 20225 15799 19345
is_linear=0
shrinkage=0.03


Tree=10
num_leaves=31
num_cat=0
split_feature=0 0 0 0 1 0 0 0 2 2 2 2 0 0 0 2 2 0 2 2 0 0 0 0 2 4 2 2 2 2
split_gain=56927.7 9637.5 7610.56 1312.28 980.073 960.295 893.588 426.218 408.208 398.419 279.812 232.561 190.986 145.368 127.531 112.102 105.419 103.537 137.445 101.668 87.9428 85.7661 82.2294 80.0298 77.5992 76.2247 70.0646 67.6225 67.2418 64.1595
threshold=0.00025437066005141112 -0.0030966698757296141 0.0036003687246908994 -0.0012207900860808322 0.57500000000000007 0.001586814118851945 0.0072052120395800457 -0.0072671257781916172 0.0037084161862394297 0.0058895696633602815 0.0045831710625763985 0.0068331478530725973 -0.00040873449307416934 0.0021796680299341919 -0.006258098299492222 0.010425120171426249 0.0034530142260682972 0.012250483093144488 0.0069249455212998037 0.0093330578507272392 -0.0019333535097111759 0.00088933159686034439 0.0052973154885905451 -0.002169452700236068 0.0038564807068360296 0.12940952255126045 0.0089498129082650289 0.0025632813096337953 0.0032798970181418573 0.004071351382223292
decision_type=2 2 2 2 2 2 2 2 2 2 2 2 2 2 2 2 2 2 2 2 2 2 2 2 2 2 2 2 2 2
left_child=1 4 5 8 7 21 9 -1 20 22 13 24 16 -7 -6 -16 -5 18 -8 23 -3 -2 28 -10 -9 -11 -27 -15 -4 -23
right_child=2 3 6 12 14 10 17 11 19 25 -12 -13 -14 27 15 -17 -18 -19 -20 -21 -22 29 -24 -25 -26 26 -28 -29 -30 -31
leaf_value=-0.044822792203387744 0.0047987332448405666 -0.030691074898773266 0.040332965317661687 -0.012974522137840148 -0.032355711482485304 0.018109607018904197 0.044733558256464592 -0.041863564359097868 -0.019055905393901427 0.020481676719791012 0.014719345915875806 -0.02459751435426898 -0.001529666704293553 0.036724880510363322 -0.024551409766637319 -0.0094330193113439324 -0.0054821074920723325 0.046669186142780129 0.034589985972671232 -0.0043302680629214146 -0.021496441695784022 0.013145276047328703 0.040967159311671858 -0.01243439919620154 -0.03478242376996548 0.033682347109969195 0.017599847382704353 0.026023831202481539 0.030827218126864144 0.0068327676155000901
leaf_weight=9497.8996829539537 6121.7464118003845 1902.0523132681847 931.06063531339169 2637.1959048807621 1666.9119455367327 2144.3913319408894 3165.9495953321457 2492.5757014304399 2894.9485302269459 2351.1753089725971 5482.9013310074806 1494.1231133341789 8293.9983458220959 655.39395180344582 2856.6998262554407 522.08324037492275 4706.2889631986618 6114.574135735631 1938.2778597474098 858.12233865261078 1843.7025285512209 2809.3283318430185 2207.6942694336176 3798.0439410358667 3156.7730401009321 954.60955131053925 327.42088750004768 2810.841551810503 2386.2827427089214 2992.8962377905846
leaf_count=40356 24510 7827 3900 10594 6900 8698 13469 10452 11718 9588 22145 6127 33178 2707 11710 2109 18855 26149 8155 3443 7488 11307 9300 15282 13103 3937 1343 11498 9905 12010
internal_value=2.97301e-05 -0.0222626 0.0250072 -0.0102776 -0.0371474 0.0131862 0.0383599 -0.0406591 -0.0180685 0.0314067 0.019539 -0.035123 -0.00464933 0.024249 -0.0255653 -0.0222153 -0.00817279 0.044036 0.0408816 -0.014052 -0.0261654 0.00727575 0.0364808 -0.0152984 -0.0379067 0.0236904 0.029575 0.0280472 0.0334951 0.00988917
internal_weight=92016 48621.4 43394.5 26934.4 21687.1 23017.5 20377 16641.4 11296.9 9158.24 11093.5 7143.47 15637.5 5610.63 5045.7 3378.78 7343.48 11218.8 5104.23 7551.11 3745.75 11924 5525.04 6692.99 5649.35 3633.21 1282.03 3466.24 3317.34 5802.22
internal_count=377763 199142 178621 108385 90757 92875 85746 70038 45758 37973 45048 29682 62627 22903 20719 13819 29449 47773 21624 30443 15315 47827 23105 27000 23555 14868 5280 14205 13805 23317
is_linear=0
shrinkage=0.03


Tree=11
num_leaves=31
num_cat=0
split_feature=0 0 0 0 1 0 0 0 2 2 2 2 0 0 1 0 2 2 2 2 0 0 0 2 4 0 2 2 2 0
split_gain=53825.8 9226.51 7312.31 1240.33 951.535 909.505 874.761 419.356 388.491 384.943 269.764 224.782 179.857 131.616 126.128 102.098 134.338 99.3929 95.998 87.7895 81.2226 80.1646 75.824 75.7338 72.9468 71.2655 66.9783 66.4581 65.1145 65.0503
threshold=0.00025437066005141112 -0.0030966698757296141 0.0036003687246908994 -0.0012207900860808322 0.57500000000000007 0.0015405711779183727 0.0072052120395800457 -0.0072671257781916172 0.0037084161862394297 0.0058895696633602815 0.0041356885694858311 0.0068331478530725973 -0.00040873449307416934 0.0022376875937108911 0.75833333333333341 0.012250483093144488 0.0069249455212998037 0.0034530142260682972 0.0093330578507272392 0.0026503159201463474 -0.0060774699913450679 0.0052973154885905451 -0.002169452700236068 0.0037918600766575741 0.12940952255126045 0.00088933159686034439 0.0089498129082650289 0.010425120171426249 0.0032798970181418573 -0.0019909478022136261
decision_type=2 2 2 2 2 2 2 2 2 2 2 2 2 2 2 2 2 2 2 2 2 2 2 2 2 2 2 2 2 2
left_child=1 4 5 8 7 25 9 -1 19 21 13 23 17 -7 20 16 -8 -5 22 -3 -6 28 -10 -9 -11 -2 -26 -22 -4 -21
right_child=2 3 6 12 14 10 15 11 18 24 -12 -13 -14 -15 -16 -17 -18 -19 -20 29 27 -23 -24 -25 26 -27 -28 -29 -30 -31
leaf_value=-0.043979207028908972 0.0046554874694015964 -0.031735887994375676 0.039479343691562099 -0.012596222587226145 -0.034342779013545363 0.018687883495864172 0.043896210686972602 -0.041146677637406169 -0.018523436433417646 0.01992594335004624 0.014927100802655944 -0.023951853549597057 -0.0014837885134151344 0.028744641212756654 -0.01852535532750536 0.045841348886790131 0.033821639770336635 -0.0053188321309398821 -0.0042013738943531319 -0.027132985313432625 -0.026531714945664871 0.040126747496571795 -0.012073110031342434 -0.034086079122538526 0.032874270240097592 0.0093752993046439682 0.017121104787834344 -0.0087060894277768437 0.030087074742406766 -0.017292284994111617
leaf_weight=9391.2908517867327 6120.8200854957104 1311.1423052400351 922.78145851194859 2634.9405127316713 1274.1106653958559 2105.732483997941 3130.0934123545885 2366.3510940819979 2888.9126746356487 2344.3510097116232 6682.0256267935038 1488.453892454505 8293.9272120296955 2639.0496498197317 1792.5962470173836 6039.3810898214579 1923.0723583847284 4705.2537385970354 857.9184688180685 1181.2683751434088 1746.298861220479 2186.6326312273741 3794.4056259840727 3238.3254483789206 948.82010048627853 5436.5144741684198 326.49316228926182 210.97671067714691 2371.8549593538046 1238.317622050643
leaf_count=40356 24510 5403 3900 10594 5315 8570 13469 10020 11718 9588 27046 6127 33178 10887 7355 26149 8155 18855 3443 4877 7196 9300 15282 13535 3937 21862 1343 853 9905 5035
internal_value=2.90516e-05 -0.0216894 0.0243817 -0.0099801 -0.0363372 0.0128096 0.0375529 -0.0398208 -0.0175659 0.0306596 0.0188113 -0.034315 -0.00451085 0.0242815 -0.0249073 0.0432087 0.0400622 -0.00793123 -0.0136486 -0.0254843 -0.0284477 0.0356734 -0.0148613 -0.0370671 0.0230671 0.00687566 0.0288413 -0.0246103 0.0327177 -0.0220966
internal_weight=91592.1 48414.5 43177.6 26906.1 21508.4 22984.1 20193.5 16484.4 11272 9100.93 11426.8 7093.13 15634.1 4744.78 5023.98 11092.5 5053.17 7340.19 7541.24 3730.73 3231.39 5481.27 6683.32 5604.68 3619.66 11557.3 1275.31 1957.28 3294.64 2419.59
internal_count=377763 199142 178621 108385 90757 92875 85746 70038 45758 37973 46503 29682 62627 19457 20719 47773 21624 29449 30443 15315 13364 23105 27000 23555 14868 46372 5280 8049 13805 9912
is_linear=0
shrinkage=0.03


Tree=12
num_leaves=31
num_cat=0
split_feature=0 0 0 0 0 1 0 2 2 2 0 0 2 0 0 2 2 1 2 1 4 4 0 2 2 0 4 2 0 5
split_gain=50905.8 8848.36 7041.39 1334.66 1149.11 823.026 600.133 400.573 350.608 347.302 346.955 195.912 194.106 126.005 124.119 112.551 105.502 104.059 97.2756 88.7487 81.961 79.2099 72.8106 69.6383 67.976 67.7994 66.1401 65.4766 64.9355 58.8576
threshold=0.00025437066005141112 -0.0033458540272864727 0.0041867435590236491 -0.0013155761446759478 0.001848508081199494 0.57500000000000007 0.0086929197767422091 0.0038135885103506265 0.0045831710625763985 0.0058895696633602815 -0.0072671257781916172 -0.00047979973987127893 0.0066514583060141895 0.0028888687176269541 0.0010511225558016155 0.0034104265709288275 0.006972653596157472 0.74166666666666681 0.0026762635163142226 0.8583333333333335 0.12940952255126045 0.12940952255126045 0.0054399515591932795 0.0029104604613424952 0.0026503159201463474 -0.0019909478022136261 -0.60355339059327362 0.0039838083257120885 -0.0060774699913450679 -0.78656609248549325
decision_type=2 2 2 2 2 2 2 2 2 2 2 2 2 2 2 2 2 2 2 2 2 2 2 2 2 2 2 2 2 2
left_child=1 5 4 7 14 10 9 18 13 22 -1 15 27 23 -2 -5 19 28 -3 -9 -10 29 -4 -6 -16 -20 -13 -12 -7 -11
right_child=2 3 6 11 8 17 -8 16 20 21 12 26 -14 -15 24 -17 -18 -19 25 -21 -22 -23 -24 -25 -26 -27 -28 -29 -30 -31
leaf_value=-0.043182006856938022 0.0051076584689080107 -0.032239739413265175 0.033488386968399717 -0.013435080744432022 0.028559849295675233 -0.033934288458848369 0.043626378584365029 -0.017882022771414523 0.012586557851607762 0.014101523606865398 -0.040559621613832003 0.0025281719780087743 -0.024602326817032394 0.031227879522919364 0.018634186130760365 -0.0056216166640863704 -0.008436682847289061 -0.019354626099268617 -0.026575657878450863 -0.0072548944829076692 0.019863943519999202 0.031676511604395587 0.040735391944434179 0.018936471198087317 0.0095658132213125441 -0.016874724602997583 -0.0032654693698693548 -0.033670060958591395 -0.024611769239082173 0.025120450091607651
leaf_weight=9279.4185180515051 7586.1167324334383 1349.0488858819008 2131.3718126416206 2524.579458206892 1000.0979478508234 1184.8775791227818 8962.5832272619009 4513.4852054417133 3518.8482537269592 565.32598300278187 2380.5561198294163 2428.6811607033014 1483.4536402225494 2381.7326549440622 865.7546496540308 4840.6107687205076 2219.0639518648386 1797.5489101409912 1482.9988907426596 838.66627442836761 2305.3312808722258 1332.4080889523029 3009.5536095499992 2093.2640013545752 5287.4377199113369 1152.1336390972137 6572.6430444121361 2594.6429720371962 1554.8799762427807 1911.2836503088474
leaf_count=40356 30401 5612 9040 10171 4151 4980 39216 18329 14293 2332 10175 9717 6144 9948 3507 19409 8928 7409 6158 3394 9400 5582 12976 8573 21293 4696 26297 10940 6427 7909
internal_value=2.83883e-05 -0.021136 0.0237779 -0.0101825 0.013504 -0.0362205 0.0381391 -0.0179884 0.0205908 0.032644 -0.0394659 -0.00467128 -0.0341267 0.0260412 0.00767568 -0.00829985 -0.0139365 -0.0249635 -0.0256882 -0.0162168 0.0154671 0.0257784 0.0377309 0.0220478 0.0108417 -0.0223342 -0.00170227 -0.0369666 -0.0286435 0.0226052
internal_weight=91148.4 48197.3 42951.1 27921.9 25038.6 20275.4 17912.5 11555.4 11299.3 8949.94 15738.1 16366.5 6458.65 5475.09 13739.3 7365.19 7571.22 4537.31 3984.18 5352.15 5824.18 3809.02 5140.93 3093.36 6153.19 2635.13 9001.32 4975.2 2739.76 2476.61
internal_count=377763 199142 178621 112711 101566 86431 77055 47117 46365 37839 67615 65594 27259 22672 55201 29580 30651 18816 16466 21723 23693 15823 22016 12724 24800 10854 36014 21115 11407 10241
is_linear=0
shrinkage=0.03


Tree=13
num_leaves=31
num_cat=0
split_feature=0 0 0 0 0 1 0 2 2 0 2 2 0 2 0 0 1 2 4 0 0 4 2 4 2 2 2 0 5 2
split_gain=48155.3 8490.4 6787.23 1262.74 999.088 802.945 670.513 384.573 367.497 343.188 305.401 188.498 185.022 167.453 117.105 103.093 99.7131 97.4285 94.5947 93.8556 85.6072 70.3489 66.6629 65.4923 64.3004 64.1115 63.0146 62.7779 57.1591 54.4057
threshold=0.00025437066005141112 -0.0033458540272864727 0.0039795415668494134 -0.0013155761446759478 0.001848508081199494 0.57500000000000007 0.0086929197767422091 0.0030097702382104459 0.0056503872486258037 -0.0072671257781916172 0.0045831710625763985 0.0066514583060141895 -0.0002959845409373914 0.0051894106108061481 0.0010511225558016155 0.0028888687176269541 0.74166666666666681 0.0034104265709288275 0.12940952255126045 -0.0020470122680731812 0.0057386625136497229 0.12940952255126045 0.0029104604613424952 -0.5 0.0026503159201463474 0.0039838083257120885 0.0089498129082650289 -0.0049953988411520654 0.1294095225512602 0.0058186097131253727
decision_type=2 2 2 2 2 2 2 2 2 2 2 2 2 2 2 2 2 2 2 2 2 2 2 2 2 2 2 2 2 2
left_child=1 5 4 7 14 9 8 -3 20 -1 15 25 17 19 -2 22 27 -5 23 -9 -4 29 -6 -10 -16 -11 -20 -7 -26 -12
right_child=2 3 6 12 10 16 -8 13 18 11 21 -13 -14 -15 24 -17 -18 -19 26 -21 -22 -23 -24 -25 28 -27 -28 -29 -30 -31
leaf_value=-0.04242715849960374 0.0049555142208044557 -0.029446955260687486 0.033224251727182269 -0.011554009069539515 0.027861613597403381 -0.031744092115144014 0.042888726885499391 -0.02240083458136383 0.025057664653190023 -0.0397693303579627 0.017591110184407101 -0.023974141210854789 -0.000924902048055577 -0.010737821209974963 0.018114737054500403 0.030124717637996474 -0.018837355759902846 -0.0050799909684460737 0.034331270859609214 -0.014195642326577152 0.040932822045156671 0.018974707733707304 0.018423624633614265 0.015430180466288619 0.0065002628260457714 -0.032920255573751125 0.020171945246257355 -0.022482779969155146 0.012781238990792287 0.0093209005359316636
leaf_weight=9162.9411547482014 7584.4803882539272 2002.4730167090893 2793.526146158576 3224.4308535605669 994.49171581864357 1607.8865135014057 8845.0087216049433 2790.310817271471 1824.0862333923578 2355.4071198552847 1056.1201574057341 1476.7564089149237 7180.2936646789312 4451.8613620102406 863.89158552885056 2070.8635819107294 1791.5929829925299 5957.4066015332937 1179.4926507472992 2279.7377888262272 2419.67562289536 2143.1035070717335 2087.081315651536 976.2880344837904 2939.7911242097616 2574.43435575068 372.1242516040802 1115.8865660429001 2343.471101924777 2222.3452576696873
leaf_count=40356 30401 8377 11971 12986 4151 6782 39216 11494 7593 10175 4314 6144 28723 17996 3507 8685 7409 23885 4996 9250 10569 8747 8573 4043 11839 10940 1554 4625 9454 9008
internal_value=2.7745e-05 -0.020601 0.0231946 -0.00988999 0.012787 -0.0354726 0.0369349 -0.0174966 0.0314294 -0.0387028 0.0197183 -0.0333762 -0.0045324 -0.0149834 0.00744966 0.0249482 -0.0243342 -0.0073535 0.0249935 -0.0187114 0.0368021 0.014748 0.0214695 0.0217013 0.010527 -0.0361926 0.0309354 -0.0279499 0.00928629 0.0119851
internal_weight=90687.3 47971.4 42715.8 27886.5 24305.6 20084.9 18410.2 11524.4 9565.19 15569.5 10574 6406.6 16362.1 9521.91 13731.6 5152.44 4515.37 9181.84 4351.99 5070.05 5213.2 5421.57 3081.57 2800.37 6147.15 4929.84 1551.62 2723.77 5283.26 3278.47
internal_count=377763 199142 178621 112711 98679 86431 79942 47117 40726 67615 43478 27259 65594 38740 55201 21409 18816 36871 18186 20744 22540 22069 12724 11636 24800 21115 6550 11407 21293 13322
is_linear=0
shrinkage=0.03


Tree=14
num_leaves=31
num_cat=0
split_feature=0 0 0 0 0 1 0 2 0 2 2 2 0 2 0 0 2 1 4 0 2 0 2 4 0 2 2 2 4 2
split_gain=45563.2 8153.49 6552.13 1194.89 1033.71 784.567 584.518 367.702 340.064 330.408 321.247 183.317 176.133 158.964 116.569 111.425 101.08 96.4075 94.6173 89.6464 75.9239 74.6284 86.0815 73.7245 68.1303 63.9156 62.9019 62.8728 62.1276 54.6794
threshold=0.00025437066005141112 -0.0033458540272864727 0.0041867435590236491 -0.0013155761446759478 0.001848508081199494 0.57500000000000007 0.0086929197767422091 0.0030097702382104459 -0.0072671257781916172 0.0055220496158080905 0.0045831710625763985 0.0066514583060141895 -0.00047979973987127893 0.0051894106108061481 0.0028888687176269541 0.00088933159686034439 0.0034104265709288275 0.79166666666666685 0.12940952255126045 -0.002106606623713792 0.004071351382223292 -0.006445030657403354 0.010425120171426249 0.12940952255126045 0.0057386625136497229 0.0030097702382104459 0.0039838083257120885 0.0089498129082650289 -0.60355339059327362 0.0092315974484153077
decision_type=2 2 2 2 2 2 2 2 2 2 2 2 2 2 2 2 2 2 2 2 2 2 2 2 2 2 2 2 2 2
left_child=1 5 4 7 15 8 9 -3 29 24 14 26 16 19 25 -2 -5 21 -11 -9 -17 -7 -23 -12 -4 -6 -10 -20 -14 -1
right_child=2 3 6 12 10 17 -8 13 11 18 23 -13 28 -15 -16 20 -18 -19 27 -21 -22 22 -24 -25 -26 -27 -28 -29 -30 -31
leaf_value=-0.04321522731472844 0.0042162997943946852 -0.02874599928807331 0.033128479202665262 -0.012714105474034546 0.026655285606226903 -0.032198844263926031 0.042189826100902127 -0.02207004432933975 -0.039015515878829954 0.021781901151314634 0.01186544180121351 -0.023365867499353474 0.0025169173412832105 -0.010427018987963407 0.029787711699984652 0.012805378937302811 -0.0053034950054781102 -0.016388499740676406 0.034466471905048625 -0.014075960503084137 0.0068033264189874933 -0.025183894797762889 -0.0066560542745261646 0.01878406784056897 0.040434289322692434 0.017647678939837968 -0.032198294891846134 0.019953292480113741 -0.0030983480152608493 -0.038092940845659527
leaf_weight=6387.1264350712299 6117.5409917980433 1989.9536829292774 2288.1440022140741 2519.0406476557255 1111.3979845046997 1233.8251163512468 8723.622688472271 2610.1364686787128 2329.2840748429298 2689.9478991776705 3507.2285306155682 1469.8495083004236 2428.6276052296162 4447.0958422422409 2349.7637387812138 3613.4966642260551 4838.016394302249 1186.3766177743673 1173.0503620356321 2445.3152335435152 3992.5912383645773 1814.8238787949085 257.73631423711777 2292.0533808767796 2307.148622199893 1958.0176552832127 2553.5123718380928 348.44487233459949 6572.0445486158133 2655.3411011993885
leaf_count=28538 24510 8377 9907 10171 4660 5255 39216 10800 10175 11247 14293 6144 9717 17996 9948 14623 19409 4914 5020 9944 16068 7595 1052 9400 10203 8064 10940 1462 26297 11818
internal_value=2.71328e-05 -0.0200833 0.0226308 -0.00960619 0.0127524 -0.034755 0.0366858 -0.0170197 -0.0379739 0.0312336 0.0195073 -0.0326543 -0.00439765 -0.0145641 0.0247589 0.00723048 -0.00784087 -0.0237249 0.0251638 -0.0182033 0.00965478 -0.0263574 -0.0228798 0.0145999 0.0367965 0.0209092 -0.0354504 0.0311427 -0.0015832 -0.0417111
internal_weight=90210.6 47738.1 42472.4 27850.2 24942.1 19887.9 17530.4 11492.5 15395.1 8806.74 11218.5 6352.65 16357.7 9502.55 5419.18 13723.6 7357.06 4492.76 4211.44 5055.45 7606.09 3306.39 2072.56 5799.28 4595.29 3069.42 4882.8 1521.5 9000.67 9042.47
internal_count=377763 199142 178621 112711 101566 86431 77055 47117 67615 37839 46365 27259 65594 38740 22672 55201 29580 18816 17729 20744 30691 13902 8647 23693 20110 12724 21115 6482 36014 40356
is_linear=0
shrinkage=0.03


Tree=15
num_leaves=31
num_cat=0
split_feature=0 0 0 0 0 0 0 2 2 2 2 1 0 2 0 2 4 2 0 2 0 2 0 2 2 5 2 1 0 0
split_gain=43123.4 8428.63 5833.14 1061.86 966.573 854.601 508.061 351.602 328.188 316.574 292.823 210.485 190.856 138.799 115.885 95.6193 91.4618 88.4421 86.5739 85.91 82.9767 80.1145 79.1477 74.9613 71.77 70.2016 65.3569 63.5064 63.2779 59.6967
threshold=0.00039607297755261391 -0.0030966698757296141 0.0044029568983066673 -0.0012207900860808322 0.0020675812792649603 -0.006258098299492222 0.0086929197767422091 0.0062862149370884165 0.0037918600766575741 0.0058895696633602815 0.0045123276184041135 0.39166666666666672 -0.0002959845409373914 0.0035802246402189286 0.0010095035151647632 0.0026214174256287029 0.12940952255126045 0.0052794086134376672 0.0030310747723380307 0.009137875263892736 -0.013764068669803521 0.0026503159201463474 -0.0043645288110455973 0.0058532384916159816 0.0044461871868112469 0.1294095225512602 0.010575619077605495 0.45833333333333337 0.0062247818510927739 -0.004479650275039577
decision_type=2 2 2 2 2 2 2 2 2 2 2 2 2 2 2 2 2 2 2 2 2 2 2 2 2 2 2 2 2 2
left_child=1 5 4 8 14 11 9 13 21 -4 18 -1 24 -7 -2 -16 23 -10 -6 -13 -21 -3 -15 -12 27 -17 29 -5 -11 -9
right_child=2 3 6 12 10 7 -8 26 17 28 16 19 -14 22 15 25 -18 -19 -20 20 -22 -23 -24 -25 -26 -27 -28 -29 -30 -31
leaf_value=-0.041481148464164015 0.0048522154925644571 -0.02872340022748 0.036227021506656153 -0.015433552233610886 0.021935968067359771 -0.037533659867551611 0.041504797135019013 -0.025664803373856581 -0.015498032759788153 0.020243240438827668 0.018716305669831543 -0.037303585743649441 -0.00047858036185467571 -0.032085792085206816 0.018866274610846886 0.0064207104638678144 0.020286034375907275 -0.0088252962468012459 0.030062007094593873 -0.036728559551449498 -0.023097337228349793 -0.019560476606346817 -0.023540767143776033 0.0093498508008154034 -0.0035855499509378345 0.012519644654462616 -0.010660705793926483 -0.0073181230020748058 0.028313348475277025 -0.016192412076693623
leaf_weight=8236.9866497218609 5780.0282401144505 1281.6316428780556 4545.5907054692507 1129.4525614827871 2545.9532918781042 1914.8722230195999 8565.4530787318945 1181.0989570915699 3205.3974879086018 1773.6292565613985 1163.3188706934452 1831.5296349078417 8577.8444197922945 1889.4878875166178 1050.9595922380686 3795.9993754029274 2270.4911086261272 4041.9515270441771 2199.262176066637 627.7680290043354 1117.1045265942812 2602.9586344212294 2016.9105046391487 2268.7457958906889 3539.0118020027876 3074.1043711155653 739.6702528744936 3746.6015351861715 1724.8567340821028 1214.5225265622139
leaf_count=37266 23181 5407 20118 4547 10637 8431 39063 4961 13082 7425 4802 8082 34321 8159 4303 15344 9376 16344 9420 2776 4779 10815 8509 9247 14187 12458 3026 15075 7350 5010
internal_value=-5.31213e-05 -0.0190495 0.0227355 -0.00834567 0.0133232 -0.0335438 0.0364201 -0.026555 -0.0155478 0.0310059 0.0201964 -0.0388425 -0.00362763 -0.0309172 0.00808208 0.0104389 0.0156149 -0.0117766 0.0257021 -0.0327653 -0.0280016 -0.0225836 -0.0276739 0.0125247 -0.0068376 0.00914975 -0.0184557 -0.00919792 0.024222 -0.0208625
internal_weight=89653.2 48894.8 40758.4 28124.8 24148.9 20770 16609.5 8956.56 11131.9 8044.08 10447.8 11813.4 16992.9 5821.27 13701.1 7921.06 5702.56 7247.35 4745.22 3576.4 1744.87 3884.59 3906.4 3432.06 8415.07 6870.1 3135.29 4876.05 3498.49 2395.62
internal_count=377501 204777 172724 113778 98768 90999 73956 38096 45648 34893 43482 52903 68130 25099 55286 32105 23425 29426 20057 15637 7555 16222 16668 14049 33809 27802 12997 19622 14775 9971
is_linear=0
shrinkage=0.03


Tree=16
num_leaves=31
num_cat=0
split_feature=0 0 0 0 0 1 0 2 2 2 0 0 0 2 2 0 2 2 0 2 0 2 2 4 5 4 0 0 2 4
split_gain=40824.1 8482.62 5289.64 1103.55 887.912 840.315 432.721 336.712 319.15 288.844 265.774 207.668 171.634 128.899 107.389 102.605 97.2871 95.3184 93.3337 87.01 84.6676 83.1652 81.5139 81.197 77.2559 74.9429 70.5117 64.7756 108.842 64.2769
threshold=0.0005076809975422613 -0.0030966698757296141 0.0046439531068545722 -0.00074890775744638745 0.0021248522773014331 0.44166666666666671 0.0086929197767422091 0.0038135885103506265 0.0045123276184041135 0.005489268756074867 -0.0054134248032597625 -0.006258098299492222 -0.0016623886045302294 0.010575619077605495 0.0026503159201463474 -0.0015624658963468412 0.0073737237398779692 0.0043554003576817806 0.0030310747723380307 0.0056195581603644676 -0.00011185423430665007 0.0036655296869075732 0.009137875263892736 -0.9159756150367534 0.1294095225512602 0.25881904510252091 -0.010867651381184302 -0.012424669145530349 0.0086124440420225785 0.12940952255126045
decision_type=2 2 2 2 2 2 2 2 2 2 2 2 2 2 2 2 2 2 2 2 2 2 2 2 2 2 2 2 2 2
left_child=1 5 4 7 14 10 9 12 18 -4 27 22 -3 21 23 19 -10 -12 -6 -9 -5 -13 -7 -2 -16 -25 -24 -1 -29 -11
right_child=2 3 6 20 8 11 -8 15 16 29 17 13 -14 -15 24 -17 -18 -19 -20 -21 -22 -23 26 25 -26 -27 -28 28 -30 -31
leaf_value=-0.042580081658468334 0.033151332299668247 -0.024754955234653441 0.036830462165212102 -0.0042855936311919241 0.021656666223649292 -0.03652098827753255 0.040874117529942904 -0.016187853138040619 0.01830004860295498 0.021907785545113113 -0.035085646363542299 -0.033846836640412499 -0.014264070641829763 -0.0080437421264249222 0.0051125229415947332 -0.0061161614666906455 0.010202731155851933 -0.024688266785488262 0.030013148471381305 -0.0087427661275348203 0.00040285240049170386 -0.021395227688863282 -0.03300782035834162 0.0050195062956749394 0.010163294782628058 0.017873439911476292 -0.020002840757230991 -0.039448908545664484 -0.026621125921799712 0.030262960912877512
leaf_weight=4694.1707527637482 199.8640888184309 2627.2682412564754 3662.109516993165 6215.663209810853 2357.4461522698402 1416.1966820508242 8438.6084274053574 2828.2256845235825 3890.6838227808475 2331.0632815659046 1638.8898785710335 556.50845740735531 3013.2698256969452 587.62285235524178 6089.0650511682034 3845.2286114245653 2033.312427714467 1538.4623180627823 2456.2310012876987 2822.867111608386 7837.9537418931723 3643.0353500396013 748.32176353037357 661.31443363428116 4934.2313092947006 1066.6878987103701 752.56497597694397 4288.4854343384504 691.25826226174831 1285.7570258080959
leaf_count=21715 814 11103 16454 24919 9901 6286 39063 11598 16150 9869 7249 2442 12302 2403 24568 15461 8313 6514 10635 11429 31368 15369 3298 2691 19951 4342 3214 19455 3054 5571
internal_value=-5.17793e-05 -0.0181201 0.0227574 -0.00772445 0.0138043 -0.0328827 0.036251 -0.0133449 0.020183 0.0308914 -0.0375792 -0.0250487 -0.0191505 -0.0212038 0.00851577 -0.00989653 0.0155208 -0.0300513 0.0259207 -0.0124688 -0.00167076 -0.0230453 -0.0313583 0.015048 0.00737334 0.0129542 -0.0264869 -0.0400517 -0.0376682 0.024878
internal_weight=89152.4 49746 39406.4 29190.5 23688.8 20555.5 15717.5 15136.9 10737.7 7278.93 12851.3 7704.25 5640.54 4787.17 12951.2 9496.32 5924 3177.35 4813.68 5651.09 14053.6 4199.54 2917.08 1927.87 11023.3 1728 1500.89 9673.91 4979.74 3616.82
internal_count=377501 209179 168322 118180 97365 90999 70957 61893 44999 31894 57987 33012 23405 20214 52366 38488 24463 13763 20536 23027 56287 17811 12798 7847 44519 7033 6512 44224 22509 15440
is_linear=0
shrinkage=0.03


Tree=17
num_leaves=31
num_cat=0
split_feature=0 0 0 0 0 0 0 2 2 2 2 1 0 2 2 0 0 2 2 4 0 0 0 4 4 5 2 4 2 2
split_gain=38650 8149.62 5126.51 1042.42 845.545 828.427 430.708 333.628 320.087 308.048 283.289 208.322 164.456 133.189 100.891 99.7692 99.445 93.4944 81.9239 80.3286 79.3254 79.1507 76.5036 73.9689 73.0354 68.7865 64.7529 62.179 59.0368 58.733
threshold=0.0005076809975422613 -0.0030966698757296141 0.0046439531068545722 -0.00074890775744638745 0.0020675812792649603 -0.006258098299492222 0.0086929197767422091 0.0062862149370884165 0.0038135885103506265 0.0045123276184041135 0.005489268756074867 0.39166666666666672 -0.0016623886045302294 0.0035802246402189286 0.0026503159201463474 0.0030310747723380307 -0.0022294501408672055 0.0073737237398779692 0.0090431608679265463 -0.60355339059327362 -0.00011185423430665007 -0.013764068669803521 -0.0043645288110455973 -0.9159756150367534 0.25881904510252091 0.1294095225512602 0.0094328347784339971 0.12940952255126045 0.0019792933048998411 0.010575619077605495
decision_type=2 2 2 2 2 2 2 2 2 2 2 2 2 2 2 2 2 2 2 2 2 2 2 2 2 2 2 2 2 2
left_child=1 5 4 8 14 11 10 13 12 15 -4 -1 -3 -7 23 -6 26 -11 -13 28 -21 -20 -15 -2 -25 -16 -10 -12 -5 -9
right_child=2 3 6 19 9 7 -8 29 16 17 27 18 -14 22 25 -17 -18 -19 21 20 -22 -23 -24 24 -26 -27 -28 -29 -30 -31
leaf_value=-0.040222747139776582 0.032049273751897867 -0.024153645308121637 0.036180602972121778 0.016894234670182806 0.020850773624234979 -0.036200370963822864 0.040273492449713642 -0.019724488499760464 -0.015916120707596664 0.017643224787441899 0.021362175048320137 -0.036024709352294661 -0.013863869653570074 -0.030824649047170458 0.0048145933073621737 0.029363154524250572 -0.007568132027432401 0.0098102704264040729 -0.035480919803461582 -0.0059520862975935285 -0.00064740124262881009 -0.022127426392016817 -0.022362820745330084 0.0045604390758412095 0.017398815875631562 0.009652688696684732 -0.002354792996321642 0.029610027789115551 0.0011720422114888153 -0.010030218394578598
leaf_weight=7998.8342173695564 194.09054876863956 2612.1255173683167 3616.7387234270573 228.85440543293953 2522.6796719878912 1870.9584116786718 8309.4811461567879 2373.8206136673689 2547.7179359346628 4004.3839213699102 2319.0662062168121 1757.7087200880051 3007.3355060368776 1857.3136805891991 5911.0499764680862 2435.5991866439581 6575.1315345913172 2085.793497428298 618.20719982683659 4548.8384385555983 5736.7017357051373 1129.1753658950329 1993.9466864168644 645.34433081746101 1043.8852351903915 4786.4673326164484 361.89339345693588 1274.8520991951227 3538.0864279717207 737.12063020467758
leaf_count=37266 793 11103 16454 917 10637 8431 39063 9971 10466 16671 9869 7944 12302 8159 23848 10635 26562 8538 2798 18242 22959 4895 8509 2625 4255 19363 1460 5571 14169 3026
internal_value=-5.04834e-05 -0.0176686 0.0222229 -0.00750171 0.0134247 -0.0322447 0.035618 -0.0253348 -0.0129731 0.0194805 0.0302531 -0.0375503 -0.0186469 -0.0296337 0.00810657 0.0250322 -0.00961159 0.0149606 -0.0314517 -0.00162078 -0.00299343 -0.0268518 -0.0264436 0.0145094 0.0124941 0.00697934 -0.0142294 0.0242879 0.00212722 -0.0174275
internal_weight=88643.2 49493.8 39149.4 29156.7 23629.3 20337.1 15520.1 8833.16 15104.2 11048.5 7210.66 11503.9 5619.46 5722.22 12580.8 4958.28 9484.74 6090.18 3505.09 14052.5 10285.5 1747.38 3851.26 1883.32 1689.23 10697.5 2909.61 3593.92 3766.94 3110.94
internal_count=377501 209179 168322 118180 97365 90999 70957 38096 61893 46481 31894 52903 23405 25099 50884 21272 38488 25209 15637 56287 41201 7693 16668 7673 6880 43211 11926 15440 15086 12997
is_linear=0
shrinkage=0.03


Tree=18
num_leaves=31
num_cat=0
split_feature=0 0 0 0 0 1 0 2 2 2 0 2 0 1 2 0 0 2 2 1 0 2 2 0 0 0 2 0 0 0
split_gain=36596.9 7491.67 5294.38 1167.91 829.694 644.58 497.715 363.46 299.388 261.475 187.769 159.654 159.164 142.698 140.955 121.625 106.651 93.4258 82.9225 71.9943 70.3731 69.2574 68.4476 60.6226 59.4604 58.0348 54.7295 52.269 52.1429 50.5974
threshold=0.00039607297755261391 -0.0036209922166843341 0.0044029568983066673 -0.0012207900860808322 0.0020675812792649603 0.45833333333333337 0.0086929197767422091 0.0051894106108061481 0.0059238798484368372 0.0041590765914214277 -0.0089150910765088357 0.0026503159201463474 -0.00037093273120612883 0.69166666666666676 0.0066957530326645061 -0.0022975880169107846 0.0010095035151647632 0.0073737237398779692 0.0035172627500666648 0.44166666666666671 -0.006258098299492222 0.0066514583060141895 0.0025632813096337953 0.0057386625136497229 0.0062247818510927739 0.0029622364880849158 0.0049725409870931886 -0.0054134248032597625 0.0030310747723380307 0.013429422097139633
decision_type=2 2 2 2 2 2 2 2 2 2 2 2 2 2 2 2 2 2 2 2 2 2 2 2 2 2 2 2 2 2
left_child=1 5 4 7 16 10 8 11 23 22 -1 -3 19 20 27 -13 -2 25 -18 26 -7 -22 -6 -4 -10 -11 -5 -12 -24 -8
right_child=2 3 6 12 9 13 29 -9 24 17 14 15 -14 -15 -16 -17 18 -19 -20 -21 21 -23 28 -25 -26 -27 -28 -29 -30 -31
leaf_value=-0.04041098998426787 0.0042994021759840493 -0.028329458396925945 0.030395438262467971 -0.015801035762407711 0.03218718124963503 -0.032455372186058408 0.036870568118355311 -0.0089706459451429667 0.018520638130479165 0.013616540348483738 -0.038465947657924375 -0.021906336821967517 -0.00066591305497839984 -0.018715928408133738 -0.02402997471902605 -0.013660122287331921 0.013984923087854505 0.0094248669397313783 0.0074764047110372428 -0.0050187598807806813 -0.028551637466763837 -0.016774719420854522 0.019041242899016202 0.037451708532637983 0.02645360649628831 0.020491310520399233 -0.0035444623168527627 -0.031871665372440447 0.026900678994416283 0.041668053092310219
leaf_weight=6457.3294003307819 5773.8231418728828 1424.4695662409067 1999.3437934964895 1117.4715448319912 869.26645317673683 1906.6562743484974 3354.051417902112 5097.367704808712 1727.2130222320557 2052.7752605825663 2369.2575491964817 2849.2487626373768 9324.1497104018927 2153.4935687929392 1250.6452264785767 3700.306134313345 2653.936975762248 1937.9898414462805 5240.8055863529444 6073.7706111222506 1262.9136470854282 697.6877995878458 1655.645585283637 2424.7111617773771 1674.9961580634117 2393.9311490952969 464.04998324811459 1990.8361988961697 1403.9515172690153 4824.4456658363342
leaf_count=30689 23181 6160 9021 4511 3801 8598 15934 20768 7338 8485 11001 12140 37310 9173 5491 15241 10887 7931 21218 24447 5545 2933 6999 11251 7283 10098 1862 8908 6168 23129
internal_value=-4.92171e-05 -0.0176689 0.0211628 -0.00848689 0.0122452 -0.0329228 0.0345254 -0.0152275 0.0291172 0.018669 -0.0369228 -0.0192271 -0.00329775 -0.0249051 -0.0329083 -0.0172475 0.0073981 0.0149219 0.00966434 -0.00650332 -0.0283516 -0.0243608 0.0247583 0.0342628 0.0224262 0.0173176 -0.0122047 -0.035455 0.0226477 0.0397006
internal_weight=88126.5 48139.7 39986.9 30050.8 23982.1 18088.8 16004.8 13071.4 7826.26 10313.6 12068.1 7974.02 16979.4 6020.75 5610.74 6549.55 13668.6 6384.7 7894.74 7655.29 3867.26 1960.6 3928.86 4424.05 3402.21 4446.71 1581.52 4360.09 3059.6 8178.5
internal_count=377501 204777 172724 122439 98768 82338 73956 54309 34893 43482 56089 33541 68130 26249 25400 27381 55286 26514 32105 30820 17076 8478 16968 20272 14621 18583 6373 19909 13167 39063
is_linear=0
shrinkage=0.03


Tree=19
num_leaves=31
num_cat=0
split_feature=0 0 0 0 0 1 0 2 2 2 0 0 0 2 2 2 2 2 2 2 2 0 0 0 0 0 0 2 2 2
split_gain=34663.1 7541.58 4823.89 1013.15 768.248 760.421 427.652 306.911 282.823 274.471 221.817 177.336 174.305 116.485 108.441 95.5522 83.9578 83.2679 82.8336 78.5227 77.3622 70.8026 68.8609 68.2952 66.608 65.9971 63.1447 106.553 62.8577 62.118
threshold=0.0005076809975422613 -0.0032603073448200649 0.0046439531068545722 -0.0012207900860808322 0.0021796680299341919 0.44166666666666671 0.0086929197767422091 0.0033026405423848084 0.0045123276184041135 0.005489268756074867 -0.0055729798309560458 -0.006258098299492222 -0.0002959845409373914 0.010425120171426249 0.0069249455212998037 0.004071351382223292 0.0025632813096337953 0.0043554003576817806 0.0073737237398779692 0.0094328347784339971 0.0036655296869075732 0.0030310747723380307 -0.0020470122680731812 0.001355187548794439 -0.0019333535097111759 -0.010867651381184302 -0.012424669145530349 0.0086961311511360179 0.0044461871868112469 0.0075889587953331351
decision_type=2 2 2 2 2 2 2 2 2 2 2 2 2 2 2 2 2 2 2 2 2 2 2 2 2 2 2 2 2 2
left_child=1 5 4 7 15 10 9 24 16 -4 26 19 28 20 22 23 -6 -12 -10 -7 -13 -18 -9 -2 -3 -21 -1 -28 -5 -11
right_child=2 3 6 12 8 11 -8 14 18 29 17 13 -14 -15 -16 -17 21 -19 -20 25 -22 -23 -24 -25 -26 -27 27 -29 -30 -31
leaf_value=-0.040912310836984024 0.0080587918306063832 -0.027486045416681138 0.034969569743458453 -0.0082672807795139656 0.033052991256543852 -0.034402924944074278 0.039153747645174382 -0.016375649122561006 0.01704943731988939 0.027279196621314825 -0.033888326235245028 -0.033255184169881748 -0.00014705107403908361 -0.0073280816675455884 -0.0058276768126529635 0.0055029906877807058 0.018099927689494415 -0.023933036589681832 0.0094437569386309379 -0.030874664731322461 -0.020152742702447355 0.026407920331542722 -0.010274255641843965 0.014422647428543482 -0.018158473442661412 -0.017796211577664922 -0.037721800203711603 -0.024425310163352202 -0.0030102984845390415 0.019332282897342155
leaf_weight=4472.1741836816072 3799.3375957012177 1424.2003495693207 3524.978549093008 4862.414518982172 834.6046157181263 1443.7877515256405 8045.9539992511272 3466.0831463336945 3730.1407421827316 1703.2085835188627 1537.9494552314281 463.32207337021828 9675.7179575711489 579.76988393068314 2249.1997509002686 6937.2105874866247 1734.6951453834772 1487.521977186203 1969.0785289853811 702.75041960179806 3253.7782147675753 1973.5158452093601 3203.3911154121161 2527.3029788583517 1334.7778813838959 686.4805528819561 3972.8233277052641 628.18847638368607 3535.4543452113867 1843.3008462935686
leaf_count=21715 15343 6230 16454 19622 3700 6627 39063 14459 15660 7532 7043 2100 38723 2386 9099 28040 7356 6435 8089 3191 13977 8742 13077 10435 5624 2980 18837 2867 14187 7908
internal_value=-4.79723e-05 -0.0168056 0.021203 -0.00734178 0.0127005 -0.0314483 0.0344234 -0.0142291 0.0188725 0.0290412 -0.0360281 -0.0236769 -0.00289176 -0.0198351 -0.0115241 0.00793464 0.0244563 -0.0289936 0.0144217 -0.0295037 -0.0217859 0.0225215 -0.0134451 0.010601 -0.0229734 -0.024412 -0.0383738 -0.0359064 -0.00605412 0.0231488
internal_weight=87603.1 48979.8 38623.3 29751.2 23505.9 19228.5 15117.4 11677.7 10242 7071.49 12098.7 7129.89 18073.6 4296.87 8918.67 13263.9 4542.82 3025.47 5699.22 2833.02 3717.1 3708.21 6669.47 6326.64 2758.98 1389.23 9073.19 4601.01 8397.87 3546.51
internal_count=377501 209179 168322 121021 97365 88158 70957 48489 43547 31894 56897 31261 72532 18463 36635 53818 19798 13478 23749 12798 16077 16098 27536 25778 11854 6171 43419 21704 33809 15440
is_linear=0
shrinkage=0.03


Tree=20
num_leaves=31
num_cat=0
split_feature=0 0 0 0 0 0 1 2 2 0 2 1 2 2 0 2 2 0 2 1 5 2 0 0 2 0 2 4 0 2
split_gain=32714.5 6660.93 5212.99 942.516 704.454 689.595 552.957 329.616 302.302 225.757 193.009 168.853 161.757 136.515 118.656 91.1562 88.4619 83.6501 80.8875 76.4043 74.0391 70.8692 71.6757 69.4383 63.8362 56.8708 56.2987 56.0797 55.9538 52.6071
threshold=-3.7975876110377667e-05 0.0032584938684116246 -0.0039171499370391017 0.0062247818510927739 -0.0015624658963468412 0.0015405711779183727 0.59166666666666667 0.003366609635062559 0.0045591992668063235 -0.0096297713948499068 0.0068331478530725973 0.39166666666666672 0.0029846509996031344 0.0069249455212998037 0.00058545654952148142 0.0076479881641315925 0.0030097702382104459 -0.00066910979048285049 0.0073737237398779692 0.70833333333333337 0.1294095225512602 0.010425120171426249 -0.01134266916834722 0.012250483093144488 0.0026503159201463474 -0.0077602098423569564 0.0025924015815209111 0.12940952255126045 -0.002169452700236068 0.0031708954079844955
decision_type=2 2 2 2 2 2 2 2 2 2 2 2 2 2 2 2 2 2 2 2 2 2 2 2 2 2 2 2 2 2
left_child=2 5 6 8 7 14 9 26 29 -1 -11 -5 -7 19 -2 27 17 -6 20 28 -14 25 -23 -13 -16 -8 -4 -10 -9 -3
right_child=1 3 4 11 16 12 21 13 15 10 -12 23 18 -15 24 -17 -18 -19 -20 -21 -22 22 -24 -25 -26 -27 -28 -29 -30 -31
leaf_value=-0.039092915698856319 0.0011244693651603478 0.035038321817405592 -0.030987138229126136 0.038785487255182716 -0.014881509485333415 0.022154451786762293 -0.034941822437821152 -0.020243946484988118 0.017788726243274777 -0.034258055287294226 -0.022980204631350105 0.028261114789493082 0.01063912921509233 -0.0073065558510360092 0.012417937879829123 0.012840514122720564 -0.0045474524605888262 -0.0055205567083228789 0.0060124945030909814 -0.011137789153875885 0.017109612930371453 -0.026995479954784025 -0.0097349918154775398 0.038205095762460214 0.0051441230840179094 -0.021997755546722324 -0.021909953366756059 0.025716422000530561 -0.012611418588412715 0.027196552097256209
leaf_weight=6328.6537783890963 7836.6486074924469 1234.5945590436459 1031.2871957719326 7979.1315059661865 1688.6142465025187 1745.6661401987076 368.98074527084827 2972.3015037029982 1774.1597507447004 5176.7710310220718 1855.1691991835833 2510.6021226644516 3507.5512508898973 2442.4999565780163 1288.1966594159603 1724.838694870472 10104.116164773703 1749.0486484616995 1587.5164139568806 2217.074401050806 2913.7104028463364 304.54727824032307 749.1529266089201 844.62765455245972 6914.3722762167454 1775.2158118486404 1523.2483840733767 1467.1948115676641 1218.9511848688126 2045.7624394595623
leaf_count=31001 31375 5694 4598 38999 6955 7500 1673 12641 7674 24233 8290 11636 14564 9959 5237 7248 40671 7022 6455 9213 12133 1363 3160 4170 27898 7743 6669 6472 5014 9325
internal_value=-2.21189e-06 0.0176045 -0.0192501 0.0307969 -0.0105883 0.0075897 -0.0323002 -0.0160814 0.0230805 -0.0349823 -0.0312827 0.0364111 0.0138797 -0.0133415 0.00376435 0.0184123 -0.00596176 -0.0101187 0.0120761 -0.0156417 0.0135752 -0.0210945 -0.0147237 0.0307644 0.00628646 -0.0242252 -0.0255745 0.0213772 -0.0180242 0.0301479
internal_weight=86880.2 45374.6 41505.6 19580.9 24947.1 25793.7 16558.5 11405.4 8246.55 13360.6 7031.94 11334.4 9754.44 8850.83 16039.2 4966.19 13541.8 3437.66 8008.78 6408.33 6421.26 3197.9 1053.7 3355.23 8202.57 2144.2 2554.54 3241.35 4191.25 3280.36
internal_count=376585 196380 180205 91218 102742 105162 77463 48094 36413 63524 32523 54805 40652 36827 64510 21394 54648 13977 33152 26868 26697 13939 4523 15806 33135 9416 11267 14146 17655 15019
is_linear=0
shrinkage=0.03


Tree=21
num_leaves=31
num_cat=0
split_feature=0 0 0 0 0 0 1 2 2 0 2 2 2 0 4 1 2 2 0 2 0 2 0 1 0 2 5 4 0 2
split_gain=30979.3 6422.69 5042.45 808.515 767.445 669.264 544.279 316.314 308.467 226.27 189.43 176.368 112.375 111.977 104.948 88.3114 88.1062 87.4122 84.5642 82.174 76.2875 68.0192 68.7222 61.3867 61.2564 58.6976 58.2122 58.405 55.4362 54.4597
threshold=-3.7975876110377667e-05 0.0036003687246908994 -0.0039171499370391017 0.0015405711779183727 0.007889878043560351 -0.0015078319450383475 0.59166666666666667 0.0038564807068360296 0.0045591992668063235 -0.0096297713948499068 0.0068331478530725973 0.0030097702382104459 0.0093330578507272392 0.00054662949359877749 0.12940952255126045 0.39166666666666672 0.0072160866854068017 0.0025924015815209111 0.0026750966726532851 0.0030097702382104459 -0.00066910979048285049 0.010425120171426249 -0.01134266916834722 0.42500000000000004 0.0052973154885905451 0.0026503159201463474 -0.78656609248549325 -0.25881904510252113 -0.0080237506857130155 0.0089498129082650289
decision_type=2 2 2 2 2 2 2 2 2 2 2 2 2 2 2 2 2 2 2 2 2 2 2 2 2 2 2 2 2 2
left_child=2 3 6 13 8 7 9 17 24 -1 -11 -5 23 -2 26 -6 18 -4 -13 20 -7 28 -23 -9 -3 -15 27 -10 -8 -16
right_child=1 4 5 11 15 19 21 12 14 10 -12 16 -14 25 29 -17 -18 -19 -20 -21 -22 22 -24 -25 -26 -27 -28 -29 -30 -31
leaf_value=-0.038581116939887403 0.00096852653963111935 0.028730587503701534 -0.029840910997510534 0.022331450616436713 0.039229364188839107 -0.014415411123613883 -0.035066359799404381 -0.018238027089455242 0.00047908491415179979 -0.033678855059167449 -0.022456459917804216 0.011491092707261367 -0.00288824511868021 0.011736394338155319 0.027913326112138204 0.032176517743374856 0.0068078685227823546 -0.019743403240801378 0.018259490130019783 -0.0042485312766252373 -0.005356448731502584 -0.026423901605123677 -0.0094637375908333647 -0.011772963028571639 0.036789990127794166 0.0049199602623310789 0.019852769460743998 0.016795679940538658 -0.021617089938434874 0.015140423524053542
leaf_weight=6221.8465496301651 7470.6959662586451 1963.1261893510818 1068.1791031956673 1969.2483459115028 6548.0476607084274 1604.2160273939371 325.65176613628864 1786.1534734964371 309.83678786456585 5108.8577402085066 1841.6896644234657 4521.2827660292387 1043.6494800448418 1349.7021845877171 1936.8414117693901 2113.5755930840969 1966.7193682491779 2778.9108005464077 2626.4022653102875 9780.9173826426268 1748.5633881539106 301.8421895802021 747.53173391520977 5084.6066766828299 1495.2402886599302 7213.5322409123182 2724.3175254762173 544.26484698057175 1802.8291194140911 355.58170656859875
leaf_count=31001 29906 9069 4800 8545 32857 6613 1495 7496 1325 24233 8290 18728 4239 5492 8758 10356 8019 12094 11195 39365 7022 1363 3160 21113 7231 29112 11879 2372 7921 1536
internal_value=-2.12149e-06 0.0171799 -0.0187934 0.00795953 0.0310779 -0.0102927 -0.0317369 -0.0154905 0.0251076 -0.0344253 -0.0307053 0.01419 -0.0120604 0.00365266 0.0209207 0.0375084 0.0124309 -0.0225471 0.0139781 -0.00563787 -0.00969092 -0.020593 -0.0143422 -0.0134536 0.0322151 0.00599434 0.0177103 0.0108766 -0.0236748 0.0259321
internal_weight=86353.9 45108.4 41245.4 27117.6 17990.8 24895.2 16350.2 11761.5 9329.21 13172.4 6950.55 11083.7 7914.41 16033.9 5870.84 8661.62 9114.4 3847.09 7147.69 13133.7 3352.78 3177.85 1049.37 6870.76 3458.37 8563.23 3578.42 854.102 2128.48 2292.42
internal_count=376585 196380 180205 110997 85383 102742 77463 49742 42170 63524 32523 46487 32848 64510 25870 43213 37942 16894 29923 53000 13635 13939 4523 28609 16300 34604 15576 3697 9416 10294
is_linear=0
shrinkage=0.03


Tree=22
num_leaves=31
num_cat=0
split_feature=0 0 0 0 0 0 1 2 2 2 0 2 2 0 2 4 1 2 0 1 0 2 0 0 0 2 5 5 2 0
split_gain=29338.2 6204.64 4885.52 840.91 758.954 685.02 458.915 348.404 290.126 183.594 120.338 148.292 111.823 105.6 103.647 97.0852 93.6609 92.2655 95.4299 88.1022 81.8995 77.888 64.1132 61.2523 60.6965 57.0039 53.3178 51.9218 51.4261 63.0476
threshold=-3.7975876110377667e-05 0.0037847442527332016 -0.0043645288110455973 0.0015405711779183727 -0.0015624658963468412 0.007889878043560351 0.47500000000000003 0.004071351382223292 0.0045591992668063235 0.0030097702382104459 -0.0096297713948499068 0.0066957530326645061 0.0093330578507272392 0.00058545654952148142 0.0027307404040945991 0.12940952255126045 0.77500000000000002 0.0072160866854068017 0.0026750966726532851 0.39166666666666672 -0.00091426969704163339 0.0036655296869075732 -0.0023625370354913816 0.0022376875937108911 -0.0031752298636443274 0.0026503159201463474 0.91597561503675351 0.25881904510252057 0.010575619077605495 -0.012424669145530349
decision_type=2 2 2 2 2 2 2 2 2 2 2 2 2 2 2 2 2 2 2 2 2 2 2 2 2 2 2 2 2 2
left_child=2 3 6 13 7 8 10 14 -3 23 -1 -12 22 -2 -4 -10 28 18 27 -7 21 -6 -9 -5 -16 -15 -14 -11 -8 -30
right_child=1 5 4 9 20 19 16 12 15 17 11 -13 26 25 24 -17 -18 -19 -20 -21 -22 -23 -24 -25 -26 -27 -28 -29 29 -31
leaf_value=-0.038462349744235007 0.0010545447298165294 0.032294454751569335 -0.029478625166870231 0.016441244946053542 -0.013423370730201294 0.038752302908143646 -0.028208866342985091 -0.015754789353709484 0.017623800716903174 0.008499863357162572 -0.035069167511629029 -0.023033116251113463 -0.0011785569156892329 0.011729548521085738 -0.026060135774163384 0.025833597328507693 -0.014577594896313634 0.0068560763629346346 0.018041348960969927 0.031655145736569662 -0.0037906228457497155 -0.005761209510555536 -0.0097490477547410616 0.026893470350650227 -0.016963580966384669 0.0048467956855173444 -0.020895805331276392 0.015048845960842498 -0.03003390352285536 -0.014194205001999104
leaf_weight=5644.5474397987127 7836.264297246933 3121.6473204493523 1335.2513245493174 903.30728410184383 1898.473713234067 6431.5621672719717 2536.2406582087278 4341.2475636899471 3325.1141147613525 2672.2123648524284 3648.4322865903378 1232.5067115277052 1035.3998023867607 1284.3340748846531 922.24713242053986 2124.7662034481764 798.37973260879517 2118.1084109544754 3047.9866058677435 2084.379273340106 8409.2535921484232 3217.8090529441833 2533.2963438779116 1143.2162321209908 2323.0693857818842 6908.0133364200592 140.13607981801033 1839.611302152276 359.9685413390398 608.41533370316029
leaf_count=28732 31375 14964 6094 3845 7863 32857 11661 18474 14588 11071 17729 5670 4220 5237 4237 9659 3462 8656 13103 10356 33789 12996 10393 5114 9972 27898 572 7657 1705 2636
internal_value=-2.01612e-06 0.0167669 -0.0183486 0.0080105 -0.0105498 0.0309889 -0.032105 -0.015838 0.0250018 0.0141163 -0.0354795 -0.0320299 -0.0120795 0.00354429 -0.0224433 0.0208246 -0.0238508 0.01239 0.0139405 0.0370152 -0.00561151 -0.00860437 -0.0135417 0.02228 -0.0195486 0.00592582 -0.00352906 0.0111701 -0.0259633 -0.0200822
internal_weight=85825.2 44840.5 40984.7 27753.1 26156.2 17087.5 14828.5 12630.6 8571.53 11724.4 10525.5 4880.94 8050.08 16028.6 4580.57 5449.88 4303 9677.92 7559.81 8515.94 13525.5 5116.28 6874.54 2046.52 3245.32 8192.35 1175.54 4511.82 3504.62 968.384
internal_count=376585 196380 180205 113956 108610 82424 71595 53962 39211 49446 52131 23399 33659 64510 20303 24247 19464 40487 31831 43213 54648 20859 28867 8959 14209 33135 4792 18728 16002 4341
is_linear=0
shrinkage=0.03


Tree=23
num_leaves=31
num_cat=0
split_feature=0 0 0 0 0 0 1 2 2 2 2 0 2 0 2 0 2 1 1 0 5 1 4 2 2 1 2 2 0 0
split_gain=27787.1 6171.11 4566.43 841.906 681.805 671.946 455.146 317.902 284.251 176.592 125.656 121.66 159.717 115.943 115.829 111.9 94.0087 91.418 88.0178 85.9035 64.9022 60.6437 60.2255 59.3393 56.5982 54.9374 52.8423 52.3401 49.9259 49.8579
threshold=-0.00011185423430665007 0.0037847442527332016 -0.0043645288110455973 0.0015405711779183727 0.007889878043560351 -0.0019333535097111759 0.47500000000000003 0.003771350013152275 0.0045591992668063235 0.0040047752275811999 0.008230059022861105 -0.01134266916834722 0.0092315974484153077 -0.00091426969704163339 0.0030097702382104459 0.00054662949359877749 0.0075889587953331351 0.67500000000000016 0.39166666666666672 0.0022980722293153432 0.25881904510252057 0.84166666666666679 0.12940952255126045 0.0027307404040945991 0.0025632813096337953 0.39166666666666672 0.0042467196445166435 0.0026503159201463474 0.013429422097139633 0.0052973154885905451
decision_type=2 2 2 2 2 2 2 2 2 2 2 2 2 2 2 2 2 2 2 2 2 2 2 2 2 2 2 2 2 2
left_child=2 3 6 15 8 7 11 23 29 19 21 -1 26 14 -7 -2 22 -8 -6 -5 -11 -9 -10 -4 -21 -16 -13 -17 -20 -3
right_child=1 4 5 9 18 13 17 10 16 20 -12 12 -14 -15 25 27 -18 -19 28 24 -22 -23 -24 -25 -26 -27 -28 -29 -30 -31
leaf_value=-0.038567756062387083 0.00074586985699684699 0.028148578713856901 -0.030729688795736686 0.013999170046449509 0.038295545218374881 -0.01650831059545484 -0.026886649341468019 -0.016289640158252062 0.019779022220745766 0.0086058841238807384 -0.0051774208847447231 -0.037379642661018363 -0.017632122286184434 -0.0039426230234402794 -0.013400032172558515 0.011081186717055554 0.015267889966350109 -0.017908672299325752 0.02796328693216495 0.030656174400713145 0.014401940210394312 -0.0072115302076606776 0.027842621431912139 -0.021743242870094458 0.019777894333460392 -0.0059404954599167692 -0.031181209890853479 0.0046359995805573592 0.038013087834577221 0.035794593565512005
leaf_weight=4660.6867253184319 8203.6080439984798 1628.9085636883974 1013.1988108158112 2044.6402031779289 6314.7929023057222 1544.0600522309542 2577.4251046180725 5043.5187420994043 1846.3202305883169 4433.5043711960316 1432.7809398323298 2133.9996413886547 617.98337452113628 7674.2783942818642 1085.3035197556019 1345.7194463908672 2047.7422839254141 1690.0680914670229 1403.9459235668182 567.96158282458782 2860.6451850086451 762.38311940431595 1519.8085235506296 1904.172149464488 1777.9175950139761 4901.5865374654531 2947.5650928616524 7207.0844157338142 651.26942470669746 1451.5038811415434
leaf_count=24258 32839 7733 4731 8631 32857 6552 11999 21519 8321 18433 5874 10645 2837 30856 4436 5492 8858 7465 6986 2591 11940 3180 7068 8562 7851 19967 14391 29112 3370 7231
internal_value=-1.93386e-06 0.0160852 -0.0182277 0.00755929 0.0304638 -0.0105286 -0.0315764 -0.0165036 0.024476 0.0137403 -0.013134 -0.0349727 -0.0320329 -0.00653772 -0.00918221 0.00324909 0.0203364 -0.0233311 0.0365405 0.018494 0.010879 -0.0150976 0.0234197 -0.0248642 0.0224116 -0.00729276 -0.0337842 0.0056501 0.0311479 0.0317514
internal_weight=85294.4 45305.4 39989 28441.1 16864.3 25361.3 14627.7 10156.1 8494.28 11684.7 7238.68 10360.2 5699.55 15205.2 7530.95 16756.4 5413.87 4267.49 8370.01 4390.52 7294.15 5805.9 3366.13 2917.37 2345.88 5986.89 5081.56 8552.8 2055.22 3080.41
internal_count=376585 199313 177272 116889 82424 105677 71595 43866 39211 49446 30573 52131 27873 61811 30955 67443 24247 19464 43213 19073 30373 24699 15389 13293 10442 24403 25036 34604 10356 14964
is_linear=0
shrinkage=0.03


Tree=24
num_leaves=31
num_cat=0
split_feature=0 0 0 0 0 0 1 2 2 2 0 2 0 2 2 4 1 1 0 2 0 2 0 0 5 5 2 0 0 5
split_gain=26319.5 5788.1 4585.74 755.846 688.129 678.68 451.966 323.275 278.622 174.362 123.279 145.656 102.003 101.748 97.6521 91.6506 89.3257 87.9753 83.3621 78.0228 76 64.3338 59.4201 58.6753 55.5017 51.4077 50.5629 61.911 59.7327 50.3851
threshold=-3.7975876110377667e-05 0.0037847442527332016 -0.0043645288110455973 0.001586814118851945 -0.0015624658963468412 0.007889878043560351 0.47500000000000003 0.004071351382223292 0.0045591992668063235 0.0030097702382104459 -0.0096297713948499068 0.0066957530326645061 0.00088933159686034439 0.0093330578507272392 0.0027307404040945991 0.12940952255126045 0.77500000000000002 0.39166666666666672 0.0028175002074465462 0.00383537599076835 -0.00078908296096858583 0.0080199521471451419 -0.0023625370354913816 -0.0031752298636443274 0.1294095225512602 -0.78656609248549325 0.011226666219699441 -0.012424669145530349 -0.0077602098423569564 0.91597561503675351
decision_type=2 2 2 2 2 2 2 2 2 2 2 2 2 2 2 2 2 2 2 2 2 2 2 2 2 2 2 2 2 2
left_child=2 3 6 12 7 8 10 14 -3 -5 -1 -12 -2 22 -4 25 26 -7 24 20 -6 -20 -9 -16 -11 -10 28 -28 -8 -15
right_child=1 5 4 9 19 17 16 13 15 18 11 -13 -14 29 23 -17 -18 -19 21 -21 -22 -23 -24 -25 -26 -27 27 -29 -30 -31
leaf_value=-0.037564729370850307 0.0017115849597460905 0.031226674369170378 -0.028367869321639608 0.021705275661899181 -0.011701766484336459 0.037857655709248331 -0.033858237645664084 -0.014964629616291214 0.010040449197761312 0.0070590542476978201 -0.034023327522066694 -0.021969076632761955 0.0066772836108268075 -0.00098035224716788651 -0.025106491508726705 0.024779595051534438 -0.013731304004492309 0.030656533256720121 0.017505097486783028 -0.0032218726078431753 -0.0049102373895050927 0.0068182418123542855 -0.009168880374755696 -0.016096427951772321 0.012896003352152021 0.018840896725921524 -0.028608525543849999 -0.011847486703387184 -0.023975949044504064 -0.020179758426709399
leaf_weight=5443.8249392211437 10654.276417255402 3038.8566201627254 1308.0197831094265 1946.3056689202785 2585.1342526227236 6197.9684893041849 788.7068148702383 4309.1116681098938 784.39812721312046 3261.572036832571 3540.2555270344019 1210.6968203186989 5722.7755672484636 1034.5130511373281 906.72127738595009 2087.2135175615549 791.17398722469807 2025.971390530467 2796.2440796047449 7445.049072816968 3478.1040884703398 619.23962850868702 2524.9049241393805 2301.9098064899445 2663.4008161276579 2505.8096786141396 327.62202966213226 502.62076435983181 1822.4677494764328 139.62087805569172
leaf_count=28732 42711 14964 6094 8652 10698 32857 3823 18474 3449 13536 17729 5670 23269 4220 4237 9659 3462 10356 12117 29959 13991 2546 10393 9972 11125 11139 1586 2202 8391 572
internal_value=-1.83485e-06 0.0159734 -0.0174946 0.00756349 -0.00997597 0.0299546 -0.0310615 -0.0150413 0.0239656 0.0135368 -0.0344828 -0.0309515 0.00344679 -0.0114217 -0.021459 0.0198623 -0.0228208 0.0360837 0.0118347 -0.00527942 -0.00780589 0.0155675 -0.0128233 -0.0186426 0.00968289 0.0167428 -0.0249104 -0.0184616 -0.0269609 -0.00326343
internal_weight=84764.5 44304 40460.5 27663.8 26033.1 16640.2 14427.4 12524.8 8416.28 11286.8 10194.8 4750.95 16377.1 8008.15 4516.65 5377.42 4232.59 8223.94 9340.46 13508.3 6063.24 3415.48 6834.02 3208.63 5924.97 3290.21 3441.42 830.243 2611.17 1174.13
internal_count=376585 196380 180205 113956 108610 82424 71595 53962 39211 47976 52131 23399 65980 33659 20303 24247 19464 43213 39324 54648 24689 14663 28867 14209 24661 14588 16002 3788 12214 4792
is_linear=0
shrinkage=0.03


Tree=25
num_leaves=31
num_cat=0
split_feature=0 0 0 1 0 0 0 0 2 2 2 1 0 2 2 0 4 2 2 2 0 0 1 2 4 0 5 0 2 2
split_gain=25147 6177.27 3944.39 758.67 744.781 533.87 426.345 257.686 251.24 238.871 237.381 160.565 116.48 114.09 97.3028 87.7121 84.9612 84.116 70.8879 68.6518 64.9162 58.7599 58.2202 54.7778 54.6043 51.0212 50.9779 50.0349 74.3602 49.7307
threshold=0.00058545654952148142 -0.0030966698757296141 0.0046439531068545722 0.44166666666666671 -0.00099627137572036125 0.0021248522773014331 0.0089870418619490949 -0.0068288518335305878 0.0063242842043335331 0.0045591992668063235 0.003366609635062559 0.7250000000000002 -0.0060774699913450679 0.005489268756074867 0.0066514583060141895 -0.00033305855032874818 0.12940952255126045 0.0041806974111361838 0.0024992919428106068 0.0051894106108061481 -0.0019333535097111759 0.0031054323726263148 0.4916666666666667 0.0058532384916159816 -0.60355339059327362 0.0057386625136497229 -0.60355339059327384 0.013429422097139633 0.0075314939203213714 0.0014913077529283287
decision_type=2 2 2 2 2 2 2 2 2 2 2 2 2 2 2 2 2 2 2 2 2 2 2 2 2 2 2 2 2 2
left_child=1 3 5 7 10 17 8 -1 25 18 20 12 -5 -9 -14 -6 23 22 -7 26 -3 -20 -2 -11 29 -4 -12 28 -8 -17
right_child=2 4 6 11 15 9 27 13 -10 16 19 -13 14 -15 -16 24 -18 -19 21 -21 -22 -23 -24 -25 -26 -27 -28 -29 -30 -31
leaf_value=-0.036226322561969948 0.013542194448003173 -0.023367948013291794 0.026522659244936714 -0.028308591992589636 -0.004496948210863683 0.029573621449878931 0.037027800089775978 -0.030263727534392 0.019101620035904213 0.014409075069598293 -0.0065031098307042901 -0.013371939848549497 -0.023162768000005843 -0.019735472139163952 -0.011488111107492163 0.034147099140307072 0.016488268450398788 0.0042582394137527374 0.015974197440397981 -0.0062871896525233378 -0.014745190418592957 0.023392833311965164 0.0072378773975717197 0.0063225073286769518 -0.001299332136181114 0.033367345942652782 -0.013416456663641699 0.038629586270465539 0.026607188229553481 0.003014472080484647
leaf_weight=7039.7912767529488 1942.1857747286558 1317.330639898777 1581.8839748650789 2222.7274079918861 6162.661850258708 750.55816499888897 1782.9687379002571 2866.3893122971058 2770.0950645059347 1120.4240875095129 1350.9450182765722 2145.7514057904482 1866.3452704995871 1368.6782803237438 979.8246876001358 46.941626667976379 2233.7007858455181 6044.0033873617649 2024.1179237812757 4729.8458214402199 1947.410156160593 1829.3085677325726 4104.6902312934399 2304.6701610088348 7919.4554219245911 2576.5858826488256 3316.7459681034088 4267.002976372838 941.87926760315895 2838.9746785908937
leaf_count=37463 8018 6009 7697 10822 24856 3521 9591 14076 12543 4811 5642 9361 8593 6203 4220 188 9610 24537 8814 19330 8303 8550 16827 9612 31710 13115 13862 23175 4939 11366
internal_value=-2.2237e-05 -0.0142405 0.0188391 -0.0278475 -0.00574959 0.0110325 0.0313752 -0.0327086 0.0261011 0.0160647 -0.0112555 -0.0202506 -0.0231625 -0.0268612 -0.0191436 -0.00164086 0.0119364 0.00676109 0.0211389 -0.00883442 -0.0182245 0.019496 0.00926275 0.0089678 -1.19452e-05 0.0307636 -0.0114156 0.0366016 0.0334258 0.00352087
internal_weight=84393.9 48119.8 36274.1 18489.5 29630.3 22353.7 13920.4 11274.9 6928.56 10262.8 12662.3 7214.65 5068.9 4235.07 2846.17 16968 5658.8 12090.9 4603.98 9397.54 3264.74 3853.43 6046.88 3425.09 10805.4 4158.47 4667.69 6991.85 2724.85 2885.92
internal_count=377364 212004 165360 90738 121266 94300 71060 57742 33355 44918 53146 32996 23635 20279 12813 68120 24033 49382 20885 38834 14312 17364 24845 14423 43264 20812 19504 37705 14530 11554
is_linear=0
shrinkage=0.03


Tree=26
num_leaves=31
num_cat=0
split_feature=0 0 0 0 0 1 0 2 2 2 1 0 0 2 0 2 0 4 2 2 4 0 2 2 0 2 1 2 2 2
split_gain=23825.4 5965.06 3836.73 1034.79 508.819 494.233 427.202 297.764 248.939 229.624 137.901 127.002 126.744 104.049 101.053 100.643 90.0582 80.796 79.4275 68.8294 60.1058 59.3137 84.5508 59.0972 56.9806 56.3987 55.0797 53.6582 52.0148 51.2043
threshold=0.00058545654952148142 -0.0040267563100113736 0.0046439531068545722 -0.0012207900860808322 0.0021248522773014331 0.39166666666666672 0.0089870418619490949 0.003366609635062559 0.005686667376829554 0.0045591992668063235 0.70833333333333337 -0.0085975104402850697 -0.00040873449307416934 0.0069249455212998037 -0.0022975880169107846 0.0084530008429138988 -0.0025647526965544057 0.12940952255126045 0.0041806974111361838 0.0024992919428106068 -0.60355339059327362 -0.006258098299492222 0.0065658137564502585 0.0044461871868112469 0.0031054323726263148 0.0075889587953331351 0.4916666666666667 0.0019792933048998411 0.0058895696633602815 0.009137875263892736
decision_type=2 2 2 2 2 2 2 2 2 2 2 2 2 2 2 2 2 2 2 2 2 2 2 2 2 2 2 2 2 2
left_child=1 5 4 7 18 11 8 14 -4 19 21 -1 23 16 -3 -13 -9 28 26 -6 27 29 -23 -5 -21 -10 -2 -14 -11 -7
right_child=2 3 6 12 9 10 -8 13 25 17 -12 15 20 -15 -16 -17 -18 -19 -20 24 -22 22 -24 -25 -26 -27 -28 -29 -30 -31
leaf_value=-0.036952236245760446 0.01316583317201768 -0.026997449297379062 0.03114690840325926 -0.0075522330852332217 0.029022610680015094 -0.032459315897125987 0.036190442580193272 -0.016207980228167364 0.024100160451849175 0.01393582907374381 -0.015211204665574874 -0.031447405270045359 0.018938641882620493 -0.0056679953409782442 -0.016302394840276832 -0.015566489452489646 -0.009645958497234184 0.016063416932063385 0.0041325672713693673 0.01556713277038135 -0.0014758696941376298 -0.026581586993564756 -0.013802742575785128 -0.0020748837326961729 0.022897703595859388 0.016229069965425866 0.0070282087377173588 0.0024077388655559533 0.0060927023118128075 -0.023923331381099814
leaf_weight=5339.3294852674007 1937.8409831821918 1382.066792473197 3531.0222044587135 4180.6403618305922 741.99413846433163 1396.1009941846132 6861.1480419188738 3156.1440015733242 1467.6649376153946 1143.7072142809629 1552.3974742889404 3226.5058558881283 188.2212860584259 2932.4028783738613 1872.165628939867 404.13336171209812 4663.7240047901869 2224.1417482048273 6041.014834985137 2014.8768937438726 8469.8855061680079 1210.2388884574175 757.75828678905964 3078.1551231145859 1813.0472584664822 1854.586805716157 4100.3950534015894 2892.024479791522 2274.321997076273 1156.3140969127417
leaf_count=29191 8018 6591 18096 16993 3521 7127 37705 13888 6893 4928 6901 16391 754 12038 8217 1864 19370 9610 24537 8814 33917 5787 3337 12381 8550 8366 16827 11579 9495 5678
internal_value=-2.16317e-05 -0.0138912 0.0184135 -0.00672023 0.0107322 -0.0295344 0.0308987 -0.0128936 0.0256008 0.0156616 -0.0229255 -0.0340086 -0.00212306 -0.0104872 -0.0208446 -0.0296797 -0.0122944 0.011613 0.0065647 0.0206601 -0.000170782 -0.0255748 -0.0216612 -0.00522952 0.0190392 0.0197063 0.00899795 0.00341788 0.00871709 -0.0285923
internal_weight=83864 47858.2 36005.8 32815.4 22291.3 15042.8 13714.4 14006.5 6853.27 10212.1 6072.81 8969.97 18808.9 10752.3 3254.23 3630.64 7819.87 5642.17 12079.3 4569.92 11550.1 4520.41 1968 7258.8 3827.92 3322.25 6038.24 3080.25 3418.03 2552.42
internal_count=377364 212004 165360 135728 94300 76276 71060 60104 33355 44918 28830 47446 75624 45296 14808 18255 33258 24033 49382 20885 46250 21929 9124 29374 17364 15259 24845 12333 14423 12805
is_linear=0
shrinkage=0.03


Tree=27
num_leaves=31
num_cat=0
split_feature=0 0 0 0 1 0 0 2 2 2 1 0 0 2 2 0 0 2 4 2 5 0 2 1 4 4 4 4 2 2
split_gain=22574.1 5757.17 3732.26 979.995 490.832 486.886 428.016 285.507 245.122 217.692 134.247 128.427 119.36 104.822 98.7387 98.2083 86.0339 81.4003 68.6639 67.795 62.8335 58.4184 81.9575 56.7815 56.5555 56.51 59.9561 59.7561 55.7151 51.9984
threshold=0.00058545654952148142 -0.0040267563100113736 0.0046439531068545722 -0.0012207900860808322 0.39166666666666672 0.0022980722293153432 0.0089870418619490949 0.003366609635062559 0.005686667376829554 0.0045123276184041135 0.70833333333333337 -0.0089150910765088357 -0.00040873449307416934 0.0092315974484153077 0.0069249455212998037 -0.0022975880169107846 -0.0025647526965544057 0.0041806974111361838 0.12940952255126045 0.0025632813096337953 -0.9159756150367534 -0.006258098299492222 0.0065658137564502585 0.4916666666666667 -0.60355339059327362 0.12940952255126045 -0.5 -0.37940952255126065 0.0044461871868112469 0.0014913077529283287
decision_type=2 2 2 2 2 2 2 2 2 2 2 2 2 2 2 2 2 2 2 2 2 2 2 2 2 2 2 2 2 2
left_child=1 4 5 7 11 17 8 15 -4 19 21 -1 28 -13 16 -3 -9 20 -11 -7 -2 -6 -23 -22 29 26 -10 -28 -5 -14
right_child=2 3 6 12 10 9 -8 14 25 18 -12 13 24 -15 -16 -17 -18 -19 -20 -21 23 22 -24 -25 -26 -27 27 -29 -30 -31
leaf_value=-0.036675913573129951 0.0020580304168997649 -0.026478150920291252 0.030667294732653963 -0.0073325368948454241 -0.028101932198166018 0.029464878476732018 0.03579220233419398 -0.015799270908986807 0.020040024627957911 0.0089513671107643855 -0.014826095832394406 -0.030881877271137264 0.033936245364815917 -0.012895119813963006 -0.0055027419057895148 -0.015890830363428476 -0.0093738984830352232 0.0043876022583547222 0.015988646878287386 0.019232708753095368 0.014613266127816247 -0.026068451242041813 -0.013444879293708077 0.0081772620766122003 -0.0014315931716862614 0.024687548024819504 -0.003913822772529608 0.014884741389670199 -0.0020129520664006616 0.0028193079716097055
