tree
version=v4
num_class=1
num_tree_per_iteration=1
label_index=0
max_feature_idx=3
objective=binary sigmoid:1
feature_names=r_scaled tau vol ofi
feature_infos=[-0.51576182163780071:1.1715219223135986] [0.016666666666666718:1] [0.00072972761804439453:0.60606276253623248] [-1:1]
tree_sizes=3564 3586 3581 3582 3588 3576 3587 3585 3577 3584 3590 3588 3581 3586 3586 3589 3577 3578 3581 3583 3573 3576 3579 3576 3579 3565 3570 3583 3583 3579 3584 3585 3589 3572 3573 3597 3593 3583 3593 3579 3592 3584 3594 3575 3592 3605 3596 3591 3585 3605 3586 3584 3584 3586 3587 3599 3593 3582 3571 3588 3594 3593 3598 3585 3587 3600 3586 3577 3605 3593 3603 3600 3590 3578 3601 3590 3575 3592 3585 3596 3568 3586 3563 3572 3584 3558 3577 3586 3583 3585 3572 3549 3593 3595 3575 3602 3604 3590 3591 3626 3590 3585 3569 3570 3584 3545 3566 3590 3539 3560 3577 3604 3587 3582 3557 3536 3527 3595 3544 3543 3614 3568 3584 3586 3602 3573 3524 3532 3526 3533 3569 3576 3591 3563 3572 3547 3547 3546 3503 3527 3510 3507 3521 3519 3504 3486 3492 3501 3499 3515 3526 3538 3531 3564 3499 3549 3551 3563 3540 3539

Tree=0
num_leaves=31
num_cat=0
split_feature=0 0 0 0 1 0 0 2 2 2 0 1 2 1 0 2 2 0 0 0 2 1 2 2 0 0 0 2 0 0
split_gain=134537 19828.6 15793.3 2880.45 2285.58 1835.5 1809.42 900.405 823.882 642.816 616.376 424.083 391.61 333.412 331.741 270.714 259.114 232.167 219.372 192.034 273.058 190.489 167.106 155.361 155.129 153.743 150.956 139.254 121.306 114.352
threshold=0.0002091906732624025 -0.0035362137101384332 0.0037644247534207751 -0.0012628077524722743 0.47500000000000003 0.0015478099335733378 0.0081142375025606891 0.0059222825954633436 0.0040892256222389818 0.0047843498416134571 -0.0076324132767118151 0.74166666666666681 0.0094646808024827066 0.4916666666666667 -0.00047632490905898751 0.010801221383919033 0.011306973774065599 0.0024750106103445919 -0.0023384328932979652 -0.0089572873758641831 0.0077976932245449994 0.45833333333333337 0.0039177254789057791 0.010801221383919033 0.00091268796408131155 0.0057076719046221689 -0.007404030915572667 0.0046943987506338969 0.0023287838095832642 0.0054157694622123621
decision_type=2 2 2 2 2 2 2 2 2 2 2 2 2 2 2 2 2 2 2 2 2 2 2 2 2 2 2 2 2 2
left_child=1 4 5 8 10 24 7 29 21 17 -1 19 27 -8 22 25 18 -7 -10 -6 -21 -3 -5 -13 -2 -9 -25 -12 -11 -4
right_child=2 3 6 14 11 9 13 15 16 28 12 23 -14 -15 -16 -17 -18 -19 -20 20 -22 -23 -24 26 -26 -27 -28 -29 -30 -31
leaf_value=-0.057889874236717098 0.044864297376701986 -0.030016186964588909 0.1073879634111185 0.010081644517044925 -0.041722243629834233 0.077387685745988047 0.12757352313060136 0.086752410182180939 -0.0058007527834861086 0.058125784816803236 -0.051409183090048036 -0.018945351176226366 -0.0077907303869939673 0.11059853125012677 0.032420928777110211 0.07440019316041506 0.025648839708732725 0.096114794510477317 0.0096278220949148202 -0.034375639532386135 -0.010943849542704741 -0.010828181159875085 0.024750214509974576 -0.013839912748183823 0.055568482520107113 0.10423987138710579 0.017038634944758307 -0.036066652804662702 0.070508742048889989 0.12057726082441705
leaf_weight=13847.615310057998 7738.9049277305603 2167.6781116276979 3414.8459479659796 3244.0264413654804 2427.2108881920576 3407.279780164361 14531.658315867186 2705.2561740428209 4315.7349027842283 3289.6634073853493 3081.2288298010826 1782.0762130171061 851.96215364336967 3611.6330790817738 10209.893286839128 2371.7469206899405 1381.5588085651398 3218.1414471119642 4942.4083558320999 2994.739500015974 2125.9468667209148 3207.1577607095242 4835.9377370625734 745.3839975297451 6015.9158179163933 2347.452152594924 843.92499740421772 2844.0598358660936 4959.322971701622 3167.9669911563396
leaf_count=53958 32362 9670 14078 14533 9375 14596 56581 10393 16664 12606 12932 6818 3297 13947 42430 9178 5335 13621 19150 11642 8138 13607 18870 2923 24714 8971 3259 11087 19076 12957
internal_value=0.0360771 -0.0134374 0.0897209 0.0128731 -0.04205 0.0627114 0.113772 0.100272 -0.0026106 0.0748858 -0.0518429 -0.0235528 -0.0394875 0.124194 0.0264305 0.0883356 0.00544992 0.0864839 0.00243571 -0.0301383 -0.0246475 -0.0185667 0.0188609 -0.00880907 0.049546 0.094877 0.00255663 -0.044045 0.0655705 0.113735
internal_weight=126628 65848.5 60779.8 34304.4 31544.1 28629.2 32150.6 14007.3 16014.5 14874.4 20624.9 10919.3 6777.25 18143.3 18289.9 7424.46 10639.7 6625.42 9258.14 7547.9 5120.69 5374.84 8079.96 3371.39 13754.8 5052.71 1589.31 5925.29 8248.99 6582.81
internal_count=506768 263688 243080 140259 123429 116975 126105 55577 64426 59899 81274 42155 27316 70528 75833 28542 41149 28217 35814 29155 19780 23277 33403 13000 57076 19364 6182 24019 31682 27035
is_linear=0
shrinkage=1


Tree=1
num_leaves=31
num_cat=0
split_feature=0 0 0 0 1 0 0 2 2 0 2 2 1 1 2 0 2 0 0 0 2 1 0 2 2 0 2 1 0 0
split_gain=121547 17916.5 14360.4 2375.5 2222.42 2010.9 1301.12 770.315 752.669 662.446 651.461 380.591 362.969 265.656 230.766 227.547 220.758 215.031 193.194 182.694 197.912 179.875 179.86 161.463 148.338 147.305 135.086 121.704 107.545 106.995
threshold=0.0002091906732624025 -0.0033476473595277986 0.0041828383435883855 -0.0010605389551056666 0.4916666666666667 0.0016537949611774025 0.0085845385315461934 0.0061691581269730494 0.0041431926663389072 -0.0071965023625351621 0.0046057198606694058 0.0057330466633589792 0.74166666666666681 0.39166666666666672 0.010801221383919033 0.0024750106103445919 0.011432119379899712 -0.0019459798235754828 -0.00023476541389117343 -0.0069810177409832088 0.0064675496198330342 0.47500000000000003 0.00091268796408131155 0.0068364701940880025 0.010465019384928619 -0.0071965023625351621 0.0096463518170881637 0.24166666666666667 0.0057076719046221689 -0.0019459798235754828
decision_type=2 2 2 2 2 2 2 2 2 2 2 2 2 2 2 2 2 2 2 2 2 2 2 2 2 2 2 2 2 2
left_child=1 4 5 8 9 22 7 -4 21 27 15 -11 19 -8 28 -7 17 -10 -5 -6 -21 29 -2 -12 -14 -26 -13 -1 -9 -3
right_child=2 3 6 18 12 10 13 14 16 11 23 26 24 -15 -16 -17 -18 -19 -20 20 -22 -23 -24 -25 25 -27 -28 -29 -30 -31
leaf_value=-0.092236427707475921 0.0084063988546683698 -0.067731205561253074 0.076215311467553587 -0.012584898777093465 -0.070251303890319083 0.040822615122132276 0.088629696201725075 0.049588644041269662 -0.035794946472139474 -0.079331017455817554 0.038113766084646505 -0.062603058355374622 -0.051761952011238156 0.074902349122707365 0.038986915995867344 0.059840729894207537 -0.007541820789610092 -0.020670372793167028 -0.0016743949690705851 -0.065495515945616881 -0.043413644812628896 -0.041392291074596549 0.01947983723362513 0.02498012019246551 -0.047312141905011602 -0.018080560701018173 -0.038267958440067057 -0.08288185774159007 0.065411685900502572 -0.046413328179593087
leaf_weight=9088.9036950320005 7737.5207957476377 1430.8547368496656 6294.9897312521935 8897.2381053715944 3257.9743854254484 2768.5130109190941 12189.669519841671 1892.9467190802097 5336.9244081676006 4167.9808573126793 4302.1668362021446 1884.9725360125303 1896.4028915017843 4957.8800536841154 2294.5410358011723 3641.6769373416901 1351.3812741041183 4199.0009018331766 7458.7202878147364 2011.1806451976299 2047.9795329421759 3635.4696497917175 6970.4474485516548 5131.2953979820013 798.28721164166927 936.65433393418789 817.64311717450619 5631.1196002662182 2481.7935574501753 999.91198720037937
leaf_count=35635 32362 6363 25807 36879 12576 11897 47663 7279 20653 17220 16695 7310 7242 19209 8891 15542 5220 16258 31005 7834 7851 15471 28624 19614 3131 3613 3156 21800 9497 4471
internal_value=5.87285e-05 -0.0469813 0.0511194 -0.0212037 -0.0733692 0.0269681 0.0756235 0.0636703 -0.0343188 -0.0826743 0.0393275 -0.0698549 -0.0550191 0.0846607 0.0518293 0.0516269 -0.0264548 -0.0291351 -0.00760944 -0.0614326 -0.0543545 -0.0484325 0.0136544 0.0309698 -0.0420961 -0.0315307 -0.0552408 -0.0886579 0.0585651 -0.058962
internal_weight=126512 65848.6 60663.4 33309.5 32539.1 30551.6 30111.8 12964.3 16953.5 21590.6 15843.7 6870.6 10948.5 17147.5 6669.28 6410.19 10887.3 9535.93 16356 7317.13 4059.16 6066.24 14708 9433.46 3631.34 1734.94 2702.62 14720 4374.74 2430.77
internal_count=506768 263688 243080 136320 127368 124734 118346 51474 68436 85121 63748 27686 42247 66872 25667 27439 42131 36911 67884 28261 15685 26305 60986 36309 13986 6744 10466 57435 16776 10834
is_linear=0
shrinkage=0.05


Tree=2
num_leaves=31
num_cat=0
split_feature=0 0 0 0 1 0 0 2 2 2 0 2 1 1 0 2 2 0 0 0 2 1 2 2 0 0 2 2 0 2
split_gain=110008 16317.8 13158.8 2448.64 1836.1 1528.2 1501.86 717.924 701.85 536.593 497.428 445.626 358.966 346.692 273.54 229.253 208.601 191.3 186.061 161.446 258.834 160.687 139.367 129.385 125.513 122.375 201.243 115.395 116.978 112.459
threshold=0.0002091906732624025 -0.0036290292395789233 0.0037644247534207751 -0.0012628077524722743 0.47500000000000003 0.0072708224011354614 0.0015478099335733378 0.0056953649254586885 0.0040892256222389818 0.0045167859584978008 -0.0095610860306833429 0.0094646808024827066 0.47500000000000003 0.75833333333333341 -0.00064712388135860696 0.008610810416682076 0.010682737133142941 0.0024750106103445919 -0.0024772963017319957 -0.0089572873758641831 0.0099410151366273406 0.40833333333333338 0.0042008233632137102 0.0068364701940880025 0.00091268796408131155 0.015602156274624432 0.010141318371844923 0.011043960659973184 -0.0089572873758641831 0.0046943987506338969
decision_type=2 2 2 2 2 2 2 2 2 2 2 2 2 2 2 2 2 2 2 2 2 2 2 2 2 2 2 2 2 2
left_child=1 4 6 8 10 7 24 -4 21 17 -1 29 25 19 22 18 -9 -8 -10 -6 -21 -3 -5 -11 -2 26 -7 -15 -29 -12
right_child=2 3 5 14 13 12 9 16 15 23 11 -13 -14 27 -16 -17 -18 -19 -20 20 -22 -23 -24 -25 -26 -27 -28 28 -30 -31
leaf_value=-0.086690323395040528 0.0079877679065329579 -0.061510958840695622 0.070367584774735634 -0.025476007944652015 -0.070225190686164271 0.082247408479188572 0.038110067758588433 0.051652551803136229 -0.041247190365823305 0.033702150005443743 -0.08166647565306169 -0.04274912159133247 0.067082536346193641 -0.048971134786184402 -0.0042137383583623232 -0.015948388105431335 0.032405659855118348 0.056043457426701374 -0.025829784126807032 -0.061157043710052483 -0.035289668286711998 -0.043543597162272088 -0.010432819326068446 0.021611348870418753 0.017619854081355028 0.087487210518519265 0.060606084383885976 -0.048547952309071878 -0.018108094122445149 -0.069440377950577836
leaf_weight=11606.815762013197 7735.9254965484142 1904.8177393227816 5384.1841882914305 2769.1820438355207 2505.8753566592932 6251.353177011013 3086.6161372512579 4644.3339037746191 3354.7397295385599 4210.8553188890219 3684.7762316763401 1211.273186057806 4574.0155304819345 1529.6839419901371 12056.609010636806 2943.9647957980633 2020.1207610964775 2869.5446075052023 4696.534810513258 3921.6752012223005 1283.5963078886271 3588.9626447111368 3467.6074095070362 4662.7537548393011 6009.4014493227005 7701.0650106668472 1297.1143670976162 491.58504001796246 881.6924337297678 3841.9901896566153
leaf_count=45329 32362 8512 22409 12290 9716 24925 13351 17920 13004 16403 15458 4700 17782 5863 50091 11246 7837 12322 18262 15178 4940 15289 13452 17823 24714 30200 5032 1939 3408 15011
internal_value=5.73644e-05 -0.0447078 0.0487431 -0.0212063 -0.0711117 0.0708323 0.0241053 0.0567887 -0.0351797 0.035141 -0.0799068 -0.0708961 0.0793678 -0.0542535 -0.00861119 -0.027888 0.0458185 0.04675 -0.0322538 -0.059798 -0.0547783 -0.0497733 -0.0171121 0.0273489 0.0121989 0.0830527 0.0785286 -0.0395257 -0.0290045 -0.0754257
internal_weight=126189 65741.4 60447.3 34782.4 30959 31872.2 28575.1 12048.6 16489 14829.8 20344.9 8738.04 19823.5 10614.1 18293.4 10995.2 6664.45 5956.16 8051.27 7711.15 5205.27 5493.78 6236.79 8873.61 13745.3 15249.5 7548.47 2902.96 1373.28 7526.77
internal_count=506768 263688 243080 142146 121542 126105 116975 48166 66313 59899 80498 35169 77939 41044 75833 42512 25757 25673 31266 29834 20118 23801 25742 34226 57076 60157 29957 11210 5347 30469
is_linear=0
shrinkage=0.05


Tree=3
num_leaves=31
num_cat=0
split_feature=0 0 0 0 1 0 0 2 2 2 0 1 2 0 0 2 2 2 1 0 0 2 1 2 2 0 2 0 0 2
split_gain=99716.6 15154 11893.6 2276.61 1703.99 1692.04 1067.85 676.889 638.417 535.556 408.957 364.883 309.314 262.928 247.906 221.951 210.588 199.611 194.06 179.096 167.801 260.714 147.208 139.559 134.833 130.097 122.047 125.5 118.431 90.1609
threshold=0.00023185267059548049 -0.0036290292395789233 0.0042975291718086407 -0.0012628077524722743 0.44166666666666671 0.002002667103531718 0.0094026605177822114 0.0061691581269730494 0.0040892256222389818 0.0058852089062738132 -0.0083831306449557476 0.7250000000000002 0.0079128396948039883 -0.00047632490905898751 0.0011960161870887824 0.012003714958166638 0.011571581382151865 0.0029635893104356195 0.42500000000000004 -0.0024772963017319957 -0.0098966511690980006 0.010043732830160999 0.40833333333333338 0.0029928573293169177 0.0039177254789057791 0.0068775222881465913 0.011043960659973184 -0.0078661863852325497 0.0028355791820639702 0.0038340464188567772
decision_type=2 2 2 2 2 2 2 2 2 2 2 2 2 2 2 2 2 2 2 2 2 2 2 2 2 2 2 2 2 2
left_child=1 4 5 8 10 14 7 29 22 17 -1 20 -12 24 -2 25 19 -7 -8 -10 -6 -22 -3 -16 -5 -9 -13 -28 -19 -4
right_child=2 3 6 13 11 9 18 15 16 -11 12 26 -14 -15 23 -17 -18 28 -20 -21 21 -23 -24 -25 -26 -27 27 -29 -30 -31
leaf_value=-0.082624714172712763 0.0096322146507490172 -0.058663746170715694 0.07882826749471207 -0.022645907971361852 -0.07008890551561868 0.062453940376497263 0.081862406945299518 0.04805116703162346 -0.037046160795855862 0.02689756926530595 -0.07270341138586528 -0.048114819875237164 -0.046153404683745451 -0.0027879264697320072 0.037679530485950886 0.034689584610126403 -0.0079161281398351709 0.035043297329745017 0.068696467005190595 -0.023258294891163319 -0.060162016425773103 -0.035149964517564351 -0.041439891869884976 0.018717752407799295 -0.0094706020365869954 0.064147881809665117 -0.044597009892030658 -0.016852097096924548 0.049187911165869902 0.066688246338578769
leaf_weight=12267.881656706333 10124.458135902882 1897.5779183059931 2438.5129856914282 3244.1050341874361 2347.1448853909969 1648.6638414114714 11727.669114172459 3196.3947463184595 4080.5751505047083 5806.7224033921957 5435.2185596674681 1959.5634736418724 1374.412674933672 10605.082546681166 1162.9802756309509 1967.6804696470499 1337.2370209395885 2697.8571165800095 3676.0937090814114 5570.2335821986198 4390.6436757296324 1365.9830311536789 3582.7477202862501 5859.1969572007656 4837.4301997423172 2066.9890746921301 755.54944856464863 885.00372412800789 3277.9141788184643 4102.2598158419132
leaf_count=48392 42004 8512 10627 14533 9149 7489 46663 12350 15783 22326 22337 7532 5359 44270 5334 7709 5172 11090 14457 21557 17107 5275 15289 23355 18870 7988 2978 3413 13358 16490
internal_value=5.5979e-05 -0.0423398 0.0468386 -0.0199102 -0.0679563 0.0250489 0.0696756 0.0595591 -0.033464 0.0383383 -0.0771706 -0.0529368 -0.0673447 -0.00796534 0.0146392 0.0490165 -0.0265115 0.0470515 0.0787204 -0.0290881 -0.0588211 -0.0542269 -0.0474037 0.0218581 -0.0147595 0.0543725 -0.0396913 -0.0296299 0.0428021 0.0712143
internal_weight=125690 65936.4 59753.4 35155 30781.4 30577.8 29175.6 13771.8 16468.4 13431.2 19077.5 11703.9 6809.63 18686.6 17146.6 7231.06 10988 7624.44 15403.8 9650.81 8103.77 5756.63 5480.33 7022.18 8081.54 5263.38 3600.12 1640.55 5975.77 6540.77
internal_count=506768 265528 241240 143986 121542 124956 116284 55164 66313 54263 76088 45454 27696 77673 70693 28047 42512 31937 61120 37340 31531 22382 23801 28689 33403 20338 13923 6391 24448 27117
is_linear=0
shrinkage=0.05


Tree=4
num_leaves=31
num_cat=0
split_feature=0 0 0 0 1 0 0 2 2 2 0 1 2 0 2 1 0 0 2 2 0 2 0 0 2 0 2 2 0 0
split_gain=90509.1 13703.4 11222.2 2007.12 1597.58 1511.54 1075.82 662.597 582.52 510.524 368.767 358.561 252.709 227.293 195.872 187.804 177.362 170.452 259.345 164.91 154.499 137.809 134.207 129.637 126.646 128.717 120.902 111.36 114.451 105.747
threshold=0.0002091906732624025 -0.0036290292395789233 0.0041828383435883855 -0.0012628077524722743 0.42500000000000004 0.0016537949611774025 0.0094026605177822114 0.0069337542108824863 0.0040892256222389818 0.0046057198606694058 -0.0076324132767118151 0.7250000000000002 0.0067903018078448877 -0.00064712388135860696 0.008610810416682076 0.52500000000000002 0.0025447311694879646 -0.0089572873758641831 0.0077976932245449994 0.012003714958166638 -0.0024772963017319957 0.002721248525825093 0.00091268796408131155 0.0027574996066390967 0.0038609490873286064 0.0061907165831055514 0.0062092897450268048 0.011043960659973184 -0.0089572873758641831 0.0068775222881465913
decision_type=2 2 2 2 2 2 2 2 2 2 2 2 2 2 2 2 2 2 2 2 2 2 2 2 2 2 2 2 2 2
left_child=1 4 5 8 10 22 7 24 21 16 -1 17 -12 26 20 -8 -7 -6 -19 29 -10 -3 -2 -11 -4 -26 -5 -13 -29 -9
right_child=2 3 6 13 11 9 15 19 14 23 12 27 -14 -15 -16 -17 -18 18 -20 -21 -22 -23 -24 -25 25 -27 -28 28 -30 -31
leaf_value=-0.079165080935817297 0.0071423300626625857 -0.05710699441928329 0.075360902421009901 -0.019998341801686245 -0.066261134092827953 0.035992875766474162 0.078144678488043906 0.043775824107154172 -0.03746803531561213 0.020558082665191744 -0.070288330704386323 -0.045872759488009347 -0.046555968002611671 -0.0037696229153285086 -0.01417514181164195 0.062722592982500894 0.052766781580153632 -0.060218525467401668 -0.038314206785239002 0.032663476360990207 -0.023401604930284692 -0.039899671392435783 0.016715536450295394 0.032316327131655199 0.054478017472028642 0.069978978057804411 -0.0046825809146303606 -0.045019856325031901 -0.017812210902291296 0.060029500593770581
leaf_weight=12669.943545475602 7731.8549510985613 1680.9983011186123 2563.3537632972002 4415.0294786840677 2990.0544758439064 2949.7088482379913 12874.808111041784 2591.7192520648241 3343.1244250386953 4575.7070898860693 4105.0765819698572 1952.7406394630671 1543.4495204240084 12057.349631503224 2942.0605664998293 2331.5381656140089 3383.6884762346745 3392.3788900375366 2245.9849171489477 2014.1007300913334 4691.4870437532663 3780.0956005007029 6953.4400908648968 4806.556312173605 2815.0910949259996 2554.5155189484358 1819.5834474265575 625.02365785837173 1012.9564199000597 1630.1056160479784
leaf_count=50602 32362 7846 11308 18820 11735 12771 51854 10038 13004 17676 17153 7532 6062 50091 11246 9266 14668 13386 8681 7919 18262 15955 28624 18633 11374 10232 6922 2482 3909 6355
internal_value=5.4605e-05 -0.0406554 0.0445044 -0.019172 -0.0650881 0.0232087 0.0665436 0.0566309 -0.0318519 0.033986 -0.0744283 -0.0510855 -0.0638035 -0.00777747 -0.0252128 0.0757801 0.0449545 -0.0566108 -0.0514932 0.0444355 -0.0292545 -0.0451963 0.0116752 0.0265819 0.0662174 0.0618524 -0.0155284 -0.0378083 -0.0281942 0.0500516
internal_weight=125044 65267.3 59776.2 34729.7 30537.6 30401 29375.2 14168.9 16437.8 15715.7 18318.5 12219.1 5648.53 18292 10976.7 15206.3 6333.4 8628.42 5638.36 6235.93 8034.61 5461.09 14685.3 9382.26 7932.96 5369.61 6234.61 3590.72 1637.98 4221.82
internal_count=506768 263688 243080 142146 121542 124734 118346 57226 66313 63748 73817 47725 23215 75833 42512 61120 27439 33802 22067 24312 31266 23801 60986 36309 32914 21606 25742 13923 6391 16393
is_linear=0
shrinkage=0.05


Tree=5
num_leaves=31
num_cat=0
split_feature=0 0 0 0 0 0 1 2 2 2 0 2 0 2 1 2 1 0 2 2 0 2 0 0 0 2 0 2 0 2
split_gain=81839.9 12057.2 11275.5 2001.83 1394.18 1242.57 1154.97 721.66 678.51 420.995 312.954 371.132 298.187 261.048 242.493 222.965 214.971 183.062 156.707 146.402 143.809 138.006 136.11 120.966 100.524 92.0943 110.085 88.5543 182.863 84.3135
threshold=1.0000000180025095e-35 -0.0042555252331720811 0.0036670889882519388 -0.0015269294314370235 0.0081142375025606891 0.0015478099335733378 0.4916666666666667 0.0056203554494434057 0.0055454217713467634 0.005402631673168067 -0.0095610860306833429 0.0093793744390982068 -0.00064712388135860696 0.0029635893104356195 0.39166666666666672 0.010801221383919033 0.74166666666666681 -0.0027631368027875749 0.0026547899422282779 0.0030220168890850102 0.00082369604956200105 0.011306973774065599 0.0052800795229584014 0.0025447311694879646 0.0052800795229584014 0.014054834163792924 0.023836209181766755 0.011174097726716077 -0.012361731042851837 0.01382847660686122
decision_type=2 2 2 2 2 2 2 2 2 2 2 2 2 2 2 2 2 2 2 2 2 2 2 2 2 2 2 2 2 2
left_child=1 6 5 8 7 20 10 24 13 18 29 -12 19 -3 -6 22 27 -15 -7 -5 -2 -10 -9 -20 -4 -16 -27 -8 -29 -1
right_child=2 3 4 12 14 9 16 15 21 -11 11 -13 -14 17 25 -17 -18 -19 23 -21 -22 -23 -24 -25 -26 26 -28 28 -30 -31
leaf_value=-0.07918950280297378 0.0049571810757259522 -0.058032047611360583 0.057321646771670148 -0.029247109658893374 0.075671451185932118 0.054036091259166232 -0.05916230381240687 0.037851163182952896 -0.025845695561984468 0.020652816541614386 -0.068448961221245594 -0.037857358456703939 -0.0040357123401834399 -0.047314324134340585 0.068232070344226931 0.028141648205399224 -0.037099035169572199 -0.030938113744102894 0.028558851427045302 -0.013226354364427456 0.014687342371366874 -0.0093448175802000547 0.053404055092917603 0.04249664679688573 0.070225285150354519 0.047918970576645979 0.073939395558044532 -0.062811720825630635 -0.033079257329075594 -0.068955726824889263
leaf_weight=8758.4627907425165 8399.9422079473734 2102.5448803156614 3060.5122588127851 1801.695565789938 12075.430222555995 1260.6638387441635 3744.3981640189886 2599.2275950610638 6182.3538892567158 6582.063345298171 6437.0313551127911 1171.9349245280027 10535.717932090163 2978.9360262155533 3126.2451836913824 2421.4942388087511 2526.1308161318302 3995.2583351135254 3517.7740734368563 6838.6041737645864 6930.4685284495354 1593.8075953871012 3066.1420359909534 2792.5447939187288 2977.9374481886625 1557.7456078380346 549.99768160283566 932.44056975841522 1161.0649361461401 2613.1106745153666
leaf_count=35250 34497 9765 13131 8428 49484 5921 14624 10161 23676 25371 26629 4602 44510 12153 12386 9493 9838 16291 14729 27171 28546 6165 12051 11686 12771 6354 2264 3760 4511 10542
internal_value=4.80723e-05 -0.0397307 0.0414301 -0.0207309 0.062263 0.0192185 -0.0647646 0.0506065 -0.0333028 0.0299015 -0.071586 -0.0637372 -0.00968206 -0.0425888 0.0717752 0.0408407 -0.0492848 -0.037933 0.0379421 -0.016567 0.00935593 -0.0224637 0.0462685 0.0347268 0.0636852 0.0627862 0.0547088 -0.0545577 -0.046322 -0.0768379
internal_weight=124292 63373.5 60918.2 36028.9 31434.7 29483.5 27344.6 14125.3 16852.9 14153 18980.5 7608.97 19176 9076.74 17309.4 8086.86 8364.03 6974.19 7570.98 8640.3 15330.4 7776.16 5665.37 6310.32 6038.45 5233.99 2107.74 5837.9 2093.51 11371.6
internal_count=506760 257915 248845 148159 128095 120750 109756 57607 68050 57707 77023 31231 80109 38209 70488 31705 32733 28444 32336 35599 63043 29841 22212 26415 25902 21004 8618 22895 8271 45792
is_linear=0
shrinkage=0.05


Tree=6
num_leaves=31
num_cat=0
split_feature=0 0 0 0 0 0 1 2 2 2 1 0 2 2 2 2 0 0 2 0 0 0 2 2 2 0 0 2 0 2
split_gain=74457.3 12985.3 8959.71 1604 1323.57 1170.02 1100.97 721.131 589.804 330.24 309.422 302.391 355.593 213.379 204.446 204.359 286.21 186.717 186.03 139.587 134.054 118.791 111.819 107.815 107.556 106.868 106.295 104.001 101.051 96.1578
threshold=-0.00018853637338820029 0.0033113478579660863 -0.0042555252331720811 0.0072708224011354614 0.0012429233223914496 -0.0017563448679345892 0.4916666666666667 0.0056203554494434057 0.0056203554494434057 0.0059627373267933147 0.40833333333333338 -0.0095610860306833429 0.0080884805144502778 0.003190158581615653 0.0029928573293169177 0.011043960659973184 -0.0089572873758641831 0.0020683717928130477 0.010801221383919033 0.00051898995391484466 -0.00087493134442615612 -0.0030832757566633686 0.011306973774065599 0.0040326325747893901 0.0025243449070337051 -0.00087493134442615612 0.0052800795229584014 0.0085384557368061113 -0.0069810177409832088 0.012652051221225442
decision_type=2 2 2 2 2 2 2 2 2 2 2 2 2 2 2 2 2 2 2 2 2 2 2 2 2 2 2 2 2 2
left_child=2 4 6 7 19 8 11 23 13 17 -5 -1 -13 -4 20 28 -17 -6 26 -2 -7 -15 -10 -3 -19 27 -9 -16 -8 -12
right_child=1 3 5 10 9 14 15 18 22 -11 29 12 -14 21 25 16 -18 24 -20 -21 -22 -23 -24 -25 -26 -27 -28 -29 -30 -31
leaf_value=-0.074229118966352869 0.0011363048729288859 0.065027383889033952 -0.055215898585474515 0.072517263047542344 0.023672428465089053 -0.035210186389008837 -0.063127703947737673 0.034966883398126321 -0.025500242076930787 0.015739275198351249 0.064415466904118451 -0.067173965873542671 -0.041265627018333362 -0.046612412110790619 -0.017895594458836771 -0.050854171751939473 -0.021843917987122471 0.058430008234098441 0.023728619602346322 0.010156001866187418 -0.015425616246817264 -0.03166434211267731 -0.0098322841066407988 0.051861601269188498 0.035131749614458974 -0.0056538856571548435 0.049003278129548307 -0.0018411596334169042 -0.048212654885596673 0.051387483642605869
leaf_weight=11187.318495213985 10227.406675204635 3209.9947658777237 2256.2572871595621 13098.112793669105 4497.0540937781334 1545.3975817263126 1802.0848986953497 3272.3539130836725 5406.8402442187071 5776.8945475518703 3165.0736575126648 5806.811438947916 1715.6880017668009 2082.9315912127495 5391.3429843187332 1890.1309788674116 1545.2912524193525 561.74069403111935 2254.7668139487505 7388.0331743210554 1919.7855233103037 3672.3761610239744 1442.5844576656818 3015.9641764760017 4192.3493236899376 5930.0221506506205 2294.5263939797878 1240.955669298768 3070.6555601358414 2563.4935499727726
leaf_count=45792 42385 14455 10392 54717 19104 7243 7137 12811 20750 22261 12723 24428 6803 8511 21624 7597 6000 2692 8849 30568 9103 14916 5573 12501 17557 23957 9080 4727 11999 10505
internal_value=4.69902e-05 0.0365566 -0.0412615 0.0587379 0.0142185 -0.0228673 -0.0622908 0.045952 -0.0329732 0.0251189 0.0682781 -0.0690167 -0.0612649 -0.0421834 -0.0134969 -0.0471443 -0.037805 0.030976 0.0358449 0.00491923 -0.0242491 -0.0370743 -0.0222004 0.0586496 0.0378847 -0.010531 0.0407523 -0.0148917 -0.0537287 0.0585855
internal_weight=123424 65517.8 57906.5 32874.3 32643.5 30888.5 27018 14047.6 14861 15028 18826.7 18709.8 7522.5 8011.57 16027.5 8308.16 3435.42 9251.14 7821.65 17615.4 3465.18 5755.31 6849.42 6225.96 4754.09 12562.3 5566.88 6632.3 4872.74 5728.57
internal_count=506760 270208 236552 135641 134567 126796 109756 57696 60142 61614 77945 77023 31231 33819 66654 32733 13597 39353 30740 72953 16346 23427 26323 26956 20249 50308 21891 26351 19136 23228
is_linear=0
shrinkage=0.05


Tree=7
num_leaves=31
num_cat=0
split_feature=0 0 0 0 0 0 1 2 2 2 0 2 0 1 0 2 2 1 0 2 1 0 2 2 0 0 2 2 2 0
split_gain=67762.4 10390.8 9821.23 1660.12 1193.18 1095.49 1055.42 586.3 578.729 423.236 311.015 407.255 243.231 229.86 208.269 188.391 185.714 181.719 140.34 121.109 117.525 116.869 107.961 106.963 98.1109 94.5633 180.153 84.9555 81.1398 140.648
threshold=1.0000000180025095e-35 -0.0042555252331720811 0.0039686841314122345 -0.0015269294314370235 0.0015478099335733378 0.0081142375025606891 0.50833333333333341 0.0056203554494434057 0.0039757198300581264 0.0064675496198330342 -0.011015924374743772 0.0096463518170881637 -0.00064712388135860696 0.4916666666666667 0.0027574996066390967 0.008610810416682076 0.0093793744390982068 0.74166666666666681 -0.0029210655487975938 0.0060020278484142035 0.45833333333333337 0.00082369604956200105 0.0032695298500403573 0.0024876802355517447 0.0052800795229584014 0.016310095775761372 0.010043732830160999 0.0051634396836277678 0.020670287921796777 -0.028929218988611297
decision_type=2 2 2 2 2 2 2 2 2 2 2 2 2 2 2 2 2 2 2 2 2 2 2 2 2 2 2 2 2 2
left_child=1 6 4 8 21 7 10 -4 20 14 28 27 19 25 23 18 24 -8 -10 -5 -3 -2 -16 -6 -9 26 -7 -12 -1 -30
right_child=2 3 5 12 9 13 17 16 15 -11 11 -13 -14 -15 22 -17 -18 -19 -20 -21 -22 -23 -24 -25 -26 -27 -28 -29 29 -31
leaf_value=-0.074052903262925837 0.0044798149846529871 -0.053184065325326414 0.060433463986909811 -0.018992610309535182 0.047499713013236473 0.069987433777839003 -0.049780795379903181 0.036029558181573572 -0.036014930760111273 0.016999825844778455 -0.069280067624490932 -0.034907571662371774 -0.0036506695157559194 0.05563190908198036 0.057122315277243742 -0.014174075735077918 0.028894906423705777 -0.033430232688029464 -0.02302191613541929 -0.0062403293851811875 -0.037544786509485908 0.013256891534479879 0.038294971788473034 0.026055010225640114 0.051462480166962823 0.074267552197891773 0.049052931038373902 -0.058701196682849122 -0.071064644898984883 -0.029539945596252316
leaf_weight=8867.6494055092335 8396.8615450710058 2273.5057602673769 5191.1917720586061 5907.5385970622301 652.67422267794609 5175.4809097796679 5286.4701291918755 1744.7627152353525 3481.6035517454147 5495.1615307927132 3989.0153476446867 1400.4598677307367 10535.663267090917 3418.0737158805132 1026.9570447057486 3273.8608714789152 2998.909738406539 2504.3291893303394 5156.1153230369091 2718.6459721773863 2547.0755068659782 6916.710681900382 2944.9283604174852 5330.5108882337809 2513.1920926570892 6837.5623791515827 1282.3008998930454 3620.1091660112143 698.05189020931721 288.07599428296089
leaf_count=36841 34497 10465 22924 25218 3140 22109 21081 6941 13789 21233 17378 5614 44510 14036 4762 12579 11820 9838 20183 10381 11034 28546 12107 22256 10131 29024 5319 14839 2947 1218
internal_value=4.5835e-05 -0.0363575 0.0380425 -0.0187961 0.018335 0.0588329 -0.0600067 0.0476037 -0.0303034 0.0281383 -0.0664008 -0.0596865 -0.00874796 0.0671964 0.0342867 -0.0243878 0.0384259 -0.044525 -0.028259 -0.0149736 -0.0449207 0.00844417 0.0431629 0.0283943 0.0451386 0.0701695 0.0658305 -0.0642471 -0.0725399 -0.0589341
internal_weight=122473 62548.2 59925.3 35894 30763.8 29161.5 26654.2 12448.1 16732.2 15450.2 18863.4 9009.58 19161.8 16713.4 9955.07 11911.6 7256.86 7790.8 8637.72 8626.18 4820.58 15313.6 3971.89 5983.19 4257.95 13295.3 6457.78 7609.12 9853.78 986.128
internal_count=506760 257915 248845 148159 126541 122304 109756 51816 68050 63498 78837 37831 80109 70488 42265 46551 28892 30919 33972 35599 21499 63043 16869 25396 17072 56452 27428 32217 41006 4165
is_linear=0
shrinkage=0.05


Tree=8
num_leaves=31
num_cat=0
split_feature=0 0 0 0 0 0 1 2 2 2 0 2 1 2 2 0 2 2 0 0 0 0 2 0 0 0 2 2 2 2
split_gain=61754.6 11436.1 7652.93 1487.75 1119.11 1036.31 930.939 676.026 556.289 286.2 248.992 349.583 240.336 213.111 197.685 257.71 191.031 171.808 131.217 129.644 125.293 125.187 120.369 107.095 101.451 96.7029 96.154 89.4441 89.11 84.8979
threshold=-0.0002101955344606096 0.0033113478579660863 -0.0044797613569089413 0.0078839455222821566 0.0011960161870887824 -0.0019459798235754828 0.47500000000000003 0.0056203554494434057 0.0056203554494434057 0.004973144763020171 -0.011874700888931637 0.0099410151366273406 0.39166666666666672 0.0029928573293169177 0.0084032490085194384 -0.0089572873758641831 0.010801221383919033 0.0028451869261174154 0.0021311731205286679 0.0052800795229584014 0.0052800795229584014 -0.00097042823195595213 0.011306973774065599 0.00051898995391484466 -0.00087493134442615612 -0.0030832757566633686 0.021426557196028116 0.0085384557368061113 0.0031358422501263535 0.013623626597903426
decision_type=2 2 2 2 2 2 2 2 2 2 2 2 2 2 2 2 2 2 2 2 2 2 2 2 2 2 2 2 2 2
left_child=2 4 6 7 23 8 10 20 17 18 -1 -12 -5 21 -8 -16 19 -4 -6 -9 28 -7 -10 -2 27 -19 -17 -15 -3 -14
right_child=1 3 5 12 9 13 14 16 22 -11 11 -13 29 24 15 26 -18 25 -20 -21 -22 -23 -24 -25 -26 -27 -28 -29 -30 -31
leaf_value=-0.071049486047261953 0.00092460695848825395 0.062656324625904522 -0.056950605934101561 0.068886413316653725 0.023391776180096597 -0.034856307325284767 -0.054302222507836229 0.032048210541127914 -0.024627746003402132 0.01582737995308962 -0.063230411886800161 -0.034541160310444616 0.061369159089807439 -0.016636048551587894 -0.049956374714391703 -0.029888872968831127 0.022479775843625496 -0.044582778995166189 0.036612653386251193 0.04676151611597703 0.06369625396418592 -0.015884181216754719 -0.0083448333093049613 0.0089071542434744026 -0.0052696006956677874 -0.03185670916447899 0.0072166458038059366 -0.0030356324628866517 0.045176230283137747 0.048455634859134469
leaf_weight=8740.9619913995266 10668.139562785625 976.58003486692905 1371.0267543494701 11608.024687260389 4080.1943238973618 1546.559375539422 3184.5142021179199 3238.28754375875 5269.8347742110491 7819.4775212556124 7250.4186523556709 1244.0056384950876 3050.44276496768 6382.844654738903 2422.9605114161968 2322.8833376467228 2530.7018231898546 2629.192926466465 3475.2726546376944 2784.5887252539396 2671.6311395615339 1986.1016736030579 1446.5341199487448 6931.9022006243467 5628.1510515064001 3453.5876126289368 188.78395448625088 1491.3475913256407 2876.8902266919613 2184.018130376935
leaf_count=37143 44451 4668 6618 50521 17807 7296 12780 12811 20393 30384 31272 5044 12670 25658 9883 9131 10015 10999 15277 11286 12012 9365 5605 28714 22613 14256 749 5681 12401 9257
internal_value=4.47804e-05 0.0333291 -0.0381454 0.0546621 0.0126778 -0.0215669 -0.0585494 0.0432539 -0.0315573 0.022533 -0.0651252 -0.0590289 0.0648756 -0.0132566 -0.0445902 -0.0383227 0.0340071 -0.0409613 0.029473 0.0388507 0.0553752 -0.02419 -0.0211208 0.00406859 -0.010396 -0.0373574 -0.0270999 -0.0140602 0.0496062 0.0559811
internal_weight=121456 64896.2 56559.7 31921.2 32975 31205.2 25354.5 15078.7 14170.2 15374.9 17235.4 8494.42 16842.5 17035 8119.14 4934.63 8553.58 7453.81 7555.47 6022.88 6525.1 3532.66 6716.37 17600 13502.3 6082.78 2511.67 7874.19 3853.47 5234.46
internal_count=506760 272274 234486 135641 136633 128484 106002 63193 57871 63468 73459 36316 72448 70613 32543 19763 34112 31873 33084 24097 29081 16661 25998 73165 53952 25255 9880 31339 17069 21927
is_linear=0
shrinkage=0.05


Tree=9
num_leaves=31
num_cat=0
split_feature=0 0 0 0 0 0 1 2 2 2 1 1 0 2 2 0 2 2 0 2 2 2 0 0 0 0 2 0 0 2
split_gain=56271.4 10503.2 7327.95 1219.19 1202.75 988.159 904.166 588.703 513.116 308.239 235.326 224.8 201.896 220.851 186.7 174.83 161.598 152.786 126.245 112.802 109.538 107.001 213.821 105.082 99.8309 95.3859 177.105 92.1554 91.7601 80.9557
threshold=-0.00018853637338820029 0.0036670889882519388 -0.0044797613569089413 0.0015478099335733378 0.0081142375025606891 -0.0019459798235754828 0.40833333333333338 0.0059222825954633436 0.0056203554494434057 0.0048154894649320877 0.7250000000000002 0.4916666666666667 -0.0092574236809428046 0.0080884805144502778 0.0029928573293169177 0.0007372631595216132 0.0030797345944180141 0.010801221383919033 -0.00097042823195595213 0.0026547899422282779 0.011306973774065599 0.0097392817093195447 -0.012361731042851837 0.0054157694622123621 -0.00087493134442615612 0.016310095775761372 0.010043732830160999 -0.0030832757566633686 0.0052800795229584014 0.0085384557368061113
decision_type=2 2 2 2 2 2 2 2 2 2 2 2 2 2 2 2 2 2 2 2 2 2 2 2 2 2 2 2 2 2
left_child=2 3 6 15 7 8 12 23 16 19 21 25 -1 -14 18 -2 -4 28 -7 -5 -10 -8 -23 -3 29 26 -6 -18 -9 -16
right_child=1 4 5 9 11 14 10 17 20 -11 -12 -13 13 -15 24 -17 27 -19 -20 -21 -22 22 -24 -25 -26 -27 -28 -29 -30 -31
leaf_value=-0.068486956762183623 0.0019116773715688222 0.0483737565699697 -0.052229679587551259 0.046699188302049693 0.066095718920044053 -0.033282869614003792 -0.054623557915480549 0.031090752854695924 -0.02347185346584418 0.018100353367819243 -0.03174510701742219 0.051695572709336973 -0.061585906775037405 -0.036237405790619286 -0.015825212050362965 0.01143555339789918 -0.042353191784875587 0.023044372722271361 -0.014479819658905879 0.029731548784732782 -0.0079309843063544751 -0.056711534274689571 -0.030585712466097273 0.061403494093874168 -0.0047794758507718575 0.070527725491583468 0.044963097868172125 -0.029402700806051597 0.044770403335103119 -0.0028841363467904482
leaf_weight=9837.1501317620277 12550.492354527116 3376.0006577074528 1804.6105650812387 1219.3369329124689 4951.9379795342684 1538.8859654963017 4168.6575405597687 2276.0120210051537 5253.3117139488459 7724.8990122228861 2556.4840403348207 3317.3415070772171 4139.8524776101112 1084.3486805260181 6374.6012476086617 7821.7944932132959 2426.5832423567772 2384.7744543999434 2125.8632653802633 4980.4012605547905 1445.9309617877007 1432.1323658227921 1728.245950371027 2856.7824210971594 5928.3028175234795 6527.4037381857634 1239.6173908859491 3165.9097119122744 2656.8645462840796 1491.2037143707275
leaf_count=42852 52045 15140 8644 5921 22109 7296 17180 9086 20393 30193 10168 14036 18418 4408 25658 32361 10183 9493 10087 21593 5605 6035 6941 12999 23957 29024 5319 13046 10889 5681
internal_value=4.36709e-05 0.0321924 -0.036305 0.0133621 0.0540204 -0.0202946 -0.0565565 0.0430535 -0.0301416 0.0247648 -0.044807 0.0632873 -0.0642683 -0.0563245 -0.0123442 0.0055683 -0.03922 0.0334352 -0.0223755 0.0330687 -0.0201176 -0.0493632 -0.0424247 0.0543459 -0.00967909 0.0663106 0.0618647 -0.0350219 0.0384587 -0.0133718
internal_weight=120386 63883.7 56502.1 34296.9 29586.7 31555.2 24946.9 13550.4 14096.3 13924.6 9885.52 16036.3 15061.4 5224.2 17458.9 20372.3 7397.1 7317.65 3664.75 6199.74 6699.24 7329.04 3160.38 6232.78 13794.1 12719 6191.56 5592.49 4932.88 7865.8
internal_count=506760 270208 236552 142113 128095 130550 106002 57607 57871 57707 40324 70488 65678 22826 72679 84406 31873 29468 17383 27514 25998 30156 12976 28139 55296 56452 27428 23229 19975 31339
is_linear=0
shrinkage=0.05


Tree=10
num_leaves=31
num_cat=0
split_feature=0 0 0 1 0 0 0 2 2 2 0 0 2 2 2 2 0 2 0 0 0 1 1 2 2 2 0 1 0 2
split_gain=51624.3 9000.45 7538.65 1300.47 1054.31 1020.09 783.665 584.444 405.222 395.251 379.379 276.247 332.875 211.298 185.303 150.654 144.669 143.643 156.888 125.135 124.052 123.35 122.38 113.149 100.16 91.3472 87.4477 83.8509 74.4103 70.6205
threshold=0.00023185267059548049 -0.003437849676894659 0.0045190251932224696 0.42500000000000004 -0.0010141563595846704 0.0020683717928130477 0.010716346428551614 0.0092976279772997942 0.0060426699880903106 0.004059319590834355 -0.0067728113335427899 -0.0063904974554784321 0.010141318371844923 0.0057693051453959624 0.0048773025358990795 0.0028451869261174154 -0.0022019958009896648 0.011043960659973184 -0.012361731042851837 0.0061907165831055514 0.0010978321816592109 0.62500000000000011 0.45833333333333337 0.0051634396836277678 0.004973144763020171 0.0060020278484142035 -0.0002101955344606096 0.17500000000000002 0.0030638188082763034 0.010801221383919033
decision_type=2 2 2 2 2 2 2 2 2 2 2 2 2 2 2 2 2 2 2 2 2 2 2 2 2 2 2 2 2 2
left_child=1 3 5 10 9 20 7 14 15 22 27 17 23 -12 -4 -7 25 -5 -19 -16 -2 -8 -3 -13 -22 -11 -6 -1 -17 -29
right_child=2 4 6 11 26 8 21 -9 -10 16 13 12 -14 -15 19 28 -18 18 -20 -21 24 -23 -24 -25 -26 -27 -28 29 -30 -31
leaf_value=-0.06907648129021178 0.0062367319164953802 -0.041716461555920771 0.061610926897144341 -0.054837218872942795 -0.0077164593979055524 0.051189345246601826 0.065903407858067614 0.030179211315545813 0.018525445304664181 -0.030491652030597529 -0.056486749358254519 -0.048741736881827327 -0.011971430841779727 -0.034371867724597861 0.038570214123702963 0.027541986198066692 -0.011591316304177512 -0.05069999396622038 -0.027937014400548715 0.05353719086008063 0.019980560756151289 0.047325644349480958 -0.026916849876248261 -0.03269501963272943 0.0090042686409067818 -0.017174022397101672 -0.00034923575743779438 -0.064769301818864047 0.038422395264366353 -0.053449277361010267
leaf_weight=6240.5172289311886 9182.1664581596851 2247.1020582765341 3948.4551886320114 2879.4193882793188 8809.1187805980444 1361.8237569630146 10844.945556282997 3817.7751755565405 5727.8323239386082 2224.9997976571321 2877.7444747537374 1705.2376386523247 1584.9341588914394 1729.0829035937786 2319.2518760710955 3223.003855779767 6366.2052782475948 1503.3746307790279 1524.5957682430744 3510.1858282312751 4292.03676854074 973.72249482572079 3691.6693002581596 3087.6796187460423 4029.7437595427036 3056.240082859993 7421.2327175140381 3950.3909012675285 3066.4303539246321 2115.630735874176
leaf_count=28070 38198 10576 18766 12026 36823 6682 49171 15677 22501 8950 13247 7196 6219 7100 9705 13682 24862 6435 6099 15100 18856 4229 16253 12381 15605 11811 30925 17391 13245 9269
internal_value=-9.84116e-06 -0.0310966 0.0347864 -0.0514325 -0.0135378 0.0181886 0.0549558 0.0467697 0.0285826 -0.0220192 -0.0604257 -0.0390513 -0.0318355 -0.0481864 0.0532474 0.0361115 -0.0166667 -0.0468419 -0.0392387 0.0475826 0.0102439 0.0643728 -0.0325167 -0.0384042 0.0146654 -0.0227848 -0.00434784 -0.0650074 0.0328468 -0.0608212
internal_weight=119313 63015.2 56297.4 29198.6 33816.6 30883 25414.3 13595.7 13379.1 17586.2 16913.4 12285.2 6377.85 4606.83 9777.89 7651.26 11647.4 5907.39 3027.97 5829.44 17503.9 11818.7 5938.77 4792.92 8321.78 5281.24 16230.4 12306.5 6289.43 6066.02
internal_count=507050 265633 241417 125433 140200 128769 112648 59248 56110 72452 75077 50356 25796 20347 43571 33609 45623 24560 12534 24805 72659 53400 26829 19577 34461 20761 67748 54730 26927 26660
is_linear=0
shrinkage=0.05


Tree=11
num_leaves=31
num_cat=0
split_feature=0 0 0 0 0 1 1 2 2 0 2 0 0 2 0 2 1 2 2 2 0 0 2 2 0 2 0 0 2 2
split_gain=47091.3 8850.1 6720.83 1518.23 971.566 937.768 664.661 465.335 399.878 279.925 319.873 239.58 220.78 221.898 153.42 211.887 150.294 150.003 137.119 132.899 125.526 122.883 105.051 95.3655 178.097 94.9497 87.4836 81.6331 135.149 78.4167
threshold=0.00036589906189454601 -0.0043662502014527134 0.0048789584378387488 -0.0015839358213938703 0.0023287838095832642 0.50833333333333341 0.44166666666666671 0.0048773025358990795 0.0040892256222389818 -0.0092574236809428046 0.0094646808024827066 -0.00047632490905898751 0.011489718773638356 0.0075022490883919993 0.011103762122098111 0.012003714958166638 0.79166666666666685 0.002721248525825093 0.011306973774065599 0.0084694039195550661 0.0014439862380661195 -0.0024772963017319957 0.0062092897450268048 0.01382847660686122 -0.020024574369378084 0.0024876802355517447 -0.0024772963017319957 -0.0095610860306833429 0.011043960659973184 0.0047843498416134571
decision_type=2 2 2 2 2 2 2 2 2 2 2 2 2 2 2 2 2 2 2 2 2 2 2 2 2 2 2 2 2 2
left_child=1 5 4 7 20 9 12 17 -6 23 29 22 13 -4 15 -8 27 -3 26 -10 -2 -19 -5 -1 -25 -22 -9 -7 -29 -11
right_child=2 3 6 11 8 16 14 18 19 10 -12 -13 -14 -15 -16 -17 -18 21 -20 -21 25 -23 -24 24 -26 -27 -28 28 -30 -31
leaf_value=-0.066661661611621528 0.0079883583877399036 -0.050234869034154951 0.059247661447055122 -0.014574268701383323 0.043463194282085379 -0.050176504977501639 0.044182357777412543 -0.02561940200520221 0.027992746293762721 -0.061914778623333437 -0.025873245088775688 -0.001172657648562553 0.065735704440398335 0.039205001038798676 0.0537129279164602 0.022718546967450896 -0.024117811133442857 -0.038600582802829138 -0.0054495103202162167 0.01511766645440699 0.037036253554626718 -0.023747254090811899 -0.003772267322716578 -0.063790829724927459 -0.033543861172298906 0.014898570601647933 -0.014649193379715951 -0.042683185525867862 -0.021081932003676494 -0.050141830048031633
leaf_weight=8130.6788683533669 11007.599270686507 1415.4991081357002 5005.9336673542857 7712.7847868353128 3605.5835397392511 1817.9737714529037 4291.3157173842192 4778.581404954195 6146.1174390017986 2697.7354732900858 1064.6165391355753 11966.088588029146 8548.3028901517391 1907.0532392337918 2281.7002066001296 1570.672551676631 1606.5423756688833 3148.5464798957109 1620.9835734814405 2974.2207609862089 523.62596520781517 2496.6077130734921 3178.2838209420443 1744.8910564631224 674.90778003633022 6459.3089415878057 2932.6634248793125 2928.6519999951124 961.92114587128162 2973.3306956142187
leaf_count=37031 45898 7066 23633 33081 17004 7755 18499 18918 25220 12764 4357 49904 40069 8111 10105 6526 6453 13660 6263 11698 2580 10628 12135 7944 3024 26479 11361 12111 3807 12966
internal_value=-8.78109e-06 -0.0291215 0.0342113 -0.0143842 0.0187938 -0.0526341 0.0542735 -0.025996 0.0293668 -0.0589844 -0.0510213 -0.00605629 0.0603627 0.0537186 0.0427129 0.0384313 -0.0376276 -0.0356809 -0.0186685 0.0237941 0.0113149 -0.0320316 -0.011422 -0.0640683 -0.0553546 0.0165586 -0.0214473 -0.0414296 -0.0373424 -0.0557422
internal_weight=118173 63851.3 54321.4 39250 30716.5 24601.2 23605 16392.9 12725.9 17286.2 6735.68 22857.2 15461.3 6912.99 8143.69 5861.99 7315.09 7060.65 9332.23 9120.34 17990.5 5645.15 10891.1 10550.5 2419.8 6982.93 7711.24 5708.55 3890.57 5671.07
internal_count=507050 271228 235822 163016 128879 108212 106943 67896 53922 78086 30087 95120 71813 31744 35130 25025 30126 31354 36542 36918 74957 24288 45216 47999 10968 29059 30279 23673 15918 25730
is_linear=0
shrinkage=0.05


Tree=12
num_leaves=31
num_cat=0
split_feature=0 0 0 0 0 1 1 2 2 0 2 0 2 0 0 2 1 2 2 2 0 1 2 2 0 0 2 0 0 2
split_gain=42969.3 7934.32 6737.36 1278.43 985.479 913.315 651.89 429.996 374.019 278.466 345.359 266.026 247.825 188.608 144.792 142.67 140.868 124.821 124.239 122.107 118.542 117.13 91.5893 88.7543 141.119 84.5403 107.603 81.8171 78.1196 130.918
threshold=0.00023185267059548049 -0.0043662502014527134 0.0048789584378387488 -0.0015839358213938703 0.0023287838095832642 0.50833333333333341 0.4916666666666667 0.0048773025358990795 0.0040892256222389818 -0.011015924374743772 0.0095569075120130048 0.011489718773638356 0.0074450613221999466 -0.00069348975554825616 0.0010978321816592109 0.0029928573293169177 0.79166666666666685 0.011306973774065599 0.0064675496198330342 0.0084694039195550661 -0.0030832757566633686 0.7250000000000002 0.003646584125287912 0.015640394714590618 -0.022753123580961234 0.010024883586420978 0.010242921970132273 -0.0029210655487975938 -0.0089572873758641831 0.0072838630043784757
decision_type=2 2 2 2 2 2 2 2 2 2 2 2 2 2 2 2 2 2 2 2 2 2 2 2 2 2 2 2 2 2
left_child=1 5 4 7 14 9 11 15 -6 23 -11 12 -4 22 -2 -3 28 27 -16 -10 -17 25 -5 -1 -25 26 -8 -9 -7 -30
right_child=2 3 6 13 8 16 21 17 19 10 -12 -13 -14 -15 18 20 -18 -19 -20 -21 -22 -23 -24 24 -26 -27 -28 -29 29 -31
leaf_value=-0.065988828743572245 0.0055990183974686967 -0.04553280641787899 0.057173771648682814 -0.01948013635782736 0.041846215432573178 -0.047701792011724364 0.045202312870891749 -0.026136915737363344 0.026763097883354334 -0.055282053626097206 -0.027647896250309528 0.064043366747586414 0.037486787776122639 -0.0024448688907288264 0.018017115418812416 -0.040656118643136237 -0.023018299318623946 -0.0051787299211415311 0.0061234130871543405 0.014398862159744369 -0.024306067087427542 0.030182634601347364 -0.0084339267794223474 -0.062107418541765769 -0.030244265785784874 0.053342296595586994 0.024061759369282933 -0.015769089281584783 -0.045867645975831567 -0.026770260967701229
leaf_weight=7059.0705696567893 9174.5171258449554 1986.6699067056179 5312.7727197185159 2776.6258802711964 3558.8640030622482 2022.0315819680691 2104.4397923275828 3468.4815903902054 6108.0658474564552 6734.0965768173337 1358.7540087029338 8733.7102852165699 2286.5478231906891 12906.626932054758 6956.3929684311152 1654.4609331041574 1599.3055248856544 1620.4664731323719 3208.2785948812962 2966.7563043534756 3360.0732676833868 2204.6666660159826 5788.8498371392488 1273.7495149746537 477.86268988251686 1631.3745697885752 843.0348354279995 4215.6361584961414 1642.4259173870087 1978.3773030489683
leaf_count=33007 38198 9850 25590 12755 17004 8738 9277 13882 25220 31232 5687 42014 9842 53974 29966 7290 6453 6263 12388 11698 14214 9406 22796 5981 2179 7292 3522 16397 6908 8027
internal_value=-7.9616e-06 -0.0285864 0.0321158 -0.0142778 0.0172478 -0.0509734 0.0526799 -0.0248327 0.0281085 -0.0573385 -0.0506424 0.058091 0.0512502 -0.0062624 0.0101529 -0.0341931 -0.0361169 -0.0177895 0.0142631 0.022721 -0.0297005 0.0396512 -0.0120147 -0.063489 -0.0534147 0.0442102 0.0391557 -0.020449 -0.0398293 -0.035433
internal_weight=117013 61923.6 55089.4 37777.9 31972.9 24145.7 23116.5 16305.8 12633.7 16903.5 8092.85 16333 7599.32 21472.1 19339.2 7001.2 7242.14 9304.58 10164.7 9074.82 5014.53 6783.52 8565.48 8810.68 1751.61 4578.85 2947.47 7684.12 5642.83 3620.8
internal_count=507050 265633 241417 157421 134474 108212 106943 67896 53922 78086 36919 77446 35432 89525 80552 31354 30126 36542 42354 36918 21504 29497 35551 41167 8160 20091 12799 30279 23673 14935
is_linear=0
shrinkage=0.05


Tree=13
num_leaves=31
num_cat=0
split_feature=0 0 0 0 0 1 1 2 2 0 2 0 1 0 2 2 2 2 2 0 0 1 2 0 2 0 2 2 0 0
split_gain=39231.9 8001.88 5799.67 1326.19 935.675 894.943 534.152 395.808 387.509 229.544 222.525 202.396 177.983 175.028 209.009 138.575 136.198 120.268 119.778 118.339 118.261 115.932 90.1106 89.7013 155.591 78.8196 122.116 77.698 162.42 75.4237
threshold=0.00043409841601350728 -0.0043662502014527134 0.0054157694622123621 -0.0015269294314370235 0.0024750106103445919 0.44166666666666671 0.44166666666666671 0.0048773025358990795 0.0059222825954633436 -0.0089572873758641831 0.0093793744390982068 -0.00047632490905898751 0.70833333333333337 0.011909504851940091 0.0075022490883919993 0.0028451869261174154 0.0029928573293169177 0.0065589037207661955 0.011571581382151865 0.0013957404958752416 -0.0030832757566633686 0.70833333333333337 0.0030220168890850102 -0.0098966511690980006 0.010043732830160999 0.010024883586420978 0.0091286506428922918 0.016582972222398417 -0.024462805231424259 -0.0024772963017319957
decision_type=2 2 2 2 2 2 2 2 2 2 2 2 2 2 2 2 2 2 2 2 2 2 2 2 2 2 2 2 2 2
left_child=1 5 4 7 17 9 13 16 15 27 -11 22 23 14 -4 -6 -3 19 29 -2 -18 25 -5 -7 -25 26 -8 -1 -29 -9
right_child=2 3 6 11 8 12 21 18 -10 10 -12 -13 -14 -15 -16 -17 20 -19 -20 -21 -22 -23 -24 24 -26 -27 -28 28 -30 -31
leaf_value=-0.06334874004441414 0.009368743252881338 -0.043248243986863805 0.057742416093110704 -0.019137653841284283 0.052208350792214864 -0.050445154572183973 0.047722882833401335 -0.023192325990897534 0.019661695577960766 -0.052884609360456671 -0.02436397292365363 -0.00079536401338472845 -0.026607072336172308 0.063127392565195062 0.037447875226202722 0.033498771034065782 -0.039086453534478122 0.004664473981318527 -0.0040232548331780877 0.019043760298925502 -0.022802473692784288 0.031150972928599738 -0.0077596566238131194 -0.043360586132568713 -0.020963232653125396 0.052870224704842983 0.026088163602842326 -0.061628058949518741 -0.023788679476553623 -0.013252600380414536
leaf_weight=8202.5454850494862 7092.3687778115273 2042.1221258789301 4372.5685318261385 2210.2271561473608 1195.1207044571638 1975.6007368713617 1819.2286073863506 4803.6187865436077 6395.7682054787874 4475.9899493232369 807.25646394491196 12851.086439147592 2886.5372014343739 7806.7406612485647 1787.2121619954705 5757.4726362377405 1635.3495474308729 5203.5074967741966 1542.9263468980789 5701.1972638964653 3503.8385734856129 2039.94201964885 8181.7112345844507 2918.102430947125 1056.0222085118294 2030.7407217472792 1016.7984360828996 960.60022969543934 402.38213092088699 3166.6925716400146
leaf_count=39418 30321 10253 21676 10483 6209 8826 8262 19173 25712 21350 3345 53778 11817 38758 7885 25839 7290 20042 5986 24713 14894 8857 32737 12629 4289 9345 4329 4650 1888 12296
internal_value=-7.1926e-06 -0.0263684 0.032111 -0.0127129 0.0185132 -0.0493941 0.0525307 -0.0234637 0.028544 -0.0568917 -0.0485268 -0.00499105 -0.036795 0.0581554 0.0518541 0.0367149 -0.0323248 0.0110735 -0.0167747 0.0136802 -0.0279842 0.0411567 -0.0101796 -0.0417377 -0.0374091 0.0453506 0.0399662 -0.0615118 -0.050457 -0.0192432
internal_weight=115841 63622.6 52218.7 39937.6 31345.4 23685 20873.2 16694.5 13348.4 14848.8 5283.25 23243 8836.26 13966.5 6159.78 6952.59 7181.31 17997.1 9513.24 12793.6 5139.19 6906.71 10391.9 5949.73 3974.12 4866.77 2836.03 9565.53 1362.98 7970.31
internal_count=507050 275102 231948 166890 132836 108212 99112 69892 57760 70651 24695 96998 37561 68319 29561 32048 32437 75076 37455 55034 22184 30793 43220 25744 16918 21936 12591 45956 6538 31469
is_linear=0
shrinkage=0.05


Tree=14
num_leaves=31
num_cat=0
split_feature=0 0 0 0 0 0 1 2 2 2 2 0 1 0 2 0 2 2 2 2 2 0 0 0 0 0 2 0 2 2
split_gain=35828 7714.22 5492.28 1040.83 809.64 775.535 715.569 489.883 476.657 304.647 183.2 220.257 160.524 158.277 229.592 149.465 134.598 127.818 117.587 117.531 115.407 110.339 109.833 95.4117 95.0948 83.1449 76.5158 75.0436 155.78 69.2292
threshold=-0.00018853637338820029 0.004406588321919697 -0.0049986667887990752 0.0015478099335733378 -0.0020102289484215138 0.0097087024008106083 0.40833333333333338 0.0056571882864003336 0.0071287281588290037 0.0045754340034920354 0.0099410151366273406 -0.012361731042851837 0.62500000000000011 -0.012869885850800471 0.0099410151366273406 0.0028355791820639702 0.0032166869569370282 0.0029635893104356195 0.0040036212095211207 0.012652051221225442 0.011306973774065599 -0.0032561827577851691 0.00064652987938167942 0.0061907165831055514 0.0028355791820639702 -0.00097042823195595213 0.0084694039195550661 0.019962967522780449 0.010141318371844923 0.011432119379899712
decision_type=2 2 2 2 2 2 2 2 2 2 2 2 2 2 2 2 2 2 2 2 2 2 2 2 2 2 2 2 2 2
left_child=2 3 6 22 7 8 13 17 18 15 -8 -12 27 -1 -15 -5 25 -4 -3 -10 -9 -19 -2 -20 -11 -6 -26 28 -7 -18
right_child=1 5 4 9 16 12 10 20 19 24 11 -13 -14 14 -16 -17 29 21 23 -21 -22 -23 -24 -25 26 -27 -28 -29 -30 -31
leaf_value=-0.062496550668799271 0.0011653203738266555 0.057927868118266293 -0.047082914994934583 0.023498036796839455 -0.025107444569789129 0.060782455735848999 -0.045703223995684682 -0.019636854475941715 0.033421700506313816 0.011216909863629531 -0.045194864041937448 -0.021621287095948023 0.039472880105123939 -0.055361210585838733 -0.028456860155596932 0.039021959828939468 -0.0083113374803616882 -0.038645782539787482 0.036163891091882686 0.017462785424652849 -0.0046524751638149049 -0.025101330738954958 0.0086013398920793977 0.050878320668044867 0.025549854244701416 -0.011281911221697123 0.012669619297257862 0.064168469458399768 0.042944584189037391 0.0045115234603437665
leaf_weight=6524.8213897496462 11548.171875908971 2206.5463721007109 1561.6336259022355 3863.9035190045834 1916.4752463549376 4323.5974801108241 4065.7969861403108 5646.0881357043982 3731.7251076921821 5312.0169244557619 1621.2454001605511 2548.4089443311095 1113.3468736708164 5361.4798042327166 930.59442887455225 2589.743831679225 12209.124961346388 2682.18242149055 2125.3288090899587 1669.9645935446024 1663.5915403366089 3422.1144052296877 8712.1499622017145 2287.3310927003622 3152.573333799839 2513.9164945483208 1817.9420519322157 4684.0595600455999 1707.2583369836211 1151.9000743478537
leaf_count=32317 47953 11709 8051 17748 9210 21878 17944 22561 16081 21032 7395 10511 5149 26321 4096 12552 49047 12083 9704 6994 6481 14488 36234 10949 12953 11819 7204 23899 8230 4457
internal_value=-6.44347e-06 0.0262793 -0.0297239 0.0119852 -0.0169209 0.0484533 -0.049651 -0.0254876 0.0395095 0.0212125 -0.0381511 -0.0307872 0.0575429 -0.0570402 -0.0513821 0.0297275 -0.00971013 -0.0343182 0.0485037 0.0284879 -0.0162266 -0.0310527 0.00436289 0.0437912 0.0158682 -0.0172625 0.020839 0.0594205 0.0557328 -0.00720583
internal_weight=114665 60845.7 53819.4 36996.5 32767 23849.2 21052.3 14975.6 12020.9 16736.2 8235.45 4169.65 11828.3 12816.9 6292.07 6453.65 17791.4 7665.93 6619.21 5401.69 7309.68 6104.3 20260.3 4412.66 10282.5 4430.39 4970.52 10714.9 6030.86 13361
internal_count=507050 270269 236781 155676 138197 114593 98584 63664 55437 71489 35850 17906 59156 62734 30417 30300 74533 34622 32362 23075 29042 26571 84187 20653 41189 21029 20157 54007 30108 53504
is_linear=0
shrinkage=0.05


Tree=15
num_leaves=31
num_cat=0
split_feature=0 0 0 0 1 1 0 2 2 0 2 2 0 1 1 2 0 2 0 0 2 2 0 2 0 2 2 2 0 2
split_gain=32708.5 6132.75 6108.57 1046.2 770.328 757.881 736.694 405.129 279.751 278.406 215.224 197.761 207.015 177.959 168.965 164.079 156.835 215.279 129.97 102.35 129.561 96.897 95.4142 102.218 94.5287 86.8809 82.7517 82.1811 80.3025 57.915
threshold=1.0000000180025095e-35 0.004406588321919697 -0.0049986667887990752 -0.0016983771496351288 0.45833333333333337 0.39166666666666672 0.002002667103531718 0.0054733264677985869 0.0070792375083517352 0.010358347346746349 0.006983540485747456 0.0084694039195550661 -0.010634085348250727 0.74166666666666681 0.39166666666666672 0.0029635893104356195 -0.011874700888931637 0.0080884805144502778 -0.00087493134442615612 0.0081142375025606891 0.0050042093484094054 0.010682737133142941 0.00086562173714203666 0.0026547899422282779 -0.0030832757566633686 0.0027524352076086426 0.003646584125287912 0.015640394714590618 0.0030638188082763034 0.0038072239849922937
decision_type=2 2 2 2 2 2 2 2 2 2 2 2 2 2 2 2 2 2 2 2 2 2 2 2 2 2 2 2 2 2
left_child=2 6 5 7 9 16 22 14 15 10 -3 -7 -13 19 25 -8 -1 -18 26 20 -6 -9 -2 -24 -16 -4 -5 -14 -17 -20
right_child=1 4 3 18 13 11 8 21 -10 -11 -12 12 27 -15 24 28 17 -19 29 -21 -22 -23 23 -25 -26 -27 -28 -29 -30 -31
leaf_value=-0.061273546888975121 0.0031386356786802351 0.052086722005954184 -0.055834044791852049 -0.019631737996523055 0.052063202263084335 -0.046293714128352981 0.042594879803947903 -0.018800570992597979 0.011820609466275701 0.059655723448603884 0.032562826149199121 -0.041915664001383045 -0.026642437454904674 0.02275823887323946 -0.034642454557601635 0.019536035771614804 -0.055384241895875208 -0.031952700661130644 -0.0077190087950732636 0.046358475032596137 0.027990805910051528 -0.0066215318145646622 0.024242606388776459 0.0084382709005671568 -0.02106613753353552 -0.035866329203544316 -0.0083163321363708947 -0.0072366779359914219 0.030081349204456816 -0.00086238130002372392
leaf_weight=6693.0815656930208 8861.9085842818022 4479.2282055467367 717.1774206161499 2343.2606762349606 715.00156323611736 3288.8153847381473 1490.7043725550175 6411.907929174602 4225.9782462567091 8502.0919676870108 2061.0706078857183 2289.2173439860344 2213.3607661724091 2267.4076291844249 1996.8443750664592 3926.2564554661512 4137.2865569889545 1284.6257683858275 5086.8058266192675 2725.7604197710752 2561.1080498024821 2191.2688902765512 1155.8135268092155 8909.3466447591782 3582.3298554718494 2266.0045188069344 5204.3036911934614 724.03750558197498 3341.9336808398366 7805.249668866396
leaf_count=34226 36483 23075 4034 10951 3569 14928 7741 25676 16745 44705 9133 10572 9247 9843 8975 16823 20958 5787 23371 12878 11176 8551 5587 36459 15650 10479 20524 2965 14796 30945
internal_value=-0.000112902 0.0274556 -0.0262555 -0.0142612 0.0469507 -0.0481188 0.0132144 -0.0233616 0.0223863 0.0536897 0.0459341 -0.036688 -0.0306437 0.0346919 -0.0310613 0.027484 -0.0561533 -0.0498326 -0.00661848 0.0392003 0.0332445 -0.0156985 0.00692203 0.0102531 -0.0259252 -0.0406667 -0.0118294 -0.0218591 0.0243848 -0.00356779
internal_weight=113459 55223.6 58235.6 37605.2 23311.7 20630.4 31911.9 17165.5 12984.9 15042.4 6540.3 8515.43 5226.62 8269.28 8562.36 8758.89 12115 5421.91 20439.6 6001.87 3276.11 8603.18 18927.1 10065.2 5579.17 2983.18 7547.56 2937.4 7268.19 12892.1
internal_count=506852 249013 257839 159156 114379 98683 134634 73365 56105 76913 32208 37712 22784 37466 39138 39360 60971 26745 85791 27623 14745 34227 78529 42046 24625 14513 31475 12212 31619 54316
is_linear=0
shrinkage=0.05


Tree=16
num_leaves=31
num_cat=0
split_feature=0 0 0 0 0 1 0 2 2 2 2 0 1 0 2 2 2 2 1 2 0 0 2 0 0 2 0 2 0 2
split_gain=29883.2 6931.75 4727.84 876.457 801.903 746.712 655.019 511.174 368.934 252.768 187.909 195.602 169.849 157.968 209.614 147.272 139.63 122.863 120.105 110.916 102.01 95.5519 88.5659 83.9369 77.3041 77.2578 100.347 75.4322 70.5764 68.0271
threshold=-0.0002101955344606096 0.0040709202268032624 -0.0049986667887990752 0.0097087024008106083 0.00171114265958321 0.39166666666666672 -0.0022019958009896648 0.0070307927105804097 0.0054372723350327922 0.0029928573293169177 0.0084694039195550661 -0.010634085348250727 0.32500000000000007 -0.011874700888931637 0.0080884805144502778 0.0029928573293169177 0.006983540485747456 0.0040326325747893901 0.39166666666666672 0.012003714958166638 0.0007372631595216132 0.0061907165831055514 0.010682737133142941 -0.0014711522698405189 0.0072708224011354614 0.013419606092617645 0.025598388445095658 0.016264967588672147 0.0030638188082763034 0.0026547899422282779
decision_type=2 2 2 2 2 2 2 2 2 2 2 2 2 2 2 2 2 2 2 2 2 2 2 2 2 2 2 2 2 2
left_child=2 4 5 7 20 13 8 17 18 -6 -7 -12 -5 -1 -15 23 28 -3 -4 24 -2 -19 -10 -8 -9 -14 -27 -13 -11 -22
right_child=1 3 6 12 9 10 15 19 22 16 11 27 25 14 -16 -17 -18 21 -20 -21 29 -23 -24 -25 -26 26 -28 -29 -30 -31
leaf_value=-0.060080027769066305 0.001269854862070188 0.054024346234651605 -0.041918570785037537 0.059589892590677367 0.037373552682329281 -0.044804587490311243 -0.032664860746780863 0.025069907853898461 -0.019735503444944218 0.017612468344624474 -0.04050718381297802 -0.025144092758900827 0.053211511964283864 -0.054024958800714479 -0.030727440924833507 -0.0075824581977443645 0.0099012804823271645 0.033491060219405761 -0.027692929985298761 0.01551540788280128 0.01969227183787146 0.047912746346335917 -0.0069277043055631224 -0.014649109624403332 0.040204960916360395 0.03244532596577706 0.05844455784499774 -0.0056980718017972084 0.027793939428162318 0.0065510168044210938
leaf_weight=6489.9083539992571 12978.919797509909 2423.24236536026 2385.2312252447009 7103.9952823445201 1724.5139283165336 3229.7345259487629 836.97084110975266 2626.1219229623675 5205.5122255757451 5082.8455401659012 2251.3503651022911 2281.7744284570217 2172.9517586752772 4032.0017717406154 1269.4507316201925 14976.150599583983 4475.9660762995481 2496.7472225800157 3925.7583831697702 2036.2479884847999 1122.2334090918303 2126.9915585592389 1822.2689634859562 2841.4294669479132 1243.0048036798835 1387.9606117606163 506.58170264959335 638.17148151993752 2558.9951634183526 8041.5508158951998
leaf_count=34226 54049 13382 11899 38685 8918 14928 4268 11212 21118 21787 10572 9593 10905 20958 5787 60294 17644 11590 17546 8601 5399 10638 7127 13630 5782 6831 2656 2619 11348 32860
internal_value=-0.000107973 0.0239252 -0.02779 0.0446629 0.0100229 -0.0467335 -0.0158339 0.0358118 -0.0242945 0.0194631 -0.0353424 -0.0294327 0.0549248 -0.0548494 -0.0484463 -0.00978421 0.0169143 0.0449047 -0.0330695 0.0249611 0.00412149 0.0401253 -0.0164145 -0.0187484 0.0299322 0.0467772 0.0393973 -0.020894 0.0210219 0.00816035
internal_weight=112295 60108.9 52185.7 24123.8 35985 20192.4 31993.3 12952.4 13338.8 13842.3 8401.03 5171.3 11171.5 11791.4 5301.45 18654.6 12117.8 7046.98 6310.99 5905.37 22142.7 4623.74 7027.78 3678.4 3869.13 4067.49 1894.54 2919.95 7641.84 9163.78
internal_count=506852 272287 234565 120282 152005 98683 135882 61205 57690 59697 37712 22784 59077 60971 26745 78192 50779 35610 29445 25595 92308 22228 28245 17898 16994 20392 9487 12212 33135 38259
is_linear=0
shrinkage=0.05


Tree=17
num_leaves=31
num_cat=0
split_feature=0 0 0 1 0 0 1 2 2 0 2 1 0 0 2 2 2 2 0 2 1 1 2 0 0 0 2 2 0 2
split_gain=27294.9 6165.17 4734.28 923.19 903.477 754.655 488.589 363.955 307.566 246.825 219.287 168.124 132.477 129.653 169.198 117.728 117.19 115.086 113.406 174.641 94.7344 91.5904 84.1065 163.68 82.22 80.5243 117.401 76.664 64.986 64.8346
threshold=0.00043409841601350728 -0.0042555252331720811 0.0057076719046221689 0.44166666666666671 -0.0015269294314370235 0.0024750106103445919 0.37500000000000006 0.0051969792697767522 0.003729071147551589 -0.0092574236809428046 0.0080884805144502778 0.70833333333333337 -0.00023476541389117343 0.012340821528364968 0.0075022490883919993 0.010922331113014348 0.0029635893104356195 0.0048773025358990795 0.011489718773638356 0.012003714958166638 0.69166666666666676 0.42500000000000004 0.020003711379467541 -0.028929218988611297 0.0041828383435883855 -0.0095610860306833429 0.010043732830160999 0.0029928573293169177 0.0013957404958752416 0.012496719037837445
decision_type=2 2 2 2 2 2 2 2 2 2 2 2 2 2 2 2 2 2 2 2 2 2 2 2 2 2 2 2 2 2
left_child=1 3 5 9 8 17 13 16 21 22 -11 25 27 14 -4 -9 -7 28 19 -8 -10 -3 -1 -24 -18 -5 -27 -6 -2 -13
right_child=2 4 6 11 12 7 18 15 20 10 -12 29 -14 -15 -16 -17 24 -19 -20 -21 -22 -23 23 -25 -26 26 -28 -29 -30 -31
leaf_value=-0.058501006454457327 0.00916884712820446 -0.041214088076096743 0.054156196673722116 -0.043862402209150518 -0.014869129107491778 0.046980741031295625 0.039419362885879862 0.021057781835015169 -0.019728452230228722 -0.04863093681966258 -0.024415354284128062 -0.027309749267739349 0.00011053689818762889 0.059281890578930144 0.032805023293072319 0.0069145915287104681 0.025457057082461862 0.0047368825842019398 0.046631365335152525 0.018680160449727649 -0.010811731587003034 -0.025412134632553537 -0.056396335667251732 -0.0065353325120464118 0.040136481978771184 -0.036633267907392741 -0.016670451933330454 -0.0055145810813205104 0.017629671825520537 -0.01225719915087542
leaf_weight=7550.1266765743494 5329.0152433663607 1605.3417113646865 3317.1622026786208 1954.9787302911282 2780.0096569657326 1352.3993441611528 3588.3522946238518 6006.0903159976006 6735.5790031030774 4075.8909804001451 1213.1605609804392 1678.614336848259 10148.886247187853 6140.5739803686738 1288.2211116403341 1948.8075120151043 2986.2029676958919 8570.9860197752714 2478.3893589675426 1415.5039325430989 5340.647474527359 2138.6059788390994 541.20075475424528 236.52782525122166 1401.6158318817616 2794.0271921604872 1000.1238234937191 10323.528455242515 3953.0503511279821 1246.6331170350313
leaf_count=40748 23501 8457 18312 9310 13313 7547 17267 25140 27846 21379 5347 7101 42473 34636 6120 7875 13794 33520 12616 6261 21292 10142 2954 1213 7202 12790 4148 41350 17967 5231
internal_value=-0.00010313 -0.0224199 0.0274087 -0.0434022 -0.0104492 0.0156876 0.0476949 0.024517 -0.0196669 -0.0515236 -0.0430766 -0.0306535 -0.00417782 0.0545256 0.0481838 0.017593 0.0341124 0.00891454 0.0378848 0.0335526 -0.0157851 -0.0321877 -0.0568883 -0.0412323 0.0301462 -0.0356188 -0.0313711 -0.00749922 0.0127721 -0.0208949
internal_weight=111140 61363.9 49776.4 22291.3 39072.6 31548.2 18228.2 13695.1 15820.2 13616.9 5289.05 8674.38 23252.4 10746 4605.38 7954.9 5740.22 17853.1 7482.25 5003.86 12076.2 3743.95 8327.86 777.729 4387.82 5749.13 3794.15 13103.5 9282.07 2925.25
internal_count=506852 275094 231758 110221 164873 136546 95212 61558 67737 71641 26726 38580 97136 59068 24432 33015 28543 74988 36144 23528 49138 18599 44915 4167 20996 26248 16938 54663 41468 12332
is_linear=0
shrinkage=0.05


Tree=18
num_leaves=31
num_cat=0
split_feature=0 0 0 0 1 0 1 2 2 2 0 0 2 0 2 2 2 2 0 0 1 2 1 2 0 0 2 0 2 2
split_gain=24920.8 5818.23 4505.58 1027.97 724.713 695.706 485.954 343.156 340.785 175.806 171.153 162.1 218.341 150.39 181.698 131.31 130.598 128.197 121.258 107.857 103.047 100.387 96.2137 90.8603 80.0344 78.6354 73.3743 72.338 116.019 71.6837
threshold=0.00043409841601350728 -0.0049986667887990752 0.0057076719046221689 -0.0015269294314370235 0.39166666666666672 0.0024011008180053186 0.40833333333333338 0.0045754340034920354 0.004059319590834355 0.0099410151366273406 -0.016084738343144864 -0.012361731042851837 0.011043960659973184 0.012340821528364968 0.0075022490883919993 0.010922331113014348 0.0089735810283766791 0.027891750108162434 -0.00043436127747289679 -0.0029210655487975938 0.45833333333333337 0.0048773025358990795 0.74166666666666681 0.0029635893104356195 -0.0092574236809428046 -0.007404030915572667 0.0030220168890850102 0.011489718773638356 0.010242921970132273 0.0055832256939223031
decision_type=2 2 2 2 2 2 2 2 2 2 2 2 2 2 2 2 2 2 2 2 2 2 2 2 2 2 2 2 2 2
left_child=1 4 5 8 11 21 13 23 20 24 -11 -1 29 14 -4 -9 19 25 26 -10 -3 -2 27 -7 -6 -12 -5 28 -8 -13
right_child=2 3 6 18 9 7 22 15 16 10 17 12 -14 -15 -16 -17 -18 -19 -20 -21 -22 -23 -24 -25 -26 -27 -28 -29 -30 -31
leaf_value=-0.058159842626819114 0.011927089179228356 -0.038159437624150194 0.052568197148906974 -0.015783348842630971 -0.053361839954269741 0.045123865959689202 0.040931465029966974 0.020830732535051858 -0.024133845050985155 -0.042889082089194869 -0.028610307525691825 -0.055168351770768835 -0.017757455496665384 0.058041132300062595 0.031566264871255856 0.0063767825189954622 -0.0073634655355558146 0.021972363661421124 -0.00059835136211379186 -0.013501217712826958 -0.023974653658263553 0.0043157559001786817 0.024034459483632767 0.029821856519471363 -0.036488041683860543 -0.011690152746215725 -0.0057056800586955496 0.046923149891573396 0.021303205318028168 -0.042693578302148733
leaf_weight=5871.2023821920156 9044.4746079295874 2451.6667009145021 3476.6466950848699 2290.9821195453405 907.17139600217342 1384.4724615886807 2332.2031407803297 7425.1824338659644 4577.7765416055918 1066.6726452931762 1798.526654496789 2643.678238235414 602.49453217536211 6199.8847741931677 1463.3016007393599 1993.1051008552313 3550.2253601178527 174.49914506077766 12416.194254606962 4979.5392645895481 2679.8925331234932 8314.4452780336142 1382.8678830713034 3241.252106577158 3118.324086368084 1110.7557042092085 8535.566553145647 1818.2347060143948 1111.7042379900813 2040.3632986545563
leaf_count=32956 40470 12968 19692 11038 4543 7858 11563 31624 19787 5299 8008 14859 2768 36118 7052 8059 13974 773 51905 20028 12518 32502 6327 16033 14521 4568 34193 9433 5027 10388
internal_value=-9.85947e-05 -0.0215013 0.0263637 -0.0109432 -0.0441546 0.0149754 0.046472 0.0232494 -0.0198285 -0.0328458 -0.0256251 -0.0524412 -0.04609 0.0528554 0.046347 0.017772 -0.0155522 -0.0196535 -0.00397069 -0.018594 -0.0307516 0.00828147 0.0357708 0.0344017 -0.0402907 -0.0221502 -0.00783819 0.038855 0.0345954 -0.0497344
internal_weight=110003 60815.5 49187.8 41481.8 19333.7 31402.9 17784.8 14044 18239.1 8175.95 4150.45 11157.7 5286.54 11139.8 4939.95 9418.29 13107.5 3083.78 23242.7 9557.32 5131.56 17358.9 6645.01 4625.72 4025.5 2909.28 10826.5 5262.14 3443.91 4684.04
internal_count=506852 275094 231758 176411 98683 136546 95212 63574 79275 37712 18648 60971 28015 62862 26744 39683 53789 13349 97136 39815 25486 72972 32350 23891 19064 12576 45231 26023 16590 25247
is_linear=0
shrinkage=0.05


Tree=19
num_leaves=31
num_cat=0
split_feature=0 0 0 0 1 0 1 2 2 2 0 0 1 0 0 2 2 2 0 2 2 0 2 2 0 2 0 2 0 2
split_gain=22751.7 5479.28 4288.31 940.546 715.692 643.525 482.731 327.2 321.796 214.332 229.06 147.484 140.281 134.579 133.881 163.248 129.342 122.529 108.171 123.787 107.545 85.6619 83.9542 81.9041 103.491 78.8621 77.9979 77.4977 95.4944 76.1026
threshold=0.00043409841601350728 -0.0049986667887990752 0.0057076719046221689 -0.0017563448679345892 0.32500000000000007 0.0027574996066390967 0.37500000000000006 0.004059319590834355 0.0058852089062738132 0.0076753058911603186 -0.010634085348250727 -0.00087493134442615612 0.39166666666666672 -0.0092574236809428046 0.012340821528364968 0.0075022490883919993 0.010922331113014348 0.0066966267019978832 0.0088453691740758619 0.0092098138955459645 0.0048773025358990795 0.00171114265958321 0.0027524352076086426 0.016582972222398417 0.025598388445095658 0.015640394714590618 -0.0030832757566633686 0.025924852091511671 -0.017891863165034622 0.003646584125287912
decision_type=2 2 2 2 2 2 2 2 2 2 2 2 2 2 2 2 2 2 2 2 2 2 2 2 2 2 2 2 2 2
left_child=1 4 5 8 13 20 14 -7 12 -6 27 29 22 -1 15 -4 -9 -15 19 -8 21 -2 -3 -20 -25 -12 -14 -11 -29 -5
right_child=2 3 6 11 9 7 18 16 -10 10 25 -13 26 17 -16 -17 -18 -19 23 -21 -22 -23 -24 24 -26 -27 -28 28 -30 -31
leaf_value=-0.056723329951925097 0.009093710104686948 -0.050971670660116569 0.051857687846634117 -0.017338330569530928 -0.043824132261069466 0.038270204774080989 0.037145977191176231 0.021785123170752246 -0.01208461351618385 -0.042534062041432619 -0.023501700837390321 -0.0017385552313480186 -0.029114355545408595 -0.050614222813065636 0.057363163671330354 0.030495627177128753 0.0065746750969127524 -0.028036825604451539 0.046544726636949363 0.01809550611544539 0.0049276774205973791 0.018927107201376182 -0.030623568986938278 0.022011781219519824 0.054678794015446168 -0.0053704822894432023 -0.017282108986665382 -0.03412302928975814 0.016743765435656675 -0.006727641387154518
leaf_weight=6513.7774635180831 6683.9929774850607 649.32413067668676 3132.3385958150029 2436.3297814875841 3222.1772467717528 2854.3388550654054 2018.4525054693222 7150.5973981022835 7403.3433873280883 2308.7213716134429 2825.8212131336331 17124.771537944674 2239.9395651221275 1945.4022438004613 5738.5677253678441 1251.7319767698646 1737.195708796382 869.54468854516745 2497.8957370221615 1476.4528924971819 9526.102286323905 3312.2322811484337 2311.2990540191531 901.59356398135424 331.63251718878746 761.30015706270933 3682.7259227409959 334.75842721015215 127.375259116292 5515.4458372145891
leaf_count=37653 29655 3942 18312 11561 16179 15514 10186 31391 29763 11688 12452 71571 10362 11046 34636 6120 7051 4129 13028 6463 37422 15513 11119 4608 1859 3174 16261 1759 603 21832
internal_value=-9.43466e-05 -0.0206207 0.0253548 -0.0104277 -0.0429177 0.0142926 0.0452904 0.0235421 -0.0197833 -0.0333188 -0.0279947 -0.00435148 -0.0261994 -0.0527754 0.0523372 0.0457584 0.0188121 -0.04364 0.0354188 0.0290979 0.00872923 0.012352 -0.0350863 0.0413395 0.0307964 -0.0196537 -0.021757 -0.0387929 -0.0201029 -0.00997863
internal_weight=108885 60272.1 48613.1 41363.2 18908.9 31264.5 17348.7 11742.1 16286.6 9580.15 6357.98 25076.5 8883.29 9328.72 10122.6 4384.07 8887.79 2814.95 7226.03 3494.91 19522.3 9996.23 2960.62 3731.12 1233.23 3587.12 5922.67 2770.86 462.134 7951.78
internal_count=506852 275094 231758 176411 98683 136546 95212 53956 71447 45855 29676 104964 41684 52828 59068 24432 38442 15175 36144 16649 82590 45168 15061 19495 6467 15626 26623 14050 2362 33393
is_linear=0
shrinkage=0.05


Tree=20
num_leaves=31
num_cat=0
split_feature=0 0 0 0 0 1 1 2 2 1 0 2 0 2 0 2 2 2 0 2 0 0 2 2 0 2 0 0 2 0
split_gain=20745.5 4914.19 4334.92 769.2 766.734 701.068 397.747 350.297 324.264 220.508 138.261 131.563 120.329 173.007 113.425 193.522 109.327 106.595 97.0669 88.4634 147.394 84.4499 127.759 77.6275 76.3999 72.0972 93.2828 69.3269 68.0644 65.4816
threshold=0.00026769366961884323 -0.0049986667887990752 0.0061907165831055514 -0.0022019958009896648 0.0023287838095832642 0.3083333333333334 0.29166666666666674 0.004059319590834355 0.0056953649254586885 0.62500000000000011 -0.00064712388135860696 0.0058471058958958384 -0.015323217838963099 0.010922331113014348 0.011909504851940091 0.0092976279772997942 0.0027524352076086426 0.012003714958166638 0.0033113478579660863 0.0096463518170881637 -0.010634085348250727 0.014372068692695569 0.0082064717840479359 0.0029928573293169177 -0.0032561827577851691 0.017816352018153851 0.025598388445095658 0.0037644247534207751 0.011043960659973184 0.0011960161870887824
decision_type=2 2 2 2 2 2 2 2 2 2 2 2 2 2 2 2 2 2 2 2 2 2 2 2 2 2 2 2 2 2
left_child=1 5 4 8 23 12 21 18 16 19 11 -5 -1 -14 15 -8 -3 27 -6 -7 -21 22 -4 29 -18 -16 -27 -9 -11 -2
right_child=2 3 6 10 7 9 14 17 -10 28 -12 -13 13 -15 25 -17 24 -19 -20 20 -22 -23 -24 -25 -26 26 -28 -29 -30 -31
leaf_value=-0.058545823695388993 0.0078832343534431578 -0.043813604685828254 0.052864290909598793 -0.012630981298953665 0.026034057874195028 -0.04315657050334247 0.041749664017391885 0.015329238291405612 -0.012408860010432825 -0.029982677941111549 -0.0017817868554763712 -0.0023303376201210635 -0.05012654015143439 -0.019940486939388911 0.050911209454472396 0.022133828405512146 -0.031616999798352634 0.0062719808220756323 0.042092293593554368 -0.040495116304113496 -0.016665102990536414 0.058323387653206361 0.029822097788072974 0.0053218875249667098 -0.01988559747782033 0.02118925302279551 0.052676591667930851 0.023761425432575787 -0.015924090369508898 0.021883420663738981
leaf_weight=3916.6015225574374 2036.2973684966564 958.51416935026646 2739.1774968728423 8815.5319866240025 1675.2742910012603 3641.3274913877249 2854.4351858645678 4777.8164094239473 6456.2241466864944 1593.0232052206993 12893.203648671508 4781.1209186315536 4140.2968727871776 536.13505114614964 1975.9042700454593 2247.2371942698956 2674.4814241230488 1763.0532442480326 2147.2179448753595 1673.4598226100206 1059.8466963022947 4179.745923653245 770.85828230530024 15238.558509215713 2884.750433601439 566.64460019767284 402.15396443009377 4976.6120425090194 1873.4535275027156 1415.9743485301733
leaf_count=23496 9576 5533 16628 38849 8583 18971 15286 20039 26261 7326 53940 18440 24062 2673 11175 10516 13019 7212 12283 8926 4617 26188 3970 62048 12835 3033 2383 22915 8194 6959
internal_value=1.62503e-05 -0.0203323 0.0236894 -0.0103765 0.0136547 -0.0416457 0.0453903 0.0219391 -0.0203511 -0.0325342 -0.00549129 -0.00900887 -0.0520806 -0.0466658 0.0376192 0.0331091 -0.0282183 0.0175863 0.0350545 -0.0380534 -0.031255 0.0535217 0.0478039 0.0068556 -0.0255294 0.045433 0.0342598 0.0196313 -0.0223847 0.0136255
internal_weight=107665 57898 49767 39463.8 34030.8 18434.1 15736.2 15340 12974 9841.11 26489.9 13596.7 8593.03 4676.43 8046.38 5101.67 6517.75 11517.5 3822.49 6374.63 2733.31 7689.78 3510.04 18690.8 5559.23 2944.7 968.799 9754.43 3466.48 3452.27
internal_count=505936 267142 238794 168877 149615 98265 89179 71032 57648 48034 111229 57289 50231 26735 42393 25802 31387 50166 20866 32514 13543 46786 20598 78583 25854 16591 5416 42954 15520 16535
is_linear=0
shrinkage=0.05


Tree=21
num_leaves=31
num_cat=0
split_feature=0 0 0 0 0 1 2 1 2 2 0 0 0 1 2 0 2 2 0 2 2 2 0 2 0 2 2 2 2 0
split_gain=18933.9 4650.57 4124.28 927.168 709.311 526.502 443.013 396.783 332.136 143.146 134.834 134.453 127.251 111.842 110.185 109.792 209.864 101.794 101.542 96.8546 95.1753 90.0988 89.0577 147.28 86.223 126.34 76.6151 72.5768 68.3349 55.8157
threshold=0.00026769366961884323 -0.0060474682631991806 0.0061907165831055514 -0.0022701200665850838 0.0028355791820639702 0.39166666666666672 0.0056953649254586885 0.29166666666666674 0.0040326325747893901 0.011043960659973184 -0.016926687330216652 -0.0010141563595846704 -0.0037275557087739241 0.67500000000000016 0.0058852089062738132 -0.015323217838963099 0.010242921970132273 0.0082064717840479359 0.0015478099335733378 0.010568827102546035 0.025924852091511671 0.0024876802355517447 0.017923736653297374 0.010242921970132273 0.014372068692695569 0.0079128396948039883 0.0028451869261174154 0.0020024354466289308 0.022279482915966306 -0.01026527964165194
decision_type=2 2 2 2 2 2 2 2 2 2 2 2 2 2 2 2 2 2 2 2 2 2 2 2 2 2 2 2 2 2
left_child=1 5 4 6 18 15 12 24 -6 29 -11 14 -3 22 27 -1 -17 -10 -2 -8 -12 -20 23 -9 25 -4 -14 -5 -18 -7
right_child=2 3 7 11 8 9 19 13 17 10 20 -13 26 -15 -16 16 28 -19 21 -21 -22 -23 -24 -25 -26 -27 -28 -29 -30 -31
leaf_value=-0.056573926309803436 0.0047608114253196408 -0.037435033947624256 0.05215757550905268 -0.036890255418384359 0.037924015387966227 -0.050849021243711261 -0.016231929791128322 0.043025745268792298 0.022279711663154483 -0.040674460947069078 -0.020773579367753339 -0.0025809255437067341 -0.038830856410155622 0.02551371330517474 -0.0029917024002271385 -0.050188427651497572 -0.026422314082482402 0.011555676443610738 0.030543029323404025 -0.0041495289761375766 0.015018966314124943 0.010370186268148823 0.052452267661128121 0.024870054821928569 0.057518918435279155 0.029708217079022565 -0.02097494573324404 -0.012578179512172988 0.030284879463025223 -0.03540528940978533
leaf_weight=4236.8773197755218 12789.865467578173 3070.3913088664412 2587.4172144979239 323.00846219062805 2766.7455948144197 785.2903394177556 5485.482461720705 3278.0953448116779 5838.6920887753367 871.55094965547323 1970.1632920727134 16704.276217833161 725.78635048121214 1797.5763050019741 3714.5990468561649 4130.7725928276777 760.28396335989237 3563.2588277831674 592.91737298667431 2377.5443513095379 205.05987509340048 8327.8827604651451 1118.8508706614375 1694.3776210397482 4030.0930566862226 827.04136111587286 3486.9587419554591 6181.6659418195486 57.117024026811123 2294.3959231451154
leaf_count=26245 53423 16348 16238 1789 15817 4183 23392 18335 26946 4592 8810 69869 4142 8721 14382 24562 3905 14821 3223 9504 920 35385 6751 8586 26188 4360 15799 27162 280 11258
internal_value=1.60481e-05 -0.0194994 0.0227707 -0.010912 0.0130329 -0.043094 -0.0208084 0.0442862 0.0226965 -0.0317414 -0.0240574 -0.00534459 -0.0296935 0.0364729 -0.00986205 -0.0506663 -0.0456079 0.0182154 0.00761659 -0.0125786 -0.0173994 0.011711 0.039707 0.0368392 0.0525659 0.0467199 -0.0240512 -0.0137855 -0.0224598 -0.0393433
internal_weight=106594 57381.2 49212.8 42069.7 33879.4 15311.5 15146.2 15333.5 12168.7 6126.46 3046.77 26923.5 7283.14 7888.9 10219.3 9185.05 4948.17 9401.95 21710.7 7863.03 2175.22 8920.8 6091.32 4972.47 7444.55 3414.46 4212.75 6504.67 817.401 3079.69
internal_count=505936 267142 238794 182387 149615 84755 69185 89179 57584 29763 14322 113202 36289 42393 43333 54992 28747 41767 92031 32896 9730 38608 33672 26921 46786 20598 19941 28951 4185 15441
is_linear=0
shrinkage=0.05


Tree=22
num_leaves=31
num_cat=0
split_feature=0 0 0 1 0 1 0 2 0 2 2 1 2 0 2 0 0 2 2 0 0 2 2 2 2 0 2 2 0 0
split_gain=17293.8 5391.07 2847.93 927.593 629.562 396.075 358.962 303.136 297.549 201.777 179.215 153.369 136.364 112.661 182.078 107.995 99.6903 119.812 95.2722 194.981 88.0404 124.64 87.986 73.3442 72.5617 89.9465 70.6411 66.0069 65.3686 63.6899
threshold=0.0010978321816592109 -0.0037275557087739241 0.0061907165831055514 0.42500000000000004 -0.0012628077524722743 0.29166666666666674 0.0030638188082763034 0.0049414584452524444 -0.0083831306449557476 0.0031633610316820367 0.0056571882864003336 0.67500000000000016 0.0029928573293169177 0.011909504851940091 0.0092976279772997942 -0.0002101955344606096 -0.010634085348250727 0.0079128396948039883 0.015941093935088413 -0.024462805231424259 0.014372068692695569 0.0079128396948039883 0.0060020278484142035 0.010242921970132273 0.017816352018153851 0.025598388445095658 0.012496719037837445 0.0031358422501263535 -0.0065886616179445341 -0.015323217838963099
decision_type=2 2 2 2 2 2 2 2 2 2 2 2 2 2 2 2 2 2 2 2 2 2 2 2 2 2 2 2 2 2
left_child=1 3 6 8 9 20 12 27 18 -3 -10 16 -2 14 -7 -6 -5 -18 29 -20 21 -4 -11 -9 -15 -26 -13 -8 -28 -1
right_child=2 4 5 11 15 13 7 23 10 22 -12 26 -14 24 -16 -17 17 -19 19 -21 -22 -23 -24 -25 25 -27 28 -29 -30 -31
leaf_value=-0.058510863693242314 0.02225810361403003 -0.026789983512165085 0.051187356813132794 -0.040875607730523601 -0.0048297337914837181 0.03942746082562823 0.044424464364187059 0.019659202077303845 -0.043927245687110553 -0.014932284117262088 -0.024192865369389888 -0.022189556139839473 0.0083983822920049352 0.049019677263195956 0.020103081153935051 0.0015305446251503445 -0.033033300223640358 -0.0163204297033471 -0.05244376464680281 -0.0086559461599912506 0.056754277681688704 0.028672480971774564 -0.0067656913481133471 0.0083974491693125496 0.019037201020347172 0.050687773272053954 -0.016369663274639113 0.029781076639051565 0.0051477376322163065 -0.048510400925149244
leaf_weight=3284.2768219709396 2077.4389347061515 2435.3594904318452 2506.6947491616011 1490.3133120760322 11173.749992743134 2731.085854806006 1088.6262684315443 5045.4456233605742 2601.1435715034604 7086.735321380198 2062.7884339243174 2532.2658307924867 12179.46199824661 1874.1591331586242 2201.5621398687363 16573.139809027314 2514.7450368851423 1869.6065711677074 772.65483527630568 378.89992098510265 3883.8814515396953 814.397979862988 6169.3860643655062 2026.4125747382641 550.87165243178606 378.84436102211475 974.50726284086704 2625.750251069665 553.40447442233562 3090.0417763292789
leaf_count=21117 10643 12986 16238 7928 46916 15286 6777 22657 15552 30765 10054 11209 50957 11175 10516 69072 12588 8256 4917 2128 26188 4360 24312 8365 3033 2383 4381 14002 2228 18947
internal_value=1.5632e-05 -0.0157899 0.025932 -0.0358797 -0.00555741 0.0432077 0.0156248 0.022507 -0.0451223 -0.0135618 -0.035199 -0.0245393 0.0104179 0.0353516 0.0308025 -0.00103076 -0.0297039 -0.0259065 -0.0512719 -0.0380361 0.0516433 0.0456663 -0.0111316 0.0164322 0.0433545 0.0319343 -0.0170666 0.0340728 -0.00857613 -0.053663
internal_weight=105548 65563 39984.6 22124.6 43438.4 14941.5 25043.1 10786.2 12189.8 15691.5 4663.93 9934.84 14256.9 7736.52 4932.65 27746.9 5874.66 4384.35 7525.87 1151.55 7204.97 3321.09 13256.1 7071.86 2803.88 929.716 4060.18 3714.38 1527.91 6374.32
internal_count=505936 303356 202580 119305 184051 89179 113401 51801 72715 68063 25606 46590 61600 42393 25802 115988 28772 20844 47109 7045 46786 20598 55077 31022 16591 5416 17818 20779 6609 40064
is_linear=0
shrinkage=0.05


Tree=23
num_leaves=31
num_cat=0
split_feature=0 0 0 0 1 0 2 1 2 1 0 2 0 2 0 2 0 1 2 0 2 2 2 0 0 2 2 2 0 2
split_gain=15798.5 5051.89 2732.9 880.784 678.901 449.587 360.062 293.177 271.949 218.174 196.141 126.049 106.554 120.355 97.5035 94.3461 139.677 94.3 93.9757 151.401 103.857 90.4977 76.4698 75.6802 75.477 73.1957 70.9815 65.1858 63.3017 112.603
threshold=0.0010978321816592109 -0.0049986667887990752 0.0072708224011354614 -0.0012628077524722743 0.27500000000000008 0.0030638188082763034 0.0056203554494434057 0.29166666666666674 0.0056953649254586885 0.62500000000000011 -0.0024772963017319957 0.0026547899422282779 -0.012869885850800471 0.010242921970132273 -0.0002101955344606096 0.013006540685695832 0.019962967522780449 0.4916666666666667 0.0096463518170881637 -0.017891863165034622 0.027891750108162434 0.0031358422501263535 0.010141318371844923 0.0045190251932224696 -0.0089572873758641831 0.0064675496198330342 0.0021085514078656039 0.019367959243750565 0.014372068692695569 0.0082064717840479359
decision_type=2 2 2 2 2 2 2 2 2 2 2 2 2 2 2 2 2 2 2 2 2 2 2 2 2 2 2 2 2 2
left_child=1 4 5 8 12 11 21 28 10 18 17 -2 -1 -14 -5 -9 -17 -3 24 -20 -21 -7 -8 -23 -6 -13 -12 -10 29 -4
right_child=2 3 7 14 9 6 22 15 27 -11 26 25 13 -15 -16 16 -18 -19 19 20 -22 23 -24 -25 -26 -27 -28 -29 -30 -31
leaf_value=-0.055684503931291485 0.024543397030111446 -0.033509619763895139 0.051652464321721582 -0.004590143713021781 -0.049925509851749664 0.044782585658956223 0.019487638106422928 0.041421864814379886 -0.0093083488573329209 -0.019626713296829686 -0.035583409252445505 0.011275366557427611 -0.047036116977293915 -0.017645450214966284 0.0014541396018691048 0.020287713931204387 0.04654235789390878 -0.020171263479930607 -0.044544630207566265 -0.022215750491808999 0.046757080906601904 0.022739293639354771 0.0088897436254247158 0.036330478133124365 -0.035240736125654565 0.0034551655636200283 -0.012015060745385589 0.012537682551779995 0.056025287189088016 0.027298816875083128
leaf_weight=3913.4993215948343 1335.8057647049427 2712.2629489973187 2011.2752738967538 11169.250950247049 1327.1445351913571 1213.501887626946 4843.9413128271699 3742.0360341072083 8958.2677105143666 3378.0479899346828 340.76239434629679 8159.7092708051205 2805.0301431119442 397.71288408339024 16571.782688975334 1596.3047190234065 742.0875299051404 2590.8954271301627 957.60325096547604 1854.5321832969785 56.233409017324448 2141.2753955349326 2624.2705743685365 1963.4426627457142 2568.5236605778337 4724.7953913807869 5112.1199190765619 354.9976714104414 3741.3152699396014 621.24285463243723
leaf_count=26091 7077 14612 13543 46916 7932 7851 22094 21678 36171 15520 1974 35886 17691 1976 69072 8329 4669 12047 5745 9086 270 10714 11008 11471 13954 18637 22879 1420 26188 3435
internal_value=1.53724e-05 -0.0151222 0.0249763 -0.00675174 -0.0383107 0.0160407 0.022844 0.0443528 -0.0147306 -0.0300039 -0.0201465 0.0099234 -0.0501496 -0.0433864 -0.000979444 0.0364984 0.0286196 -0.0269931 -0.0351863 -0.028318 -0.0201859 0.0327868 0.0157636 0.0292405 -0.0402434 0.00840767 -0.0134879 -0.00847563 0.0518455 0.0459053
internal_weight=104530 65068.7 39461 47810.3 17258.3 27006.7 12786.4 12454.3 20069.3 10142.1 10756 14220.3 7116.24 3202.74 27741 6080.43 2338.39 5303.16 6764.04 2868.37 1910.77 5318.22 7468.21 4104.72 3895.67 12884.5 5452.88 9313.27 6373.83 2632.52
internal_count=505936 303356 202580 205091 98265 124738 63138 77842 89103 52507 51512 61600 45758 19667 115988 34676 12998 26659 36987 15101 9356 30036 33102 22185 21886 54523 24853 37591 43166 16978
is_linear=0
shrinkage=0.05


Tree=24
num_leaves=31
num_cat=0
split_feature=0 0 0 0 1 0 2 2 1 2 0 0 0 2 2 0 2 2 0 2 2 0 2 0 2 2 0 2 2 2
split_gain=14430.3 4734.25 2619.44 956.184 564.52 417.029 341.409 339.748 294.219 203.547 194.439 169.27 129.162 115.673 101.213 91.7795 148.431 91.1084 134.452 87.4511 83.4548 81.6676 80.3347 72.5864 70.3948 69.7097 64.6828 111.156 60.7138 57.5019
threshold=0.0010978321816592109 -0.005713063631249086 0.0072708224011354614 -0.0019459798235754828 0.29166666666666674 0.0030638188082763034 0.0056953649254586885 0.0056203554494434057 0.29166666666666674 0.011043960659973184 -0.016926687330216652 -0.00036890143990949917 -0.0036290292395789233 0.0029928573293169177 0.025924852091511671 -0.015323217838963099 0.010922331113014348 0.013006540685695832 0.019962967522780449 0.0031358422501263535 0.0042008233632137102 -0.01026527964165194 0.0027524352076086426 0.0045190251932224696 0.010141318371844923 0.020670287921796777 0.014372068692695569 0.0082064717840479359 0.0066966267019978832 0.0064675496198330342
decision_type=2 2 2 2 2 2 2 2 2 2 2 2 2 2 2 2 2 2 2 2 2 2 2 2 2 2 2 2 2 2
left_child=1 4 5 6 15 13 12 19 26 21 -11 20 -3 -2 -12 -1 -17 -10 -19 -7 -5 -6 -14 -21 -9 -8 27 -4 -23 -15
right_child=2 3 8 11 9 7 25 24 17 10 14 -13 22 29 -16 16 -18 18 -20 23 -22 28 -24 -25 -26 -27 -28 -29 -30 -31
leaf_value=-0.055654069221023908 0.020438929933163812 -0.032977793848690019 0.050776252233900102 -0.010476395342983461 -0.048481508562264491 0.043659914730679809 -0.010694122072583967 0.01865681914628203 0.040334498234617988 -0.038743451994370022 -0.016967818926921209 0.001040317586061926 -0.034389757692313012 0.010344235211732056 0.017960103940196027 -0.047851453625117488 -0.016408002587138815 0.01947058425422302 0.045521624020808123 0.021824246878874437 -0.0029047732792213941 -0.040499644116444258 -0.017028492924942684 0.03523708635993799 0.0084668929327591288 0.01473499907884762 0.055328185205851303 0.026342178786633259 -0.026931585704818736 0.0032844902175141024
leaf_weight=3298.0809267014265 2049.7119566723704 2803.276510886848 1945.3624430671334 6341.3495499268174 1202.8086231425405 1183.2462106123567 7986.2726290225983 4807.6140220314264 3653.0555229038 1132.5366962403059 2331.6312410011888 18403.763148412108 785.18661247193813 7411.7340956628323 227.66212917119265 3115.1132961213589 426.73700441420078 1580.5428084209561 721.32221784442663 2120.0538103580475 8540.7479766905308 1547.4125979542732 4401.2916575074196 1924.1612272709608 2617.7356356009841 278.91984991729259 3602.5525758415461 611.85673429071903 1764.8765884786844 4721.8757263571024
leaf_count=22839 10643 15574 13543 29364 7314 7851 33357 22094 21678 6626 10836 76751 4698 32320 1025 20357 2271 8329 4669 10714 33544 8657 20135 11471 11008 1134 26188 3435 8874 18637
internal_value=1.50791e-05 -0.0144807 0.0240517 -0.00702026 -0.0390436 0.0153398 -0.0169605 0.021939 0.0433501 -0.0302021 -0.021494 -0.00216601 -0.0243306 0.00945276 -0.0138608 -0.049652 -0.044063 0.0354252 0.027634 0.0317039 -0.00613109 -0.0373225 -0.0196568 0.0282058 0.0150645 -0.00983598 0.0510114 0.04493 -0.0332702 0.00759689
internal_weight=103538 64587.7 38950.8 49540.8 15046.9 26836.1 16254.9 12652.8 12114.7 8206.93 3691.83 33285.9 7989.75 14183.3 2559.29 6839.93 3541.85 5954.92 2301.87 5227.46 14882.1 4515.1 5186.48 4044.22 7425.35 8265.19 6159.77 2557.22 3312.29 12133.6
internal_count=505936 303356 202580 214557 88799 124738 74898 63138 77842 43332 18487 139659 40407 61600 11861 45467 22628 34676 12998 30036 62908 24845 24833 22185 33102 34491 43166 16978 17531 50957
is_linear=0
shrinkage=0.05


Tree=25
num_leaves=31
num_cat=0
split_feature=0 0 0 0 1 0 1 2 2 0 2 0 2 2 0 2 2 0 2 0 2 0 1 2 2 0 2 2 0 0
split_gain=13237.1 4341.78 2673.58 787.657 586.413 354.69 304.581 296.469 260.553 175.241 225.128 155.492 134.349 131.097 128.93 122.876 115.604 110.246 167.69 103.486 76.025 120.534 67.9309 66.991 64.5212 93.932 61.2463 59.4918 56.547 54.5184
threshold=0.0010059703484451689 -0.0052698824319467605 0.0068775222881465913 -0.0010141563595846704 0.40833333333333338 0.0031425433136602105 0.35833333333333339 0.0070307927105804097 0.004059319590834355 -0.014616026716593561 0.010043732830160999 -0.0029210655487975938 0.0077346381607198405 0.0117059388020889 -0.012361731042851837 0.0026547899422282779 0.0040326325747893901 0.016310095775761372 0.0082732891836468248 -0.0029210655487975938 0.012652051221225442 0.021070982678386113 0.67500000000000016 0.0020024354466289308 0.025924852091511671 -0.03182617973978559 0.02453926833831618 0.0061276729756187392 0.0020683717928130477 -0.0078661863852325497
decision_type=2 2 2 2 2 2 2 2 2 2 2 2 2 2 2 2 2 2 2 2 2 2 2 2 2 2 2 2 2 2
left_child=1 4 5 8 9 15 17 16 11 24 29 -3 -6 19 -14 -2 -7 18 -4 -10 -8 -22 -18 -13 -1 -26 -16 28 -17 -11
right_child=2 3 6 -5 12 7 20 -9 13 10 -12 23 14 -15 26 27 22 -19 -20 -21 21 -23 -24 -25 25 -27 -28 -29 -30 -31
leaf_value=-0.054673755439073483 0.022755925774328958 -0.033120314651620346 0.048931944128037558 -0.00036406672340878223 -0.036765313841326884 0.036322918315093204 0.037827025896807059 0.011192543648285522 -0.016692504076220041 -0.048808283046865179 -0.016424154556379824 -0.036282695476611053 -0.033046907459552695 0.0016192472979349411 -0.017046308409958539 0.0067879016207200342 0.02611795585952166 0.055016406754955928 0.0251553448129208 -0.007986971063961134 0.01908876612552049 0.04650964057003356 0.011458925142699236 -0.014731866477332212 -0.044656043890194966 0.029237670401567606 0.013428385527339055 0.003541903107246433 0.015173682912898712 -0.03736088150854066
leaf_weight=3715.9654581323266 1458.4461965784431 2023.7069555744529 2816.2728855386376 24512.662818849087 1916.2667350098491 2355.1616096124053 3034.55035148561 4883.2335990220308 5824.1323919221759 2409.6514456793666 907.234305806458 393.61760406941175 1525.1252122223377 2167.7362087965012 3038.3943090885878 4957.6043977439404 3224.7867564409971 3431.9972354769707 1006.6178510263562 8248.4870143383741 1680.0729091390967 526.30467917025089 1046.8690194264054 4299.1931729540229 197.17386934906244 55.004287920892239 174.32942198216915 5646.5620602816343 3381.503703802824 1829.9561883211136
leaf_count=26477 7779 11603 20113 102584 10405 14990 17824 21255 26305 16392 4746 2355 8404 8569 14011 21375 16630 25788 5927 33246 8784 3406 4941 20806 1414 360 754 22390 15660 11472
internal_value=3.06595e-05 -0.0141481 0.0227593 -0.006597 -0.036879 0.0138966 0.0418765 0.0205406 -0.0132523 -0.0451172 -0.0390298 -0.0215353 -0.025594 -0.00982674 -0.0210756 0.00894512 0.027429 0.0485112 0.0426713 -0.0115899 0.0326921 0.0256297 0.0225254 -0.0165395 -0.0530128 -0.0285386 -0.0153927 0.00750491 0.0101883 -0.0438672
internal_weight=102689 63238.6 39450 47469.5 15769.1 26954.2 12495.8 11510.1 22956.9 9114.99 5146.84 6716.52 6654.12 16240.4 4737.85 15444.1 6626.82 7254.89 3822.89 14072.6 5240.93 2206.38 4271.66 4692.81 3968.14 252.178 3212.72 13985.7 8339.11 4239.61
internal_count=506765 299903 206862 205468 94435 125020 81842 57816 102884 60861 32610 34764 33574 68120 23169 67204 36561 51828 26040 59551 30014 12190 21571 23161 28251 1774 14765 59425 37035 27864
is_linear=0
shrinkage=0.05


Tree=26
num_leaves=31
num_cat=0
split_feature=0 0 0 0 1 0 1 1 2 2 0 2 0 2 2 0 2 0 2 2 2 0 2 1 0 2 0 0 2 0
split_gain=12084.4 4085.65 2553.86 825.869 489.689 329.218 304.785 288.058 287.196 218.195 129.724 129.587 123.106 211.517 122.572 116.215 102.263 101.007 155.355 82.2493 80.7709 127.986 68.4139 64.7474 60.0855 56.7957 57.5526 56.7816 52.433 81.1282
threshold=0.0010059703484451689 -0.0060474682631991806 0.0068775222881465913 -0.0010605389551056666 0.37500000000000006 0.0033113478579660863 0.32500000000000007 0.67500000000000016 0.0040326325747893901 0.0043127693712630257 -0.0029210655487975938 0.011174097726716077 -0.015323217838963099 0.010922331113014348 0.0026547899422282779 -0.016084738343144864 0.0070307927105804097 0.016310095775761372 0.0079128396948039883 0.0117059388020889 0.012652051221225442 0.017923736653297374 0.027891750108162434 0.67500000000000016 -0.0031667833758311308 0.0061276729756187392 0.0020683717928130477 -0.0092574236809428046 0.025924852091511671 -0.03182617973978559
decision_type=2 2 2 2 2 2 2 2 2 2 2 2 2 2 2 2 2 2 2 2 2 2 2 2 2 2 2 2 2 2
left_child=1 4 5 7 12 14 17 9 -7 10 -3 27 28 -14 -2 -13 23 18 -4 24 -8 -22 -17 -10 -9 26 -16 -6 -1 -30
right_child=2 3 6 -5 11 8 20 19 16 -11 -12 15 13 -15 25 22 -18 -19 -20 -21 21 -23 -24 -25 -26 -27 -28 -29 29 -31
leaf_value=-0.054696375501134292 0.022426844518012995 -0.034673397259681167 0.048989776393514879 -0.00045757639851832523 -0.043678411017569474 0.036726773699270535 0.037368267238853205 -0.015561041829087026 0.025563812515793035 -0.013066596975235378 -0.019154449752784328 -0.034264470918062929 -0.045073587003865385 -0.013311257175443928 0.0064577994333609931 -0.015526851745170432 0.010967653338515945 0.054717926911496045 0.025094530543151583 0.0042845454034031267 0.016934582901931318 0.041994932696308995 0.01927286589540262 0.010413614447362166 -0.0061802855317872806 0.003686081945850773 0.014659371057727355 -0.029315799026870194 -0.045104508665971342 0.029248422132870058
leaf_weight=3268.8961423039436 1499.577945843339 2351.5858255326748 2412.7174510657787 24978.309782207012 1059.0961684808135 2094.3479805290699 3350.8582160547376 2351.3481363505125 2985.8464907929301 8704.4900080785155 3150.8876275122166 928.60442237555981 3526.5690110996366 615.6632522046566 4950.6525291055441 1870.964749917388 4565.8390562087297 3147.835049405694 947.2721012532711 1408.7702833116055 1543.473783582449 760.52184865623713 152.76345682144165 923.2924714460969 6229.1908472180367 6017.9168230593204 3766.2712680026889 1964.7190179675817 175.95438742637634 46.351837739348412
leaf_count=24281 8129 14116 17976 104565 6317 13759 20436 10355 15715 38379 16039 5406 24113 3316 21375 8672 20044 24636 5710 5567 8066 5018 682 4415 26101 23924 17659 10383 1307 304
internal_value=2.9682e-05 -0.0135451 0.0219019 -0.00683504 -0.0377902 0.0132793 0.0409042 -0.0134186 0.0201469 -0.0179932 -0.0257868 -0.0270711 -0.0461821 -0.0403527 0.00880813 -0.0196198 0.0160497 0.0482823 0.0422531 -0.00691256 0.0324132 0.0252067 -0.0129 0.0219855 -0.00875092 0.00742214 0.0100014 -0.0343463 -0.0530984 -0.0296016
internal_weight=101751 62784.2 38966.4 49174.6 13609.6 26803.7 12162.7 24196.3 10569.3 14207 5502.47 5976.15 7633.43 4142.23 16234.4 2952.33 8474.98 6507.82 3359.99 9989.31 5654.85 2304 2023.73 3909.14 8580.54 14734.8 8716.92 3023.82 3491.2 222.306
internal_count=506765 299903 206862 215122 84781 125020 81842 110557 53933 68534 30155 31460 53321 27429 71087 14760 40174 48322 23686 42023 33520 13084 9354 20130 36456 62958 39034 16700 25892 1611
is_linear=0
shrinkage=0.05


Tree=27
num_leaves=31
num_cat=0
split_feature=0 0 0 0 1 1 2 0 2 0 2 0 0 2 2 2 2 0 2 2 0 0 2 2 0 2 2 2 2 0
split_gain=11047 4259.95 1908.51 848.331 568.471 277.849 266.862 256.571 226.173 183.549 180.716 184.624 128.63 147.251 107.898 104.401 94.7092 166.924 79.9166 79.3051 78.7494 76.7142 73.8275 72.6614 64.7824 127.169 61.0185 60.4865 58.3845 57.2026
threshold=0.0016537949611774025 -0.0052698824319467605 0.0072708224011354614 -0.0010141563595846704 0.29166666666666674 0.25833333333333341 0.0070792375083517352 0.0041828383435883855 0.0058852089062738132 -0.0029210655487975938 0.0076753058911603186 -0.012361731042851837 -0.012869885850800471 0.010922331113014348 0.0037809531488257205 0.0025243449070337051 0.010242921970132273 0.017923736653297374 0.025924852091511671 0.0022482790551043657 0.00023185267059548049 -0.026451836434715961 0.0033771971628725251 0.0117059388020889 0.016310095775761372 0.0079128396948039883 0.022279482915966306 0.0046057198606694058 0.022279482915966306 -0.0069810177409832088
decision_type=2 2 2 2 2 2 2 2 2 2 2 2 2 2 2 2 2 2 2 2 2 2 2 2 2 2 2 2 2 2
left_child=1 4 6 8 12 24 7 15 9 22 29 18 -1 27 -9 -2 -7 28 -12 -11 -5 -20 -3 -10 25 -4 -13 -14 -18 -6
right_child=2 3 5 20 10 16 -8 14 23 19 11 26 13 -15 -16 -17 17 -19 21 -21 -22 -23 -24 -25 -26 -27 -28 -29 -30 -31
leaf_value=-0.052573819921464607 0.032008226458934232 -0.035982662436324718 0.050266771855505037 -0.0016617177283927893 -0.04392484255355561 0.040192970532801124 0.0079915083023406313 0.04315119669000024 -0.0086638127207722716 -0.028549797159843668 -0.037996797979084548 -0.016601267000690836 -0.05112628943227096 -0.0080523385320931864 0.024966372094855156 0.013335458775652613 0.02325013319053287 0.043997475730457591 -0.035019037498937942 -0.010862096745856288 0.0034438495012895603 0.0086536829204652034 -0.021015757504393252 0.0016871481893833366 0.054674757036447322 0.02411418254681795 0.0085037778724695624 -0.035756317378013318 0.00032758389587390143 -0.029499761324204666
